{"type":"LSTM","options":{"inputSize":34,"inputRange":34,"hiddenLayers":[20,20],"outputSize":34,"decayRate":0.999,"smoothEps":1e-8,"regc":0.000001,"clipval":5,"maxPredictionLength":100,"dataFormatter":{"values":["Tikka kabab for Lunch","Dinning Out","Dal and roti for dinner","Tikka for lunch","Debonair pizza for lumch","Biscuits and Grapes","Groceries","Dinner","Lunch","Breakfast","House hold item shopping","Rotie","lunch","Galaxy Buds","General"],"indexTable":{"T":0,"i":1,"k":2,"a":3," ":4,"b":5,"f":6,"o":7,"r":8,"L":9,"u":10,"n":11,"c":12,"h":13,"D":14,"g":15,"O":16,"t":17,"l":18,"d":19,"e":20,"p":21,"z":22,"m":23,"B":24,"s":25,"G":26,"H":27,"R":28,"x":29,"y":30,"stop-input":31,"start-output":32,"unrecognized":33},"characterTable":{"0":"T","1":"i","2":"k","3":"a","4":" ","5":"b","6":"f","7":"o","8":"r","9":"L","10":"u","11":"n","12":"c","13":"h","14":"D","15":"g","16":"O","17":"t","18":"l","19":"d","20":"e","21":"p","22":"z","23":"m","24":"B","25":"s","26":"G","27":"H","28":"R","29":"x","30":"y","31":null,"32":null,"33":null},"characters":["T","i","k","a"," ","b","f","o","r","L","u","n","c","h","D","g","O","t","l","d","e","p","z","m","B","s","G","H","R","x","y","stop-input","start-output","unrecognized"],"specialIndexes":[31,32,33]}},"input":{"rows":35,"columns":34,"weights":{"0":-0.431138277053833,"1":-1.0320637226104736,"2":-0.7065005302429199,"3":-0.8287405371665955,"4":3.0744569301605225,"5":-1.2794548273086548,"6":2.122217893600464,"7":-0.04129130020737648,"8":0.3435126543045044,"9":-0.8046112060546875,"10":1.5943453311920166,"11":0.9668357372283936,"12":-0.19594109058380127,"13":0.3396419286727905,"14":1.0677062273025513,"15":-0.2709406018257141,"16":0.833128035068512,"17":0.3669642508029938,"18":-0.07567229121923447,"19":0.5027437806129456,"20":-0.7212322354316711,"21":2.9046058654785156,"22":-1.4284969568252563,"23":-1.2137420177459717,"24":-0.3017451763153076,"25":-0.7693428993225098,"26":0.4753837585449219,"27":-0.37095922231674194,"28":0.4867701828479767,"29":-0.15918684005737305,"30":0.4388193190097809,"31":0.8660122156143188,"32":0.31725332140922546,"33":0.7198458909988403,"34":-1.2964402437210083,"35":-1.947906494140625,"36":3.0000476837158203,"37":3.8855574131011963,"38":-3.3132171630859375,"39":3.115999221801758,"40":4.326206684112549,"41":4.207870960235596,"42":-2.245591878890991,"43":0.3690508008003235,"44":-1.2654727697372437,"45":-7.070918560028076,"46":-2.1676018238067627,"47":-6.151017189025879,"48":1.3604991436004639,"49":-0.9925487637519836,"50":4.6339592933654785,"51":0.9999916553497314,"52":-0.8348896503448486,"53":4.137937068939209,"54":-3.1631925106048584,"55":1.2486722469329834,"56":-3.08247971534729,"57":-0.04781413823366165,"58":-2.056553602218628,"59":-4.871766090393066,"60":3.6613783836364746,"61":-0.00944262370467186,"62":3.487379312515259,"63":-0.7739609479904175,"64":-1.5553934574127197,"65":-0.6547723412513733,"66":-1.580707311630249,"67":-2.5770206451416016,"68":-1.673622727394104,"69":1.6087201833724976,"70":-0.4404883086681366,"71":0.9580621123313904,"72":1.051004409790039,"73":1.191612720489502,"74":1.0053656101226807,"75":0.07803883403539658,"76":-0.750611424446106,"77":-0.2430432140827179,"78":1.3163186311721802,"79":0.14243583381175995,"80":-2.308983087539673,"81":0.41541242599487305,"82":1.9277650117874146,"83":-2.827267646789551,"84":-1.3838706016540527,"85":0.923643946647644,"86":-0.29912981390953064,"87":0.7779415249824524,"88":1.3208744525909424,"89":1.0726842880249023,"90":-0.3798759877681732,"91":-1.6799089908599854,"92":-2.4135096073150635,"93":-1.6778010129928589,"94":1.3690648078918457,"95":-1.1308934688568115,"96":-0.15746520459651947,"97":0.20892858505249023,"98":-0.7297579646110535,"99":0.7701064348220825,"100":1.9316641092300415,"101":-1.1917093992233276,"102":-2.4241719245910645,"103":-4.162956237792969,"104":5.50164270401001,"105":4.079946041107178,"106":-0.988588273525238,"107":0.41362422704696655,"108":-4.157125949859619,"109":1.0245680809020996,"110":-1.933562994003296,"111":-0.7592787146568298,"112":0.5353338122367859,"113":-3.8052282333374023,"114":4.2479658126831055,"115":-3.925344228744507,"116":-0.8625584840774536,"117":-1.6977698802947998,"118":4.571457862854004,"119":0.9581606984138489,"120":-3.4299371242523193,"121":-0.12593582272529602,"122":-7.580296516418457,"123":-3.508084774017334,"124":-3.2501368522644043,"125":0.9002518653869629,"126":0.45898523926734924,"127":-0.02271880954504013,"128":-0.6278370022773743,"129":-0.6288444995880127,"130":1.0142230987548828,"131":-7.170294761657715,"132":-1.6018730401992798,"133":-3.61177659034729,"134":-1.0502431392669678,"135":2.922407865524292,"136":-0.7154844999313354,"137":0.7220778465270996,"138":1.019051194190979,"139":2.4684081077575684,"140":-0.4596326947212219,"141":-1.713403582572937,"142":-1.1679036617279053,"143":0.4771249294281006,"144":-1.772641897201538,"145":-0.17949821054935455,"146":0.4477875530719757,"147":-0.11344212293624878,"148":3.033010244369507,"149":-3.339144468307495,"150":-1.0528360605239868,"151":1.426554560661316,"152":3.9897878170013428,"153":0.03916727378964424,"154":-0.342399537563324,"155":-0.5395918488502502,"156":-4.695519924163818,"157":-3.241743326187134,"158":0.5685620307922363,"159":-1.3080452680587769,"160":1.4161916971206665,"161":0.307232141494751,"162":0.29853495955467224,"163":-2.0650436878204346,"164":-1.2874584197998047,"165":-4.52177619934082,"166":-1.0327115058898926,"167":-0.7829017639160156,"168":-0.9840252995491028,"169":4.223879814147949,"170":-1.2076140642166138,"171":0.6156238913536072,"172":0.7787700295448303,"173":0.2674393653869629,"174":1.1384038925170898,"175":1.0874664783477783,"176":0.2981071472167969,"177":0.009933005087077618,"178":-0.8040794134140015,"179":-0.5209130048751831,"180":1.336731195449829,"181":-0.20367011427879333,"182":-1.0495423078536987,"183":-0.5977643132209778,"184":0.41256704926490784,"185":-0.6889910101890564,"186":-0.7109853625297546,"187":1.4195588827133179,"188":-0.25829291343688965,"189":0.8839479684829712,"190":0.0018524563638493419,"191":0.6210309267044067,"192":-1.0410250425338745,"193":-0.4564500153064728,"194":-0.26963773369789124,"195":-0.08435320109128952,"196":1.7659753561019897,"197":-2.380476474761963,"198":0.41978272795677185,"199":0.1402083784341812,"200":0.5461748242378235,"201":-2.0567574501037598,"202":0.8665341138839722,"203":0.40803298354148865,"204":-8.345359802246094,"205":0.10634502023458481,"206":3.967963218688965,"207":-0.5369879007339478,"208":0.7531664967536926,"209":-3.6829333305358887,"210":2.6976802349090576,"211":2.458831310272217,"212":-3.0378637313842773,"213":-7.956729888916016,"214":6.352983474731445,"215":-0.4871504008769989,"216":-0.04715659096837044,"217":-4.367125034332275,"218":-1.9361823797225952,"219":0.6623088121414185,"220":-2.1607792377471924,"221":0.2971566915512085,"222":-6.769329071044922,"223":6.660088062286377,"224":-4.690484046936035,"225":-1.9209682941436768,"226":-3.95306134223938,"227":-4.434834003448486,"228":-1.3225727081298828,"229":1.6569571495056152,"230":5.705023765563965,"231":-5.220722675323486,"232":2.3943819999694824,"233":-5.7657904624938965,"234":0.24122354388237,"235":-5.169252872467041,"236":4.201600551605225,"237":-1.3803375959396362,"238":-1.0017727613449097,"239":-3.9765067100524902,"240":6.278337001800537,"241":-0.7477228045463562,"242":-2.1395771503448486,"243":2.619715452194214,"244":1.562990665435791,"245":4.5173187255859375,"246":0.7345383167266846,"247":-1.747758150100708,"248":3.7287585735321045,"249":-4.254024505615234,"250":2.161531448364258,"251":-8.58800220489502,"252":1.944906234741211,"253":-0.994651198387146,"254":3.723811388015747,"255":-0.7150223851203918,"256":1.1425931453704834,"257":-0.811161458492279,"258":-6.951128959655762,"259":0.7137030363082886,"260":-3.1530556678771973,"261":3.0971810817718506,"262":-1.3369193077087402,"263":-1.3224560022354126,"264":3.349334955215454,"265":0.16558676958084106,"266":4.198671340942383,"267":-4.327681064605713,"268":-0.14138053357601166,"269":-1.3721001148223877,"270":0.9268838167190552,"271":-1.1369867324829102,"272":1.4042377471923828,"273":-1.4405378103256226,"274":3.34696102142334,"275":-2.0041403770446777,"276":-0.536249577999115,"277":1.6063697338104248,"278":-0.7917162179946899,"279":0.7752599120140076,"280":0.7073605060577393,"281":-2.8514997959136963,"282":1.0786882638931274,"283":-1.345191478729248,"284":3.992358446121216,"285":0.006294477730989456,"286":0.2823840379714966,"287":-0.09061538428068161,"288":-1.150559663772583,"289":-0.41921910643577576,"290":-1.9152214527130127,"291":3.799001693725586,"292":0.7811295390129089,"293":0.7852243185043335,"294":-2.190526008605957,"295":-1.804195523262024,"296":-0.909727156162262,"297":-0.09666095674037933,"298":0.05409673973917961,"299":1.7357655763626099,"300":1.2039164304733276,"301":-0.00007148615986807272,"302":0.055628396570682526,"303":-0.060678474605083466,"304":-1.9166719913482666,"305":-0.6281535029411316,"306":-1.5484673976898193,"307":0.34745365381240845,"308":0.22276300191879272,"309":3.862809181213379,"310":0.16272489726543427,"311":-0.190161794424057,"312":-0.24401281774044037,"313":3.906799077987671,"314":-2.8797905445098877,"315":0.26564645767211914,"316":-0.4919681251049042,"317":-0.6220605969429016,"318":0.07095107436180115,"319":-2.23211407661438,"320":-0.8585680723190308,"321":1.5745091438293457,"322":1.3228133916854858,"323":0.24566346406936646,"324":-0.531900942325592,"325":-0.007315354887396097,"326":-0.7645606398582458,"327":-0.47247859835624695,"328":-0.7266625165939331,"329":-1.7830654382705688,"330":-0.09800425916910172,"331":0.03723641857504845,"332":2.087015390396118,"333":-1.68970787525177,"334":-0.11581463366746902,"335":-0.0737784132361412,"336":-2.128634214401245,"337":-0.8620029091835022,"338":-0.25432607531547546,"339":0.649665892124176,"340":-2.789001703262329,"341":1.7363214492797852,"342":-1.462634801864624,"343":-2.582024097442627,"344":0.1851172000169754,"345":-3.0734364986419678,"346":-1.995212435722351,"347":-2.6311566829681396,"348":3.327181816101074,"349":2.784865140914917,"350":-5.731579780578613,"351":-0.35643795132637024,"352":0.8899630904197693,"353":-0.02449716255068779,"354":0.9444416165351868,"355":1.5283442735671997,"356":0.36345720291137695,"357":-6.335034370422363,"358":0.15752971172332764,"359":-3.2697651386260986,"360":-2.122786045074463,"361":-4.0241498947143555,"362":0.9795154333114624,"363":-3.0014188289642334,"364":1.990962266921997,"365":2.852998733520508,"366":1.328477382659912,"367":4.655773639678955,"368":-0.26654478907585144,"369":1.0233083963394165,"370":2.490936517715454,"371":3.351691246032715,"372":0.019076354801654816,"373":0.08777740597724915,"374":-2.5460846424102783,"375":-0.27785831689834595,"376":1.7815263271331787,"377":2.547119140625,"378":-2.134835720062256,"379":-0.6676267385482788,"380":0.4157886803150177,"381":1.1584612131118774,"382":0.08832895010709763,"383":-1.5378304719924927,"384":-0.689319908618927,"385":-2.0413663387298584,"386":-0.3861936926841736,"387":-0.4327283501625061,"388":-0.8736262917518616,"389":-0.18060947954654694,"390":-0.4426356256008148,"391":-0.015836963430047035,"392":0.015989558771252632,"393":2.567430019378662,"394":-1.4006938934326172,"395":-1.0417455434799194,"396":-2.128783941268921,"397":-1.4411729574203491,"398":-0.5109124779701233,"399":0.09719081968069077,"400":2.4462809562683105,"401":-1.65578031539917,"402":1.101759672164917,"403":-1.4467235803604126,"404":-1.4416157007217407,"405":0.3071388900279999,"406":0.4021918475627899,"407":-0.010636569000780582,"408":-0.5718244910240173,"409":-0.8871482014656067,"410":0.47685927152633667,"411":0.4498606324195862,"412":0.5451390743255615,"413":-0.6603718400001526,"414":0.9806025624275208,"415":0.23839615285396576,"416":-0.059440188109874725,"417":0.3525855839252472,"418":-0.4875122904777527,"419":-0.09308949112892151,"420":-0.5531082153320312,"421":-0.14762181043624878,"422":-0.1923149824142456,"423":0.9635314345359802,"424":1.0738478899002075,"425":0.44879013299942017,"426":0.44517210125923157,"427":-0.35966724157333374,"428":-0.29959237575531006,"429":0.058322515338659286,"430":-0.805123507976532,"431":-0.21502737700939178,"432":0.710825502872467,"433":-0.11077900975942612,"434":0.22260889410972595,"435":-0.9047627449035645,"436":0.4377654194831848,"437":-0.3277381956577301,"438":0.010854269377887249,"439":-0.7615050077438354,"440":0.737305223941803,"441":1.6271708011627197,"442":0.753767192363739,"443":-1.5523649454116821,"444":2.6834819316864014,"445":3.3405699729919434,"446":-1.2040488719940186,"447":-0.2474450170993805,"448":0.3853563070297241,"449":0.447675883769989,"450":-4.0322394371032715,"451":-0.3221456706523895,"452":-2.0459883213043213,"453":-1.7076104879379272,"454":4.212947845458984,"455":-0.3817470967769623,"456":-0.12398799508810043,"457":-0.229764923453331,"458":2.9675564765930176,"459":2.677159309387207,"460":0.13047072291374207,"461":1.4880084991455078,"462":-0.8683477640151978,"463":-1.3533730506896973,"464":-1.276862382888794,"465":-1.952069640159607,"466":-0.7084167003631592,"467":-1.4354912042617798,"468":1.2133692502975464,"469":-1.030170202255249,"470":-0.1466960310935974,"471":-2.314805746078491,"472":-3.8563427925109863,"473":-1.595410704612732,"474":1.1220976114273071,"475":0.16137030720710754,"476":-0.7220625281333923,"477":-0.645749032497406,"478":0.5168068408966064,"479":2.725146532058716,"480":0.36655300855636597,"481":0.29326483607292175,"482":-0.7702777981758118,"483":4.473831653594971,"484":-2.2522902488708496,"485":-0.6661975979804993,"486":-0.8802927732467651,"487":-0.5039977431297302,"488":2.841128349304199,"489":-2.6592350006103516,"490":0.003597244853153825,"491":3.3193180561065674,"492":4.095908164978027,"493":-0.07988417148590088,"494":-1.9229880571365356,"495":-0.4218537509441376,"496":-1.9267187118530273,"497":-0.9877279996871948,"498":-0.13318240642547607,"499":-0.07146143168210983,"500":1.189360499382019,"501":1.0432829856872559,"502":1.5574970245361328,"503":-0.4027930796146393,"504":1.1512466669082642,"505":-0.8982099294662476,"506":-2.016226291656494,"507":-4.983806610107422,"508":-1.1111994981765747,"509":0.5349819660186768,"510":-0.5898371934890747,"511":-0.5512468218803406,"512":1.349567174911499,"513":3.4391918182373047,"514":-2.102999448776245,"515":-0.12231847643852234,"516":0.5831066966056824,"517":0.30787453055381775,"518":-0.7465117573738098,"519":-0.17103198170661926,"520":-1.8307948112487793,"521":-1.2316882610321045,"522":0.5147719383239746,"523":-0.7194734811782837,"524":-0.49931153655052185,"525":-1.546372652053833,"526":-0.09671936929225922,"527":0.6726595759391785,"528":1.0118619203567505,"529":-0.42084968090057373,"530":-0.23998941481113434,"531":-0.6048416495323181,"532":-0.43768003582954407,"533":-0.7765129208564758,"534":-0.8843464851379395,"535":-1.083445429801941,"536":-0.5792945623397827,"537":-0.1691887527704239,"538":-0.45417341589927673,"539":-0.5761558413505554,"540":-2.945376396179199,"541":0.3866860866546631,"542":1.2876688241958618,"543":-0.9452657699584961,"544":-0.910871148109436,"545":-2.882018566131592,"546":0.1227959394454956,"547":0.18725720047950745,"548":-2.0707993507385254,"549":-0.18497540056705475,"550":-1.3095178604125977,"551":2.0534799098968506,"552":0.47131818532943726,"553":-0.12029091268777847,"554":-0.9517009854316711,"555":-1.5936799049377441,"556":0.7549901008605957,"557":-1.0529155731201172,"558":0.038227688521146774,"559":1.2813129425048828,"560":0.7752172350883484,"561":-0.9422452449798584,"562":-0.4638352692127228,"563":-0.22907418012619019,"564":-0.6203437447547913,"565":-0.4801477789878845,"566":-1.1984906196594238,"567":0.12932060658931732,"568":-1.621596097946167,"569":0.7240341901779175,"570":-1.2930264472961426,"571":1.5550692081451416,"572":2.3707611560821533,"573":-0.04597051069140434,"574":-0.09704368561506271,"575":-0.06502612680196762,"576":-1.0762872695922852,"577":-0.709181547164917,"578":-0.8005793690681458,"579":-1.9933068752288818,"580":0.7631188631057739,"581":0.9247964024543762,"582":0.575667679309845,"583":-0.12588684260845184,"584":1.13076651096344,"585":0.4620440900325775,"586":-2.149397850036621,"587":-1.5296701192855835,"588":-1.3963093757629395,"589":-1.0618568658828735,"590":2.51521635055542,"591":0.07679668813943863,"592":0.3212832510471344,"593":-1.0097112655639648,"594":0.5201947093009949,"595":2.174389362335205,"596":-0.18027564883232117,"597":1.8379756212234497,"598":-0.0768052265048027,"599":0.3130289614200592,"600":0.48868444561958313,"601":-0.4990033507347107,"602":-2.184061288833618,"603":-0.4812242388725281,"604":0.9850339293479919,"605":-2.8643033504486084,"606":-0.9910206198692322,"607":-0.9783121347427368,"608":-2.438716411590576,"609":-1.5607548952102661,"610":0.18392764031887054,"611":0.303348183631897,"612":-0.5281757116317749,"613":-0.2136857956647873,"614":0.6269693970680237,"615":1.1824116706848145,"616":-1.0555410385131836,"617":0.07839104533195496,"618":-0.9989024996757507,"619":1.2713605165481567,"620":-0.8040170073509216,"621":-1.086384654045105,"622":-0.5476697087287903,"623":-0.01290476880967617,"624":0.03183980658650398,"625":-0.6654468774795532,"626":-0.4950442612171173,"627":0.50706946849823,"628":-0.2277694046497345,"629":-1.4918562173843384,"630":-0.8950205445289612,"631":-0.0314541757106781,"632":-2.120966672897339,"633":-1.5568771362304688,"634":-0.7233508825302124,"635":-0.4027378261089325,"636":0.12428735196590424,"637":1.2480577230453491,"638":0.14877168834209442,"639":0.5428159236907959,"640":-0.05985403433442116,"641":-1.4581648111343384,"642":-0.6573911309242249,"643":-0.8280866742134094,"644":-0.6580716967582703,"645":0.6808509230613708,"646":1.2296504974365234,"647":0.6060832738876343,"648":0.03477337956428528,"649":4.4807281494140625,"650":-0.10366227477788925,"651":1.0939198732376099,"652":0.20145565271377563,"653":2.0808026790618896,"654":-3.607168674468994,"655":1.1201337575912476,"656":-2.97261381149292,"657":-3.9445607662200928,"658":3.2934484481811523,"659":-1.990639328956604,"660":1.071418046951294,"661":-0.4516136944293976,"662":5.124222278594971,"663":2.821248769760132,"664":-5.891170978546143,"665":0.5194293856620789,"666":-1.167177438735962,"667":1.3783667087554932,"668":-1.7424242496490479,"669":1.1242518424987793,"670":-2.4189791679382324,"671":-1.807271122932434,"672":1.8680503368377686,"673":-2.9584500789642334,"674":1.078542709350586,"675":-2.9055488109588623,"676":-3.593618869781494,"677":-2.2579379081726074,"678":0.8264352679252625,"679":0.7439879179000854,"680":-1.4955767393112183,"681":2.007920265197754,"682":-2.7326364517211914,"683":-2.940568208694458,"684":2.3843300342559814,"685":3.5487513542175293,"686":2.6738440990448,"687":-3.595907211303711,"688":1.7725965976715088,"689":1.0158734321594238,"690":0.2533762753009796,"691":2.8910670280456543,"692":-2.1351897716522217,"693":0.20059354603290558,"694":0.6087144613265991,"695":-1.328938364982605,"696":-1.932801604270935,"697":1.9545763731002808,"698":2.975015640258789,"699":-1.1197388172149658,"700":3.1040029525756836,"701":2.258575201034546,"702":2.4479663372039795,"703":-1.874860405921936,"704":-1.7177329063415527,"705":-1.8391337394714355,"706":1.9290622472763062,"707":-3.5470879077911377,"708":-3.428983211517334,"709":2.716120481491089,"710":2.13344669342041,"711":4.443504810333252,"712":-1.163983702659607,"713":-0.6348035931587219,"714":1.5275769233703613,"715":-2.711165428161621,"716":0.7717741131782532,"717":1.3959732055664062,"718":0.011076513677835464,"719":-0.07341566681861877,"720":-0.12543357908725739,"721":0.14925110340118408,"722":-0.387328565120697,"723":1.2748218774795532,"724":0.6688178181648254,"725":-3.5003302097320557,"726":-1.6290477514266968,"727":-1.4375181198120117,"728":-0.8058784604072571,"729":0.046785883605480194,"730":2.4411768913269043,"731":-0.6476244926452637,"732":0.4079839885234833,"733":-0.2676478326320648,"734":-2.931429624557495,"735":1.1211880445480347,"736":-0.7846691012382507,"737":2.504359245300293,"738":-0.027901506051421165,"739":0.22031444311141968,"740":-0.8058950304985046,"741":1.8923460245132446,"742":0.07112284749746323,"743":-0.7018441557884216,"744":-0.5069788694381714,"745":0.3742602467536926,"746":-0.10487984865903854,"747":0.7432710528373718,"748":3.302825450897217,"749":1.971698522567749,"750":0.5759032964706421,"751":0.9282881617546082,"752":-1.9601823091506958,"753":-3.4835448265075684,"754":-4.695202350616455,"755":-1.2036539316177368,"756":-0.33495721220970154,"757":4.545900821685791,"758":-2.924755096435547,"759":0.39410749077796936,"760":0.4148819148540497,"761":1.2379176616668701,"762":-5.619052410125732,"763":3.894036054611206,"764":1.6476069688796997,"765":-3.176689624786377,"766":6.605130672454834,"767":-6.274913311004639,"768":0.02139768749475479,"769":-1.053898572921753,"770":-1.8493572473526,"771":3.805119037628174,"772":6.189423084259033,"773":4.1217732429504395,"774":-0.2130354642868042,"775":0.21871204674243927,"776":-0.9295206665992737,"777":0.5669914484024048,"778":-2.5223121643066406,"779":-1.3951488733291626,"780":-5.101016998291016,"781":3.6906986236572266,"782":4.9083757400512695,"783":-3.285176992416382,"784":0.22636428475379944,"785":14.761815071105957,"786":-1.653883457183838,"787":1.370977759361267,"788":-1.9404325485229492,"789":11.286260604858398,"790":-9.725518226623535,"791":3.1145997047424316,"792":-6.039440155029297,"793":-3.9679861068725586,"794":-1.883816123008728,"795":-4.761446475982666,"796":1.3526387214660645,"797":2.801621913909912,"798":-6.216171741485596,"799":-4.697906494140625,"800":-6.962695598602295,"801":-6.304073810577393,"802":2.242635726928711,"803":-3.1120893955230713,"804":-1.8902438879013062,"805":3.543672800064087,"806":2.323697566986084,"807":2.006957769393921,"808":-4.376866817474365,"809":10.005544662475586,"810":0.6532499194145203,"811":-1.460856318473816,"812":-9.745474815368652,"813":-3.8004872798919678,"814":-3.5555214881896973,"815":9.15291690826416,"816":-1.460036039352417,"817":3.3400673866271973,"818":-1.0221679210662842,"819":3.5184543132781982,"820":1.954086422920227,"821":6.097262382507324,"822":0.4523863196372986,"823":0.4983723759651184,"824":-1.1964722871780396,"825":-3.2059640884399414,"826":1.8548768758773804,"827":-0.964907169342041,"828":-1.3554269075393677,"829":-1.818091630935669,"830":4.046999931335449,"831":-4.486563682556152,"832":-1.494080662727356,"833":5.1162309646606445,"834":-2.583695650100708,"835":4.039440155029297,"836":2.3031606674194336,"837":0.31377458572387695,"838":1.7634493112564087,"839":0.8901057243347168,"840":-7.256608963012695,"841":-5.86831521987915,"842":2.4351398944854736,"843":-0.28112590312957764,"844":-1.9484165906906128,"845":0.006677093915641308,"846":-3.7428836822509766,"847":0.36391425132751465,"848":2.281857490539551,"849":-4.727226257324219,"850":-4.148129463195801,"851":5.643741607666016,"852":-1.1100034713745117,"853":-0.4493894577026367,"854":-2.410884380340576,"855":-0.45223677158355713,"856":-0.247455433011055,"857":-0.5565800666809082,"858":0.33500242233276367,"859":-1.9826503992080688,"860":-1.3524830341339111,"861":-0.45780518651008606,"862":0.07329455018043518,"863":1.0283039808273315,"864":1.8745118379592896,"865":-1.541836142539978,"866":-1.3038405179977417,"867":-2.2067015171051025,"868":-0.0191628597676754,"869":2.097715377807617,"870":1.3081644773483276,"871":-1.3923319578170776,"872":1.7752200365066528,"873":-0.7638567686080933,"874":-6.9073333740234375,"875":-0.4037308692932129,"876":1.5440747737884521,"877":-1.7434269189834595,"878":-0.20328307151794434,"879":0.040479667484760284,"880":-0.27458223700523376,"881":4.187130451202393,"882":1.2475427389144897,"883":-3.7945680618286133,"884":1.3075318336486816,"885":-0.6817759275436401,"886":0.4868384897708893,"887":4.520705223083496,"888":-3.6390795707702637,"889":1.6728851795196533,"890":-1.0016578435897827,"891":0.09620093554258347,"892":-4.806358814239502,"893":2.1657638549804688,"894":-3.4178953170776367,"895":-7.382159233093262,"896":2.4849445819854736,"897":0.22641806304454803,"898":1.0977495908737183,"899":-4.055906772613525,"900":2.4488003253936768,"901":0.6115399599075317,"902":0.4386325478553772,"903":-1.5878219604492188,"904":-0.32886216044425964,"905":-1.3086354732513428,"906":-2.011592149734497,"907":0.5652980804443359,"908":-3.066906690597534,"909":-0.9014193415641785,"910":-1.53885817527771,"911":1.4387027025222778,"912":0.3865410089492798,"913":-4.030008316040039,"914":-4.970968723297119,"915":-2.809962749481201,"916":3.464282274246216,"917":-1.6682140827178955,"918":0.9722805619239807,"919":-0.10492581874132156,"920":-4.266971111297607,"921":-1.990549087524414,"922":4.206979274749756,"923":-1.497767686843872,"924":2.343719005584717,"925":-1.1601247787475586,"926":0.38353168964385986,"927":5.4291582107543945,"928":-0.9477837681770325,"929":6.804823398590088,"930":-0.29807332158088684,"931":4.811039924621582,"932":-0.42820656299591064,"933":0.696772038936615,"934":-1.23219895362854,"935":-0.37957629561424255,"936":2.865544319152832,"937":-3.655214309692383,"938":2.300771951675415,"939":5.679797172546387,"940":2.1818864345550537,"941":1.3486689329147339,"942":2.0188393592834473,"943":0.9421966671943665,"944":-2.4057159423828125,"945":3.2957427501678467,"946":-1.8514156341552734,"947":4.209329128265381,"948":1.2975190877914429,"949":-0.2690236270427704,"950":2.5106866359710693,"951":2.0702431201934814,"952":5.367021083831787,"953":5.86052942276001,"954":3.406888723373413,"955":-7.815223217010498,"956":-5.070647239685059,"957":5.259539604187012,"958":-2.1338887214660645,"959":-4.781434535980225,"960":2.8547325134277344,"961":-3.975487232208252,"962":-2.019082546234131,"963":-0.7401419281959534,"964":1.1214648485183716,"965":2.2175610065460205,"966":-3.836153268814087,"967":-0.8150389194488525,"968":-4.114210605621338,"969":0.9877461194992065,"970":8.136462211608887,"971":-3.6359660625457764,"972":-1.3600647449493408,"973":-1.082504391670227,"974":4.189700603485107,"975":5.830371856689453,"976":3.5425865650177,"977":1.2841155529022217,"978":-0.7837432026863098,"979":1.8573992252349854,"980":-7.510837554931641,"981":1.9472745656967163,"982":3.5206947326660156,"983":3.4275684356689453,"984":-2.068042755126953,"985":-8.26866626739502,"986":-8.631329536437988,"987":-1.2949137687683105,"988":-2.2375221252441406,"989":2.5515246391296387,"990":-3.752002000808716,"991":0.17196857929229736,"992":2.7312095165252686,"993":-1.2293014526367188,"994":-5.297858715057373,"995":-4.052271366119385,"996":3.513270616531372,"997":-3.442565679550171,"998":3.5213212966918945,"999":0.2637646794319153,"1000":4.8571343421936035,"1001":-3.7076845169067383,"1002":0.956939160823822,"1003":7.234548091888428,"1004":-4.484323501586914,"1005":11.666808128356934,"1006":4.468252658843994,"1007":4.065687656402588,"1008":-0.9609705209732056,"1009":-4.261385440826416,"1010":-9.914080619812012,"1011":-2.5899384021759033,"1012":6.398015975952148,"1013":-12.052754402160645,"1014":-4.54561710357666,"1015":0.8436495661735535,"1016":-3.6362667083740234,"1017":-5.623112201690674,"1018":1.9682523012161255,"1019":-2.0570571422576904,"1020":4.544803619384766,"1021":-0.6637680530548096,"1022":3.208636522293091,"1023":3.028897285461426,"1024":-7.98842191696167,"1025":-2.018584966659546,"1026":-8.46907901763916,"1027":5.0904860496521,"1028":-0.3343798816204071,"1029":3.1387245655059814,"1030":-2.70615816116333,"1031":-5.591635704040527,"1032":1.6451764106750488,"1033":-1.7321522235870361,"1034":-2.2587387561798096,"1035":3.1714563369750977,"1036":-0.5136252641677856,"1037":-9.58674144744873,"1038":-2.157973289489746,"1039":-0.12747769057750702,"1040":4.213522911071777,"1041":-3.935419797897339,"1042":-0.32848063111305237,"1043":4.009067535400391,"1044":6.367880344390869,"1045":7.7920732498168945,"1046":-8.497370719909668,"1047":7.553843975067139,"1048":5.117921829223633,"1049":-3.273784875869751,"1050":-0.23134738206863403,"1051":9.283748626708984,"1052":-11.271533012390137,"1053":5.761889457702637,"1054":3.277466058731079,"1055":1.9492576122283936,"1056":-0.6467180252075195,"1057":-3.109177350997925,"1058":-0.8609963059425354,"1059":-12.522568702697754,"1060":-4.750553131103516,"1061":-1.1827081441879272,"1062":4.808106422424316,"1063":3.3979053497314453,"1064":-2.3192405700683594,"1065":-1.281734824180603,"1066":-7.543599605560303,"1067":-1.0420047044754028,"1068":-3.202404022216797,"1069":6.473686218261719,"1070":6.0452752113342285,"1071":-6.413922309875488,"1072":6.987154483795166,"1073":-3.28741455078125,"1074":-6.17350435256958,"1075":-1.354495644569397,"1076":-5.832279682159424,"1077":6.935359477996826,"1078":6.639685153961182,"1079":7.100584983825684,"1080":-1.5999383926391602,"1081":2.763556480407715,"1082":-0.1426762193441391,"1083":4.4483418464660645,"1084":2.013740301132202,"1085":2.5291378498077393,"1086":-2.607490301132202,"1087":1.3101614713668823,"1088":0.8494594097137451,"1089":1.0054808855056763,"1090":1.0235105752944946,"1091":0.8532392978668213,"1092":-1.2817047834396362,"1093":0.04987027496099472,"1094":-1.5842441320419312,"1095":1.2991960048675537,"1096":-1.2794628143310547,"1097":-1.9499059915542603,"1098":0.5072030425071716,"1099":0.20045863091945648,"1100":2.627304792404175,"1101":-0.274791419506073,"1102":-1.7280235290527344,"1103":0.5724755525588989,"1104":0.9213785529136658,"1105":-0.7893491983413696,"1106":-1.2600079774856567,"1107":0.6164600253105164,"1108":0.3069239556789398,"1109":-0.46576443314552307,"1110":-0.4515206217765808,"1111":-0.21582633256912231,"1112":1.0801812410354614,"1113":0.9671962857246399,"1114":1.5133270025253296,"1115":-1.0880980491638184,"1116":0.6981136798858643,"1117":-0.704095721244812,"1118":-1.3969875574111938,"1119":-2.8643083572387695,"1120":-3.2890143394470215,"1121":0.17514510452747345,"1122":0.3375016450881958,"1123":-1.5421333312988281,"1124":-0.5541812181472778,"1125":-1.0405359268188477,"1126":0.038037437945604324,"1127":-0.4261162281036377,"1128":-0.26685360074043274,"1129":-0.7447156310081482,"1130":1.098253607749939,"1131":0.03958851844072342,"1132":0.44487762451171875,"1133":-0.9086604714393616,"1134":-0.551143229007721,"1135":1.7303215265274048,"1136":0.998837411403656,"1137":-0.6604973077774048,"1138":-0.8627960085868835,"1139":-1.287387490272522,"1140":-0.5258084535598755,"1141":0.8584356307983398,"1142":0.9404731392860413,"1143":0.00026024822727777064,"1144":0.5531946420669556,"1145":0.5003757476806641,"1146":-1.9298242330551147,"1147":0.05745497718453407,"1148":-1.2354607582092285,"1149":1.8123315572738647,"1150":0.5582322478294373,"1151":0.5443770289421082,"1152":0.9485012292861938,"1153":0.4967111647129059,"1154":0.3012590706348419,"1155":-1.148077130317688,"1156":-0.008004642091691494,"1157":-0.010399413295090199,"1158":-0.011637495830655098,"1159":-0.03523772954940796,"1160":0.07120584696531296,"1161":0.05338449403643608,"1162":-0.04745172709226608,"1163":0.06502678990364075,"1164":-0.06178988888859749,"1165":-0.0567438043653965,"1166":-0.030439740046858788,"1167":0.039236217737197876,"1168":-0.053418297320604324,"1169":0.018975960090756416,"1170":-0.05976047366857529,"1171":-0.038197994232177734,"1172":-0.020472204312682152,"1173":0.04689723998308182,"1174":0.07001428306102753,"1175":0.05166127160191536,"1176":0.04475298896431923,"1177":-0.009341645054519176,"1178":0.06329187750816345,"1179":0.030788976699113846,"1180":-0.021014105528593063,"1181":-0.0005455928621813655,"1182":0.04329684376716614,"1183":-0.03138962760567665,"1184":-0.02103891782462597,"1185":0.02730081044137478,"1186":-0.026484811678528786,"1187":-0.0059123863466084,"1188":0.07739231735467911,"1189":0.019602036103606224}},"hiddenLayers":[{"inputMatrix":{"rows":20,"columns":34,"weights":{"0":1.3555362224578857,"1":-0.37908515334129333,"2":-1.0247843265533447,"3":-1.0850740671157837,"4":0.3693133294582367,"5":-0.9482119083404541,"6":0.7501771450042725,"7":-0.8843838572502136,"8":1.8988981246948242,"9":0.753072202205658,"10":-0.18916386365890503,"11":0.4701758921146393,"12":-0.4262290894985199,"13":0.9264838099479675,"14":-0.5562518835067749,"15":1.3736414909362793,"16":0.5776640176773071,"17":0.47243303060531616,"18":2.176353693008423,"19":-1.3411705493927002,"20":0.15784427523612976,"21":0.34664756059646606,"22":0.4887550473213196,"23":1.0554287433624268,"24":2.4476685523986816,"25":0.055092230439186096,"26":-0.6971426606178284,"27":0.2075103521347046,"28":-0.49692752957344055,"29":0.7898555397987366,"30":1.5471265316009521,"31":0.4545881748199463,"32":0.21595008671283722,"33":0.40669509768486023,"34":-1.2960141897201538,"35":1.1092681884765625,"36":-0.4925172030925751,"37":2.5758938789367676,"38":0.3543924391269684,"39":-0.1648971140384674,"40":-0.5479527115821838,"41":-0.9343233704566956,"42":-2.3288471698760986,"43":0.1309082806110382,"44":-0.5994230508804321,"45":1.8047654628753662,"46":-0.36464428901672363,"47":1.0089033842086792,"48":-0.7863307595252991,"49":-0.35398274660110474,"50":-1.2105274200439453,"51":1.8998185396194458,"52":-1.3682717084884644,"53":-0.11330459266901016,"54":0.610960066318512,"55":-0.12217497080564499,"56":0.44200876355171204,"57":-1.5086663961410522,"58":0.0015902894083410501,"59":0.23222896456718445,"60":0.5853182077407837,"61":-1.34895920753479,"62":-1.2931820154190063,"63":-0.13740195333957672,"64":-1.9478806257247925,"65":-2.77455472946167,"66":0.10085386782884598,"67":0.579214334487915,"68":0.8556838035583496,"69":-0.15629465878009796,"70":-1.32901930809021,"71":-0.8081700205802917,"72":1.17836332321167,"73":-0.8864476084709167,"74":0.17491458356380463,"75":-0.7464056611061096,"76":1.148297667503357,"77":1.130111813545227,"78":-0.18972843885421753,"79":0.7695591449737549,"80":-0.938660204410553,"81":0.3120793402194977,"82":-1.721598505973816,"83":1.2294909954071045,"84":0.7641201615333557,"85":0.7430144548416138,"86":1.9122734069824219,"87":-1.071494460105896,"88":-0.6260086297988892,"89":0.5494977831840515,"90":-0.4536314904689789,"91":0.646900475025177,"92":2.3663549423217773,"93":0.0800294429063797,"94":-0.0356394425034523,"95":-0.8592011332511902,"96":-0.6137349605560303,"97":1.2121528387069702,"98":1.567122459411621,"99":-0.7193389534950256,"100":-0.19045287370681763,"101":1.877724051475525,"102":0.31823065876960754,"103":-1.9065544605255127,"104":-1.5339536666870117,"105":1.1412765979766846,"106":0.8198304772377014,"107":-0.5581640601158142,"108":0.5991973876953125,"109":-0.7077463865280151,"110":-0.15716449916362762,"111":0.8125643134117126,"112":0.6030577421188354,"113":1.4198927879333496,"114":-2.937805414199829,"115":0.5691546201705933,"116":-0.2844151556491852,"117":-1.117382287979126,"118":0.5180053114891052,"119":0.7339194416999817,"120":-0.08498193323612213,"121":-0.1880795955657959,"122":0.44927284121513367,"123":1.4609135389328003,"124":-1.3294355869293213,"125":-0.41452494263648987,"126":0.041072893887758255,"127":-0.8343721032142639,"128":-0.8676270842552185,"129":0.10298622399568558,"130":-0.32900506258010864,"131":0.7398498058319092,"132":0.2528144419193268,"133":-0.6855599284172058,"134":-0.04242157191038132,"135":1.247883915901184,"136":0.7304626107215881,"137":-2.597562551498413,"138":-0.014611566439270973,"139":1.107426404953003,"140":-1.7491118907928467,"141":-0.8628548383712769,"142":-1.2476162910461426,"143":0.6165062189102173,"144":-0.7359580993652344,"145":0.45127740502357483,"146":-1.7708252668380737,"147":-1.5097427368164062,"148":2.036970376968384,"149":-0.5238497853279114,"150":-1.266796350479126,"151":1.005692720413208,"152":3.037008762359619,"153":-0.06672318279743195,"154":0.05506763607263565,"155":-0.6330766677856445,"156":-1.2609405517578125,"157":-0.40537869930267334,"158":-0.8810681700706482,"159":-0.04664456844329834,"160":0.6191396117210388,"161":2.2645413875579834,"162":-0.21885856986045837,"163":0.015510099940001965,"164":0.7358249425888062,"165":-0.5437285900115967,"166":-1.1649738550186157,"167":-0.5692961812019348,"168":-1.331579327583313,"169":1.5664823055267334,"170":0.6225743293762207,"171":0.4871177077293396,"172":-0.593769907951355,"173":1.0359255075454712,"174":0.7750939130783081,"175":0.6678827404975891,"176":1.8844069242477417,"177":-0.6889883875846863,"178":-0.8002443909645081,"179":1.0120007991790771,"180":-0.25575217604637146,"181":-0.3991338908672333,"182":-1.9135727882385254,"183":-0.7152798175811768,"184":-0.7331663966178894,"185":-0.03865154832601547,"186":0.34283971786499023,"187":1.745766043663025,"188":2.3495631217956543,"189":-1.6722599267959595,"190":-0.4735809862613678,"191":1.7240946292877197,"192":-1.1903167963027954,"193":0.5334811806678772,"194":1.6420575380325317,"195":-1.396787405014038,"196":0.5330801606178284,"197":-0.7337746024131775,"198":-1.4459974765777588,"199":1.0590988397598267,"200":-0.44246843457221985,"201":-0.5880423784255981,"202":0.9823607206344604,"203":-0.6972691416740417,"204":0.2058822512626648,"205":1.9556643962860107,"206":-1.4276909828186035,"207":0.7262648344039917,"208":-1.114316463470459,"209":0.322003573179245,"210":-0.13423481583595276,"211":-0.28767505288124084,"212":0.4431992173194885,"213":0.3238101303577423,"214":-0.6739144921302795,"215":0.6613122820854187,"216":-0.8578395843505859,"217":0.9960837364196777,"218":0.5864217877388,"219":-0.6341911554336548,"220":-1.4247856140136719,"221":-1.0128628015518188,"222":0.28782737255096436,"223":-0.26790329813957214,"224":1.955896019935608,"225":-0.4293881952762604,"226":1.2129544019699097,"227":0.315712571144104,"228":-1.5747357606887817,"229":-0.4830186069011688,"230":-1.2462044954299927,"231":0.7179497480392456,"232":-0.6917798519134521,"233":0.41095152497291565,"234":-0.964859664440155,"235":2.0410428047180176,"236":-0.12313168495893478,"237":-1.944625973701477,"238":0.31890442967414856,"239":-1.5977338552474976,"240":1.9238879680633545,"241":2.2281532287597656,"242":0.2685188949108124,"243":-0.33977946639060974,"244":-0.4113931357860565,"245":0.1106402724981308,"246":-0.8595863580703735,"247":0.7588940262794495,"248":-1.4468270540237427,"249":-0.965726912021637,"250":0.06530479341745377,"251":-0.06793409585952759,"252":-1.7446465492248535,"253":1.1804097890853882,"254":1.2070926427841187,"255":-0.04680769518017769,"256":0.4365050196647644,"257":-0.7456991076469421,"258":-1.8317022323608398,"259":-0.23363007605075836,"260":-1.7897104024887085,"261":-0.1752007156610489,"262":1.652132272720337,"263":0.8551965355873108,"264":-0.5800684094429016,"265":0.40241020917892456,"266":0.23904886841773987,"267":-0.8025402426719666,"268":-0.5513488054275513,"269":-2.178659439086914,"270":-0.7497069835662842,"271":1.5530320405960083,"272":-2.2051751613616943,"273":1.754506230354309,"274":-1.0622143745422363,"275":0.896947979927063,"276":0.5784080624580383,"277":-0.2745690643787384,"278":0.858133852481842,"279":0.03354844078421593,"280":-0.6722619533538818,"281":-0.5877780318260193,"282":-1.3522686958312988,"283":-0.5514392852783203,"284":0.20710434019565582,"285":0.49748846888542175,"286":0.216941699385643,"287":-0.8404829502105713,"288":-0.8333635926246643,"289":1.2193752527236938,"290":-0.1525653451681137,"291":0.9626284241676331,"292":1.295995831489563,"293":-0.41739988327026367,"294":1.4680495262145996,"295":-1.4144855737686157,"296":-3.3825490474700928,"297":-0.7300087809562683,"298":2.567969560623169,"299":-2.0817079544067383,"300":0.062461793422698975,"301":0.405547171831131,"302":-1.0922110080718994,"303":0.6147221326828003,"304":1.1617873907089233,"305":-1.6005812883377075,"306":-1.2279067039489746,"307":2.620755195617676,"308":-1.2180595397949219,"309":0.3265340030193329,"310":1.2919089794158936,"311":0.32651010155677795,"312":0.9638792872428894,"313":-0.7164748311042786,"314":-0.8726106882095337,"315":-0.4826720654964447,"316":1.0172983407974243,"317":1.2009509801864624,"318":-2.411099672317505,"319":0.9086244106292725,"320":0.7940805554389954,"321":-0.47182705998420715,"322":-2.2822065353393555,"323":0.3393518328666687,"324":-0.7798505425453186,"325":0.8333873748779297,"326":2.1076033115386963,"327":0.9124057292938232,"328":-0.11548109352588654,"329":-1.1287851333618164,"330":-0.8509488701820374,"331":0.17923025786876678,"332":0.5978214144706726,"333":-0.6193240880966187,"334":-0.7468908429145813,"335":1.0316399335861206,"336":0.1593399941921234,"337":0.011025718413293362,"338":-0.3637515902519226,"339":0.025500766932964325,"340":0.9358225464820862,"341":-1.6660354137420654,"342":1.2097865343093872,"343":1.144131064414978,"344":-1.6367361545562744,"345":-1.3766859769821167,"346":-0.8162316083908081,"347":1.3656240701675415,"348":0.10443872958421707,"349":0.6940348148345947,"350":-0.4925387501716614,"351":-1.6848053932189941,"352":0.04079759120941162,"353":-1.0170245170593262,"354":-0.6889294385910034,"355":-0.06746816635131836,"356":0.6204427480697632,"357":-0.9583203196525574,"358":0.3072197437286377,"359":-1.5488275289535522,"360":-2.1946861743927,"361":-1.2136253118515015,"362":-1.236138939857483,"363":1.785273790359497,"364":0.5008003115653992,"365":0.7185606360435486,"366":-1.3292994499206543,"367":1.9082385301589966,"368":0.8565621972084045,"369":-0.8617927432060242,"370":-0.44348129630088806,"371":-0.4155752658843994,"372":-0.5254746079444885,"373":0.6458755731582642,"374":-1.5266386270523071,"375":1.347569227218628,"376":0.2268257886171341,"377":0.6119698882102966,"378":-0.011442892253398895,"379":1.1751240491867065,"380":1.3508435487747192,"381":0.6017270088195801,"382":-0.45796480774879456,"383":-0.17934256792068481,"384":-0.09114339202642441,"385":1.6213518381118774,"386":-0.5483400225639343,"387":0.6417189836502075,"388":1.7970443964004517,"389":-0.7496639490127563,"390":0.09716835618019104,"391":0.5740220546722412,"392":0.09231006354093552,"393":0.47441405057907104,"394":0.8771211504936218,"395":0.1668582707643509,"396":0.32170194387435913,"397":-1.0868375301361084,"398":-0.5997179746627808,"399":-0.15442588925361633,"400":0.9818840026855469,"401":-0.23406226933002472,"402":0.7906726598739624,"403":-0.1932685226202011,"404":-0.2363654375076294,"405":-1.1907447576522827,"406":1.4723480939865112,"407":0.7522839307785034,"408":-1.1971209049224854,"409":-0.01813552901148796,"410":0.002940425183624029,"411":1.1979045867919922,"412":-2.4319570064544678,"413":-2.1621108055114746,"414":-0.35457971692085266,"415":0.7024158239364624,"416":0.12088135629892349,"417":0.08046982437372208,"418":-1.7597248554229736,"419":-0.9462160468101501,"420":0.859327495098114,"421":-1.205425500869751,"422":-0.8285717964172363,"423":0.9754037261009216,"424":1.5499316453933716,"425":-1.3024115562438965,"426":0.652255117893219,"427":0.05612576752901077,"428":-1.2519055604934692,"429":-2.4390790462493896,"430":0.32831019163131714,"431":-0.45110446214675903,"432":-0.22801415622234344,"433":2.1441445350646973,"434":0.11070604622364044,"435":-0.6782805919647217,"436":-0.1528085172176361,"437":-0.37040865421295166,"438":-0.3625292181968689,"439":0.487187922000885,"440":-0.1723184585571289,"441":0.6355246305465698,"442":1.1954824924468994,"443":-0.37607187032699585,"444":1.754764199256897,"445":0.6856611967086792,"446":-1.3129637241363525,"447":0.09963217377662659,"448":-1.4560308456420898,"449":0.48612692952156067,"450":-0.23942288756370544,"451":0.34213703870773315,"452":-1.3225847482681274,"453":-1.887380838394165,"454":1.0683929920196533,"455":0.07714967429637909,"456":-0.743169367313385,"457":-0.2584525942802429,"458":-0.14460007846355438,"459":-1.689058780670166,"460":-0.1992417275905609,"461":0.007642952259629965,"462":0.3403724133968353,"463":-1.215520977973938,"464":0.033950164914131165,"465":2.113842248916626,"466":0.10144162178039551,"467":1.6924108266830444,"468":-2.673377275466919,"469":2.2706005573272705,"470":0.9035571217536926,"471":-1.116753101348877,"472":-0.26104333996772766,"473":-1.4698752164840698,"474":0.033648133277893066,"475":0.2968702018260956,"476":-2.049980401992798,"477":0.6279365420341492,"478":0.7575785517692566,"479":-0.08803469687700272,"480":0.061810724437236786,"481":-0.48095619678497314,"482":-0.7419385313987732,"483":1.0797786712646484,"484":-0.23604753613471985,"485":-1.371891975402832,"486":-1.5287833213806152,"487":0.4934574365615845,"488":0.38074541091918945,"489":-1.3948055505752563,"490":0.184726282954216,"491":1.7991609573364258,"492":-0.5136102437973022,"493":-0.5676047205924988,"494":-0.6524181962013245,"495":0.7768109440803528,"496":-0.09995726495981216,"497":-1.2071683406829834,"498":-1.4262475967407227,"499":-1.1514344215393066,"500":2.38510799407959,"501":1.1048561334609985,"502":0.9255922436714172,"503":-0.5425834655761719,"504":2.7301583290100098,"505":-0.4536828100681305,"506":-0.31512948870658875,"507":-0.9189175963401794,"508":-0.03504832088947296,"509":1.2743626832962036,"510":-0.14663851261138916,"511":0.3261270225048065,"512":1.3878662586212158,"513":0.6745367646217346,"514":0.5640206336975098,"515":1.644105076789856,"516":-1.3416810035705566,"517":1.3307607173919678,"518":-1.5412626266479492,"519":-1.8313660621643066,"520":0.8214045166969299,"521":-0.565032958984375,"522":1.05986487865448,"523":-1.9193288087844849,"524":-0.21979621052742004,"525":0.5049805641174316,"526":0.2958730459213257,"527":0.29221218824386597,"528":-2.9854843616485596,"529":1.8579823970794678,"530":-0.20914123952388763,"531":-0.10282492637634277,"532":-0.5099985003471375,"533":0.4242391288280487,"534":0.6302642822265625,"535":0.7366796135902405,"536":0.8867156505584717,"537":-0.39267686009407043,"538":1.27967369556427,"539":-1.3555594682693481,"540":0.13690617680549622,"541":-2.764028310775757,"542":-0.9531754851341248,"543":0.37909403443336487,"544":0.12396061420440674,"545":-1.5773985385894775,"546":0.7711235880851746,"547":0.6970316171646118,"548":-0.10025595128536224,"549":-1.4160785675048828,"550":0.5376852750778198,"551":0.5094626545906067,"552":0.18905982375144958,"553":-0.215656116604805,"554":-1.6040563583374023,"555":0.16933013498783112,"556":1.629715085029602,"557":0.0531899631023407,"558":-0.8678956031799316,"559":0.7237261533737183,"560":1.818432331085205,"561":0.023331981152296066,"562":-0.5317010879516602,"563":0.07490413635969162,"564":-2.319476366043091,"565":-0.4196975529193878,"566":-2.9425771236419678,"567":-0.3629552125930786,"568":1.8521647453308105,"569":0.6892914772033691,"570":-0.26508650183677673,"571":-0.05803348124027252,"572":1.6484262943267822,"573":-0.8284869194030762,"574":-0.5829303860664368,"575":-0.8584012389183044,"576":-0.6850481033325195,"577":1.556542158126831,"578":0.6815424561500549,"579":-0.6268556714057922,"580":-1.2335742712020874,"581":0.6665431261062622,"582":0.6322558522224426,"583":-1.2948548793792725,"584":-2.216784954071045,"585":0.45733433961868286,"586":-0.1487760692834854,"587":0.8695868849754333,"588":-1.0761135816574097,"589":0.380445659160614,"590":-0.11306381225585938,"591":0.2524602711200714,"592":0.2685464918613434,"593":0.9963064789772034,"594":2.3049697875976562,"595":-1.2765165567398071,"596":-0.050292160362005234,"597":-1.4599353075027466,"598":-0.16637827455997467,"599":0.1210298240184784,"600":0.35168468952178955,"601":0.7269303202629089,"602":1.988103985786438,"603":0.9874736666679382,"604":-0.21710291504859924,"605":0.9710299372673035,"606":0.7724099159240723,"607":0.4230981171131134,"608":-0.5016857981681824,"609":-0.2608804702758789,"610":-1.2494860887527466,"611":0.3681846559047699,"612":-0.7060989737510681,"613":1.280593752861023,"614":0.0015546268550679088,"615":0.4286974370479584,"616":-0.050180383026599884,"617":-0.6429500579833984,"618":0.665382981300354,"619":0.13939909636974335,"620":-0.09498254954814911,"621":0.0464513823390007,"622":1.0191571712493896,"623":-0.9628031849861145,"624":-2.049217462539673,"625":-1.0567994117736816,"626":-1.0035300254821777,"627":0.7396566867828369,"628":-0.13165129721164703,"629":-1.3540661334991455,"630":0.5215936303138733,"631":0.44526633620262146,"632":-0.8182785511016846,"633":-0.3747151494026184,"634":0.5267501473426819,"635":1.412063717842102,"636":2.7738046646118164,"637":1.0524685382843018,"638":1.659463882446289,"639":-0.30822864174842834,"640":-0.4609745144844055,"641":-0.09441957622766495,"642":0.20006617903709412,"643":-0.9744058847427368,"644":-1.0755265951156616,"645":1.8265634775161743,"646":1.575647234916687,"647":-0.08746574074029922,"648":0.9615182280540466,"649":-0.7878797650337219,"650":1.4387519359588623,"651":0.5484251976013184,"652":-1.1290830373764038,"653":-1.9458446502685547,"654":0.9635436534881592,"655":1.3683719635009766,"656":0.630044162273407,"657":-0.3679773211479187,"658":0.9464666843414307,"659":-0.27862831950187683,"660":-1.3022539615631104,"661":-0.11984247714281082,"662":-0.09821565449237823,"663":1.1347647905349731,"664":0.9516893625259399,"665":-0.8800552487373352,"666":-0.9090735912322998,"667":0.3379383683204651,"668":0.8950918912887573,"669":1.0718754529953003,"670":2.9903347492218018,"671":-0.32741686701774597,"672":-1.715554118156433,"673":0.3734055757522583,"674":-1.654929280281067,"675":-1.3131508827209473,"676":1.612663984298706,"677":0.8858665823936462,"678":-0.5916016101837158,"679":2.2489118576049805}},"inputHidden":{"rows":20,"columns":20,"weights":{"0":1.3433253765106201,"1":-1.4520796537399292,"2":1.9430128335952759,"3":0.26571589708328247,"4":0.581380307674408,"5":0.464713990688324,"6":-1.9848077297210693,"7":0.7082800269126892,"8":0.7477245926856995,"9":-0.8407004475593567,"10":-0.6014456152915955,"11":-1.2714415788650513,"12":0.26421329379081726,"13":-0.4006643295288086,"14":-0.8079983592033386,"15":-0.0022102813236415386,"16":1.841231107711792,"17":-0.009059079922735691,"18":0.564487636089325,"19":-0.6824269890785217,"20":0.9348029494285583,"21":1.2106691598892212,"22":3.088189125061035,"23":-0.4093736708164215,"24":0.21013829112052917,"25":0.8487595319747925,"26":0.08100702613592148,"27":0.9361093044281006,"28":1.2798817157745361,"29":2.3170666694641113,"30":-2.7354142665863037,"31":-3.1104133129119873,"32":1.7871627807617188,"33":-1.543581485748291,"34":3.0381126403808594,"35":1.0824832916259766,"36":-1.463290810585022,"37":1.223293662071228,"38":-1.6490294933319092,"39":-2.5379221439361572,"40":1.2556689977645874,"41":-1.0880199670791626,"42":-1.9422372579574585,"43":0.31754350662231445,"44":-0.17312851548194885,"45":-0.03221448138356209,"46":2.3392739295959473,"47":-4.2416157722473145,"48":4.077988624572754,"49":0.7838472127914429,"50":1.4683891534805298,"51":1.3459492921829224,"52":1.5318275690078735,"53":-0.08329743146896362,"54":1.9803602695465088,"55":0.05439985543489456,"56":0.2205134928226471,"57":0.35115399956703186,"58":-1.989415168762207,"59":-0.16574616730213165,"60":0.3619069755077362,"61":1.697811245918274,"62":-0.8083266615867615,"63":-1.3058803081512451,"64":1.69463312625885,"65":-0.7835270166397095,"66":-1.9924432039260864,"67":0.18656569719314575,"68":0.48186421394348145,"69":0.7961130142211914,"70":-1.1366902589797974,"71":-2.395127296447754,"72":-0.38695383071899414,"73":-0.7193983793258667,"74":0.2719157934188843,"75":2.382413148880005,"76":1.921181321144104,"77":-0.2218611091375351,"78":-0.5875911712646484,"79":-0.8660865426063538,"80":0.09029978513717651,"81":0.12850864231586456,"82":-1.1785274744033813,"83":-1.0149873495101929,"84":-0.9259549379348755,"85":0.8647533059120178,"86":-0.546493411064148,"87":-0.39128443598747253,"88":0.11878425627946854,"89":1.189467191696167,"90":-0.6924561858177185,"91":-0.3722878694534302,"92":0.554284393787384,"93":-1.9039684534072876,"94":1.3464447259902954,"95":0.18362733721733093,"96":-0.8599780797958374,"97":0.6978768110275269,"98":-0.06942573934793472,"99":-1.38278067111969,"100":-0.10514955222606659,"101":-1.0112444162368774,"102":-0.09131290763616562,"103":-0.532771646976471,"104":-0.9521151185035706,"105":2.516913890838623,"106":-0.4656146764755249,"107":0.10619166493415833,"108":-0.4763110876083374,"109":-1.2877901792526245,"110":0.17329759895801544,"111":-1.3915387392044067,"112":2.504006862640381,"113":-1.569062352180481,"114":-0.2385784089565277,"115":-0.7421578168869019,"116":0.45992526412010193,"117":0.22761742770671844,"118":-0.21569465100765228,"119":-0.042984455823898315,"120":-3.840512752532959,"121":-2.623467445373535,"122":-2.373670816421509,"123":1.9746286869049072,"124":-0.07344125211238861,"125":2.1617016792297363,"126":-1.1915156841278076,"127":-2.1174981594085693,"128":-0.5774052143096924,"129":-1.1000338792800903,"130":1.716457486152649,"131":-0.07837347686290741,"132":0.26638340950012207,"133":-3.462433338165283,"134":-0.9826035499572754,"135":-0.672659695148468,"136":-0.33204832673072815,"137":-0.6592898368835449,"138":1.219119906425476,"139":0.6347577571868896,"140":0.9889621138572693,"141":-1.9983481168746948,"142":-0.8710393309593201,"143":-0.5579221844673157,"144":-1.443834900856018,"145":0.8005706667900085,"146":-0.6898713707923889,"147":-0.5298135280609131,"148":0.7911528944969177,"149":-0.6367860436439514,"150":0.477665513753891,"151":-1.7974194288253784,"152":0.10154891014099121,"153":0.8209419250488281,"154":0.37762853503227234,"155":-0.05145150423049927,"156":-0.9602103233337402,"157":-0.4542502462863922,"158":0.1590881049633026,"159":-0.9459832906723022,"160":-0.7913690209388733,"161":-0.6379616260528564,"162":0.01327970065176487,"163":0.3922175168991089,"164":-0.003409080673009157,"165":-0.49766719341278076,"166":0.8995145559310913,"167":-1.2201594114303589,"168":1.8856313228607178,"169":-0.7644470930099487,"170":0.13217666745185852,"171":-0.10394696146249771,"172":2.566298484802246,"173":-0.061084989458322525,"174":-0.8114067912101746,"175":-1.32932710647583,"176":-1.276328444480896,"177":-0.7663536071777344,"178":1.096412181854248,"179":1.3098721504211426,"180":-0.8868799209594727,"181":0.5640993714332581,"182":0.011860307306051254,"183":0.5015624761581421,"184":0.3376779556274414,"185":-1.5049991607666016,"186":0.5081822872161865,"187":-1.643925428390503,"188":1.4140026569366455,"189":-0.8774552345275879,"190":1.6671942472457886,"191":-0.9148684740066528,"192":2.934570074081421,"193":1.5147150754928589,"194":-0.7512606382369995,"195":-1.450966477394104,"196":-0.24525569379329681,"197":-0.7984765768051147,"198":-0.544837236404419,"199":-2.4837028980255127,"200":-1.949329137802124,"201":0.9724541902542114,"202":-0.6836990714073181,"203":-1.0614867210388184,"204":1.0482029914855957,"205":0.2383677363395691,"206":-1.4462372064590454,"207":0.44797807931900024,"208":0.39366376399993896,"209":2.4818215370178223,"210":-1.9965927600860596,"211":-0.9869222044944763,"212":-2.074774980545044,"213":-1.9261654615402222,"214":2.3629019260406494,"215":1.1090468168258667,"216":2.6358096599578857,"217":1.0323673486709595,"218":-1.2671959400177002,"219":0.1899089366197586,"220":-2.1876895427703857,"221":-0.9718965888023376,"222":1.2634252309799194,"223":0.3268229365348816,"224":-2.0053858757019043,"225":3.3846795558929443,"226":0.821520209312439,"227":-1.077728509902954,"228":-1.9037739038467407,"229":-0.336755633354187,"230":0.9383142590522766,"231":1.7956830263137817,"232":0.9369085431098938,"233":-1.9790315628051758,"234":0.8471155762672424,"235":-1.8323063850402832,"236":-1.351929783821106,"237":-0.6381546854972839,"238":0.7331941723823547,"239":-0.28534597158432007,"240":-1.2023952007293701,"241":-1.155206561088562,"242":-0.11323999613523483,"243":-0.8251652717590332,"244":-2.291978359222412,"245":1.1134824752807617,"246":0.06391222029924393,"247":1.2684658765792847,"248":-0.7494615316390991,"249":-0.8992391228675842,"250":-0.6448455452919006,"251":0.905860960483551,"252":-1.444217562675476,"253":-1.3933147192001343,"254":0.7573604583740234,"255":0.26073765754699707,"256":-1.1045899391174316,"257":0.8948922753334045,"258":-0.5243145227432251,"259":2.0650219917297363,"260":-1.4326093196868896,"261":-3.130230665206909,"262":2.4394783973693848,"263":-1.7916520833969116,"264":-0.32341721653938293,"265":-1.5808402299880981,"266":-1.9902912378311157,"267":-0.5367238521575928,"268":-0.5081565380096436,"269":1.5793346166610718,"270":-0.14951440691947937,"271":-1.801487684249878,"272":0.790761411190033,"273":-1.9885164499282837,"274":-1.4065465927124023,"275":1.1190372705459595,"276":-1.0923577547073364,"277":-1.6622529029846191,"278":2.1946568489074707,"279":0.8100057244300842,"280":-0.47666558623313904,"281":1.1157666444778442,"282":2.3136026859283447,"283":1.683010220527649,"284":0.15688829123973846,"285":0.10524460673332214,"286":0.8297092318534851,"287":1.3997613191604614,"288":-2.243333101272583,"289":-1.7851536273956299,"290":-2.7619845867156982,"291":1.9736638069152832,"292":-3.720273971557617,"293":-1.443081021308899,"294":0.818679928779602,"295":-0.8325669765472412,"296":1.2860833406448364,"297":0.7864869832992554,"298":-1.3368101119995117,"299":-0.7457863092422485,"300":2.1466851234436035,"301":-1.1794891357421875,"302":-0.8360660672187805,"303":-1.4262757301330566,"304":1.9700710773468018,"305":-2.9784750938415527,"306":-0.859688401222229,"307":-0.9626657962799072,"308":-0.32359275221824646,"309":0.14105957746505737,"310":1.1346670389175415,"311":-1.9290212392807007,"312":1.2174416780471802,"313":1.1117578744888306,"314":-0.1487339287996292,"315":-0.3860648274421692,"316":-0.00955845694988966,"317":-1.3847414255142212,"318":0.8946279883384705,"319":-2.5861656665802,"320":3.9657516479492188,"321":-1.4797778129577637,"322":-0.5630948543548584,"323":-0.485422819852829,"324":-1.628039002418518,"325":-1.479994773864746,"326":-0.1870318353176117,"327":-0.26638659834861755,"328":2.4585013389587402,"329":0.5288088917732239,"330":0.5408591628074646,"331":-1.0342496633529663,"332":2.8815712928771973,"333":2.0223565101623535,"334":0.051518697291612625,"335":-2.6929337978363037,"336":-1.9915475845336914,"337":-0.4478044807910919,"338":-0.3490367531776428,"339":-1.2386544942855835,"340":-0.05338515713810921,"341":-1.2353166341781616,"342":-0.0780038833618164,"343":-0.9866610765457153,"344":-0.10498203337192535,"345":-0.3549296259880066,"346":0.2604415714740753,"347":0.596912145614624,"348":-0.4731479585170746,"349":-0.7636632323265076,"350":-2.756232261657715,"351":0.4068185091018677,"352":-2.6791467666625977,"353":-1.1350982189178467,"354":1.6814205646514893,"355":-1.6747556924819946,"356":-1.583341121673584,"357":2.3071324825286865,"358":-1.806747317314148,"359":-0.7916001677513123,"360":-1.9633378982543945,"361":0.9039832949638367,"362":1.3983910083770752,"363":-1.9674310684204102,"364":1.3061082363128662,"365":1.5570685863494873,"366":0.11908772587776184,"367":2.3850696086883545,"368":-0.6390039920806885,"369":1.3493694067001343,"370":-1.7714619636535645,"371":0.2923460900783539,"372":-2.1857235431671143,"373":0.2802426815032959,"374":1.5464006662368774,"375":0.20992296934127808,"376":-0.7311332821846008,"377":1.2142419815063477,"378":-1.234276294708252,"379":0.5595430731773376,"380":1.1800166368484497,"381":-0.16813430190086365,"382":-0.34385648369789124,"383":-0.17323726415634155,"384":0.6378505825996399,"385":-0.30486899614334106,"386":-0.4569090008735657,"387":0.33157292008399963,"388":-0.8300315737724304,"389":-3.10319447517395,"390":0.34291741251945496,"391":-0.24470265209674835,"392":0.8517518043518066,"393":-0.1157354936003685,"394":-0.6548340320587158,"395":-0.3628450632095337,"396":-0.7123051285743713,"397":1.2099817991256714,"398":-0.8299658298492432,"399":-0.6431205868721008}},"inputBias":{"rows":20,"columns":1,"weights":{"0":0.617851197719574,"1":-1.4546705484390259,"2":0.3374224305152893,"3":-0.6778746247291565,"4":-1.0002319812774658,"5":-0.11248176544904709,"6":-1.9673612117767334,"7":-0.30139461159706116,"8":-1.361386775970459,"9":-2.6793951988220215,"10":-0.9827148914337158,"11":0.7516318559646606,"12":-1.0680612325668335,"13":-0.43333545327186584,"14":-0.3290565311908722,"15":-1.8864279985427856,"16":1.8699570894241333,"17":-0.057748980820178986,"18":-1.6178674697875977,"19":-0.7351297736167908}},"forgetMatrix":{"rows":20,"columns":34,"weights":{"0":-0.20690764486789703,"1":0.6112662553787231,"2":0.64555823802948,"3":-2.161984920501709,"4":-0.44543662667274475,"5":1.5525389909744263,"6":-1.2793831825256348,"7":-1.0068284273147583,"8":0.6760638356208801,"9":-1.090767741203308,"10":1.6201485395431519,"11":1.1800910234451294,"12":1.845077633857727,"13":0.9859743118286133,"14":1.046167016029358,"15":-0.8984209299087524,"16":-1.361074686050415,"17":-0.28749749064445496,"18":-0.6118992567062378,"19":0.2859131395816803,"20":1.7502377033233643,"21":0.5466804504394531,"22":1.7489920854568481,"23":0.03675476834177971,"24":0.11449763923883438,"25":1.2982102632522583,"26":0.26764050126075745,"27":0.24425175786018372,"28":-0.7779614329338074,"29":1.1158310174942017,"30":1.149543046951294,"31":-0.6467301845550537,"32":0.06719297915697098,"33":-2.541114091873169,"34":1.893406629562378,"35":0.3232589662075043,"36":0.12543076276779175,"37":-0.8260232210159302,"38":1.3243082761764526,"39":0.153445303440094,"40":1.249838948249817,"41":-1.9088134765625,"42":0.5734849572181702,"43":0.8837708234786987,"44":2.3301186561584473,"45":0.6129623651504517,"46":-0.8904675841331482,"47":0.2975444793701172,"48":0.2704215347766876,"49":-1.87782621383667,"50":-0.6290813684463501,"51":0.26084622740745544,"52":2.0052599906921387,"53":-0.01124891173094511,"54":0.33551719784736633,"55":1.0830227136611938,"56":1.0188729763031006,"57":0.7741684317588806,"58":0.18861088156700134,"59":-0.4510207176208496,"60":-0.8365277051925659,"61":0.5485389232635498,"62":-1.0779540538787842,"63":1.6209490299224854,"64":1.6022228002548218,"65":0.8362956643104553,"66":2.420246124267578,"67":-0.3518194854259491,"68":0.15723088383674622,"69":2.41388201713562,"70":-0.1805030256509781,"71":-1.6049963235855103,"72":0.32016363739967346,"73":0.3072839379310608,"74":-0.45626112818717957,"75":-1.35443913936615,"76":1.4037374258041382,"77":0.5885393619537354,"78":-0.0572710856795311,"79":0.7241606116294861,"80":1.2916772365570068,"81":0.26446467638015747,"82":-0.5051154494285583,"83":0.1342473328113556,"84":-0.3741435110569,"85":-0.6920133233070374,"86":0.3294135630130768,"87":-0.7012723684310913,"88":0.907258152961731,"89":-0.6137255430221558,"90":2.2501707077026367,"91":0.6170361042022705,"92":-0.2757399082183838,"93":0.8121525049209595,"94":-0.9735432863235474,"95":-0.8538910150527954,"96":-1.0963640213012695,"97":-0.17838987708091736,"98":1.624372124671936,"99":1.1497589349746704,"100":-1.7924222946166992,"101":0.8210772275924683,"102":-2.16042423248291,"103":0.330989807844162,"104":0.6823299527168274,"105":0.5051365494728088,"106":1.107730746269226,"107":0.5767773985862732,"108":1.2394955158233643,"109":-0.03375197574496269,"110":-0.3305581510066986,"111":-1.784218430519104,"112":0.26466575264930725,"113":-0.003316648304462433,"114":-0.49338093400001526,"115":0.025528820231556892,"116":0.659286379814148,"117":-0.8354572653770447,"118":-0.009318447671830654,"119":1.3381434679031372,"120":-0.22974896430969238,"121":1.6102330684661865,"122":0.5162423849105835,"123":0.731864869594574,"124":-2.0381336212158203,"125":-1.07430100440979,"126":-0.10678932070732117,"127":-1.0136173963546753,"128":1.466704249382019,"129":-1.6485512256622314,"130":0.8655429482460022,"131":-0.4560290277004242,"132":-0.24964317679405212,"133":-0.6389588117599487,"134":2.6461875438690186,"135":-0.8237318396568298,"136":2.7067689895629883,"137":0.0983051210641861,"138":-1.0249054431915283,"139":-0.352890282869339,"140":0.17552775144577026,"141":-0.331990510225296,"142":0.35899561643600464,"143":-0.10844560712575912,"144":1.0789580345153809,"145":2.41231632232666,"146":-0.021667703986167908,"147":0.13694024085998535,"148":-1.5837494134902954,"149":0.6456079483032227,"150":0.14362119138240814,"151":0.04305065795779228,"152":-0.42863136529922485,"153":-0.42496439814567566,"154":1.6429884433746338,"155":-1.7406131029129028,"156":0.7808607220649719,"157":0.5469568967819214,"158":0.9322327375411987,"159":3.0193934440612793,"160":1.080867886543274,"161":0.09110280871391296,"162":-1.5045843124389648,"163":2.832376718521118,"164":-0.02686990052461624,"165":1.3020269870758057,"166":-0.0758100226521492,"167":2.0924863815307617,"168":-0.49454954266548157,"169":-0.2401496320962906,"170":0.3518329858779907,"171":1.4267330169677734,"172":-0.31820234656333923,"173":-1.9054471254348755,"174":-0.019953209906816483,"175":0.402536004781723,"176":-0.7214272022247314,"177":-0.6270460486412048,"178":0.6239385008811951,"179":-2.0774011611938477,"180":0.2579655945301056,"181":0.03488209843635559,"182":2.051022529602051,"183":-0.2849137783050537,"184":-0.5589004158973694,"185":0.8203220963478088,"186":0.018384357914328575,"187":0.49596357345581055,"188":-0.29712265729904175,"189":1.3772203922271729,"190":-0.48442327976226807,"191":-1.9223161935806274,"192":1.564468264579773,"193":-2.1778066158294678,"194":-0.5909916758537292,"195":0.785615086555481,"196":-0.1483161747455597,"197":-0.24998612701892853,"198":-1.4365801811218262,"199":0.6923997402191162,"200":0.814520001411438,"201":1.3216558694839478,"202":-0.49468153715133667,"203":-0.44305580854415894,"204":-0.17488087713718414,"205":-1.0472385883331299,"206":-1.962905764579773,"207":-0.14829862117767334,"208":2.2771944999694824,"209":0.17674703896045685,"210":0.5208497643470764,"211":-1.1137875318527222,"212":1.4845850467681885,"213":0.6620923280715942,"214":0.9451491832733154,"215":1.912658929824829,"216":-1.5332276821136475,"217":0.18406805396080017,"218":0.914316713809967,"219":-0.13114391267299652,"220":0.7556281089782715,"221":0.4040769040584564,"222":1.6944594383239746,"223":-0.8750660419464111,"224":0.4148315489292145,"225":1.7584868669509888,"226":0.0009503465844318271,"227":0.23318153619766235,"228":1.2724754810333252,"229":-0.596706211566925,"230":-0.431864857673645,"231":-0.6279923319816589,"232":-0.8014086484909058,"233":1.8660649061203003,"234":1.948885202407837,"235":0.8157150745391846,"236":0.4207281470298767,"237":-0.27476391196250916,"238":-0.15000654757022858,"239":0.24553073942661285,"240":-1.2177808284759521,"241":-0.15344050526618958,"242":-0.1296626776456833,"243":-0.40801334381103516,"244":-0.7553815841674805,"245":-1.0094692707061768,"246":1.662072777748108,"247":1.391738772392273,"248":0.3345111608505249,"249":-0.6166818737983704,"250":-0.20048591494560242,"251":-0.3958829939365387,"252":0.16910582780838013,"253":0.4230809211730957,"254":0.6364018321037292,"255":-1.0699962377548218,"256":1.067704439163208,"257":-0.7544946074485779,"258":0.5366180539131165,"259":-0.5674645304679871,"260":1.723267674446106,"261":1.3433353900909424,"262":-0.3461960554122925,"263":0.1251886934041977,"264":-1.307397723197937,"265":0.40110549330711365,"266":0.37052926421165466,"267":0.8785682320594788,"268":1.2918301820755005,"269":1.8837239742279053,"270":-1.0411462783813477,"271":0.44902893900871277,"272":0.6647420525550842,"273":1.38552987575531,"274":-0.8230361938476562,"275":-0.9014485478401184,"276":2.0610179901123047,"277":2.400043249130249,"278":-0.3885616362094879,"279":-0.8646882176399231,"280":-0.01378149539232254,"281":0.426951140165329,"282":1.725490689277649,"283":1.5377514362335205,"284":-0.4128667414188385,"285":0.32360807061195374,"286":1.1859124898910522,"287":-0.239632248878479,"288":-1.3217191696166992,"289":1.6344670057296753,"290":0.48823943734169006,"291":-0.6989755034446716,"292":1.0232484340667725,"293":1.8104586601257324,"294":2.341055393218994,"295":2.0251224040985107,"296":0.6278562545776367,"297":-0.06631480902433395,"298":1.1725529432296753,"299":-0.5655493140220642,"300":-1.7002300024032593,"301":1.7149235010147095,"302":0.5229558348655701,"303":-0.48354122042655945,"304":-0.40887650847435,"305":0.23219478130340576,"306":-0.48051294684410095,"307":0.7799931168556213,"308":0.12850075960159302,"309":0.21648433804512024,"310":-0.2503572404384613,"311":0.3573174476623535,"312":0.6749902963638306,"313":0.22809527814388275,"314":-1.2037265300750732,"315":0.052293237298727036,"316":-0.41084617376327515,"317":-0.4471869170665741,"318":0.632504403591156,"319":-0.28102657198905945,"320":0.9998936057090759,"321":-2.0669119358062744,"322":0.05233945697546005,"323":0.6639845967292786,"324":-0.179526224732399,"325":1.4767627716064453,"326":0.6481325626373291,"327":0.3055433928966522,"328":0.6784517765045166,"329":-0.28552260994911194,"330":-1.492667555809021,"331":-0.9900733828544617,"332":1.666033148765564,"333":-1.7799077033996582,"334":0.14767329394817352,"335":0.3724763095378876,"336":-0.7874631881713867,"337":0.1742226481437683,"338":-0.07200772315263748,"339":-0.5695153474807739,"340":0.19427400827407837,"341":1.3882964849472046,"342":-0.6341042518615723,"343":-0.6375461220741272,"344":-0.925789475440979,"345":0.03968183323740959,"346":-1.5133228302001953,"347":-1.7077499628067017,"348":0.5658140778541565,"349":0.2232125848531723,"350":-1.1289576292037964,"351":1.9951547384262085,"352":-1.541558027267456,"353":1.251211404800415,"354":-0.4285191595554352,"355":0.4797275960445404,"356":-1.854244589805603,"357":-2.1179745197296143,"358":0.01078048162162304,"359":-0.4574625790119171,"360":0.2018866240978241,"361":0.2156025618314743,"362":0.013734525069594383,"363":0.5162883400917053,"364":1.4007718563079834,"365":1.7377886772155762,"366":-0.4571875333786011,"367":0.736267626285553,"368":-1.7070907354354858,"369":1.1655263900756836,"370":0.7330906987190247,"371":0.3370911180973053,"372":-1.5446546077728271,"373":1.350027084350586,"374":-1.1961629390716553,"375":0.0335838682949543,"376":0.39369064569473267,"377":2.753507137298584,"378":1.5587162971496582,"379":0.7674601674079895,"380":-0.08316676318645477,"381":0.5133944749832153,"382":-1.5548304319381714,"383":0.16436493396759033,"384":1.319966197013855,"385":-0.36924606561660767,"386":-0.8169750571250916,"387":-1.101590871810913,"388":0.38555896282196045,"389":0.32262367010116577,"390":1.4319509267807007,"391":0.5988976359367371,"392":-0.3724595904350281,"393":0.4187886714935303,"394":-1.7364435195922852,"395":0.9971067905426025,"396":-2.5369696617126465,"397":-1.05901300907135,"398":0.2807232737541199,"399":0.37280842661857605,"400":1.69362211227417,"401":-1.252028226852417,"402":0.22242318093776703,"403":-0.2347002625465393,"404":-0.8221808671951294,"405":0.03933003917336464,"406":0.9026760458946228,"407":-0.25268125534057617,"408":-0.45540496706962585,"409":-0.6327308416366577,"410":-0.6970252394676208,"411":-2.2550203800201416,"412":-0.40859249234199524,"413":-1.2202202081680298,"414":-0.7783993482589722,"415":-0.18570339679718018,"416":1.2159260511398315,"417":-1.0127285718917847,"418":0.20943328738212585,"419":1.6433324813842773,"420":0.8497905135154724,"421":0.29542335867881775,"422":0.31660670042037964,"423":1.2899000644683838,"424":-0.3715529441833496,"425":-1.0417693853378296,"426":-1.2676621675491333,"427":0.8336376547813416,"428":-0.10716339945793152,"429":-0.9040266871452332,"430":0.9879085421562195,"431":-1.5340120792388916,"432":-0.8429141044616699,"433":1.7769298553466797,"434":-1.1930893659591675,"435":1.6002551317214966,"436":-0.31061047315597534,"437":0.17682857811450958,"438":1.7070671319961548,"439":1.7802814245224,"440":-0.3973497450351715,"441":-0.49059489369392395,"442":2.2428109645843506,"443":0.7233752608299255,"444":-0.6554943323135376,"445":-0.44088560342788696,"446":-1.0864131450653076,"447":-0.8461621403694153,"448":-1.446838617324829,"449":0.18359433114528656,"450":1.1212666034698486,"451":2.007282257080078,"452":-1.0572408437728882,"453":-0.7820677161216736,"454":0.9125895500183105,"455":0.1323842853307724,"456":-0.9293851256370544,"457":-0.1535533219575882,"458":0.5770044326782227,"459":-2.48067569732666,"460":0.8165975213050842,"461":-1.6698755025863647,"462":0.32052385807037354,"463":-1.4324709177017212,"464":1.5095205307006836,"465":2.139673948287964,"466":-0.03902333602309227,"467":1.5984071493148804,"468":-1.3507243394851685,"469":2.3527894020080566,"470":-0.4860081672668457,"471":0.09552833437919617,"472":0.6039704084396362,"473":1.3995944261550903,"474":-1.1674118041992188,"475":0.5727702975273132,"476":0.7748938202857971,"477":-1.1380594968795776,"478":0.0023158881813287735,"479":-1.8158488273620605,"480":0.5971370339393616,"481":1.4098503589630127,"482":0.44421347975730896,"483":-1.308356761932373,"484":0.4385818839073181,"485":-0.07321199029684067,"486":0.4533745348453522,"487":1.4948652982711792,"488":-0.5437443256378174,"489":1.4880543947219849,"490":0.8041974902153015,"491":-1.631059169769287,"492":-1.151701807975769,"493":0.813469648361206,"494":0.21770437061786652,"495":0.45153892040252686,"496":1.105819582939148,"497":0.4488741457462311,"498":0.31152430176734924,"499":-0.398412823677063,"500":-0.784864604473114,"501":-1.003684401512146,"502":-0.03502992168068886,"503":0.5501545071601868,"504":-0.7349081635475159,"505":1.2490195035934448,"506":0.3825303614139557,"507":-0.1267818957567215,"508":0.4769425392150879,"509":-0.2744409739971161,"510":-1.1514350175857544,"511":1.4863418340682983,"512":-1.9159166812896729,"513":1.0035672187805176,"514":-0.21829093992710114,"515":0.06539186835289001,"516":-0.047139111906290054,"517":0.20561888813972473,"518":-1.288283348083496,"519":-0.10829690098762512,"520":-1.2629412412643433,"521":-1.0340449810028076,"522":-0.2756122648715973,"523":0.989355742931366,"524":0.7043935060501099,"525":-1.8094865083694458,"526":0.15571004152297974,"527":-0.27889201045036316,"528":-0.6907499432563782,"529":0.870058536529541,"530":0.10206522792577744,"531":-0.5042281150817871,"532":0.1090150699019432,"533":-1.1566988229751587,"534":-3.561321258544922,"535":-0.18051767349243164,"536":0.056130245327949524,"537":-1.4727098941802979,"538":-0.5902856588363647,"539":-0.7843447923660278,"540":-1.2026715278625488,"541":0.6885484457015991,"542":0.46246492862701416,"543":-0.5669739842414856,"544":0.0926734209060669,"545":-1.266926646232605,"546":0.3708927631378174,"547":0.9417680501937866,"548":-1.8168113231658936,"549":-1.936323881149292,"550":-0.4248606562614441,"551":-0.2690833508968353,"552":0.6103476881980896,"553":0.1437755972146988,"554":-1.3228336572647095,"555":-1.419203758239746,"556":0.13659758865833282,"557":0.5428840517997742,"558":-2.470369338989258,"559":0.9048752784729004,"560":0.8738620281219482,"561":-1.3021883964538574,"562":2.371527671813965,"563":0.3063332438468933,"564":-0.5019119381904602,"565":-2.318753957748413,"566":0.040977928787469864,"567":-0.815965473651886,"568":1.506880283355713,"569":0.9285000562667847,"570":-1.0131936073303223,"571":-0.4537983536720276,"572":-0.03662412241101265,"573":-0.33813121914863586,"574":-0.6030471920967102,"575":1.7270077466964722,"576":-0.22679559886455536,"577":2.800220012664795,"578":-0.7535830140113831,"579":-0.589336633682251,"580":-0.28800901770591736,"581":-0.33697861433029175,"582":-0.7834208607673645,"583":-2.078378200531006,"584":-0.37864917516708374,"585":-1.0217339992523193,"586":1.3882896900177002,"587":1.011793851852417,"588":0.0432501845061779,"589":1.087722897529602,"590":-0.23556572198867798,"591":-0.35102999210357666,"592":-0.9867845773696899,"593":0.33252954483032227,"594":-0.036400411278009415,"595":-0.6022793054580688,"596":1.4421035051345825,"597":-1.5328725576400757,"598":-1.077065110206604,"599":-1.0585172176361084,"600":0.9428772330284119,"601":-0.5307488441467285,"602":1.387946367263794,"603":0.39369702339172363,"604":-1.3589575290679932,"605":1.0320897102355957,"606":-1.520249366760254,"607":-0.4172118306159973,"608":0.21766693890094757,"609":2.0148186683654785,"610":-0.10612785071134567,"611":1.1042453050613403,"612":-2.4632084369659424,"613":0.5866109132766724,"614":-0.8128920793533325,"615":-0.7308438420295715,"616":0.6671204566955566,"617":0.10418102890253067,"618":-1.152762532234192,"619":-0.7267177700996399,"620":0.4099958837032318,"621":0.16073767840862274,"622":0.3049589693546295,"623":0.6261849403381348,"624":0.6734996438026428,"625":0.3596368432044983,"626":0.7418709397315979,"627":-0.30341169238090515,"628":-1.3864449262619019,"629":-1.7619329690933228,"630":-0.6290440559387207,"631":-0.7276924252510071,"632":0.4488404095172882,"633":-1.6385140419006348,"634":2.9430084228515625,"635":-0.7561213374137878,"636":-1.8963040113449097,"637":1.3768773078918457,"638":-1.6287851333618164,"639":2.089578628540039,"640":-0.6367620229721069,"641":-0.005957646295428276,"642":0.42851436138153076,"643":1.3830821514129639,"644":0.03952326253056526,"645":-1.0374258756637573,"646":1.2705446481704712,"647":0.11993604898452759,"648":1.0522432327270508,"649":-1.22078275680542,"650":-0.11010019481182098,"651":-0.22070954740047455,"652":-2.4480807781219482,"653":-0.6903070211410522,"654":0.4255210757255554,"655":0.23584243655204773,"656":0.47236618399620056,"657":0.21127599477767944,"658":1.820640206336975,"659":0.029421504586935043,"660":-0.3645309805870056,"661":0.48185762763023376,"662":0.5197908878326416,"663":-0.47141391038894653,"664":-0.08648313581943512,"665":-0.6602436900138855,"666":0.44873639941215515,"667":-0.5557990670204163,"668":0.7421362996101379,"669":0.7961621880531311,"670":1.2527104616165161,"671":1.3623731136322021,"672":-0.04577279090881348,"673":-0.41843342781066895,"674":-0.5639039874076843,"675":0.11988521367311478,"676":0.9355501532554626,"677":-0.020396342501044273,"678":-1.1313282251358032,"679":0.8744192123413086}},"forgetHidden":{"rows":20,"columns":20,"weights":{"0":-0.19069117307662964,"1":1.8583459854125977,"2":-0.24998298287391663,"3":0.43671393394470215,"4":1.547487497329712,"5":0.9366203546524048,"6":0.36400577425956726,"7":-0.4331258535385132,"8":0.12867669761180878,"9":0.49090084433555603,"10":-0.4828852117061615,"11":0.0776548832654953,"12":0.09819389879703522,"13":0.47988322377204895,"14":-0.021217145025730133,"15":0.6849924921989441,"16":0.545782208442688,"17":-0.738877534866333,"18":-0.6547178030014038,"19":0.41733795404434204,"20":-0.12166239321231842,"21":0.45207539200782776,"22":1.6274681091308594,"23":1.9865338802337646,"24":0.48288363218307495,"25":2.033228874206543,"26":2.075711965560913,"27":1.3994770050048828,"28":0.7541844844818115,"29":0.380641907453537,"30":0.2471093088388443,"31":1.9590272903442383,"32":0.6103345155715942,"33":-1.0868463516235352,"34":-0.04503748565912247,"35":0.11131983995437622,"36":-1.3454071283340454,"37":-1.5411713123321533,"38":0.43381306529045105,"39":1.6725605726242065,"40":-2.372623920440674,"41":0.8058528304100037,"42":-0.7030149102210999,"43":1.4297490119934082,"44":0.1305040419101715,"45":0.9530068635940552,"46":2.166370153427124,"47":-1.0449038743972778,"48":-0.08976881951093674,"49":-0.6075430512428284,"50":0.0416562482714653,"51":1.7103025913238525,"52":0.2884668707847595,"53":-1.8365099430084229,"54":0.5033981204032898,"55":-0.4906596541404724,"56":-0.6548882126808167,"57":1.1681228876113892,"58":-1.3894957304000854,"59":0.8983514904975891,"60":-2.086493492126465,"61":-0.20422372221946716,"62":1.295907735824585,"63":0.13588246703147888,"64":1.4944831132888794,"65":0.18953841924667358,"66":-2.425096273422241,"67":-0.37981104850769043,"68":-0.6398698687553406,"69":2.1317555904388428,"70":-2.1431820392608643,"71":0.47346818447113037,"72":-0.587058424949646,"73":-1.5144637823104858,"74":0.30019161105155945,"75":2.527716875076294,"76":0.18118800222873688,"77":0.007326705846935511,"78":-0.19647163152694702,"79":1.286083698272705,"80":-2.9079558849334717,"81":-0.23624694347381592,"82":2.7325849533081055,"83":1.32551908493042,"84":-0.5824767351150513,"85":3.2934865951538086,"86":0.16545486450195312,"87":0.36268213391304016,"88":1.418815016746521,"89":0.3404664695262909,"90":0.7637972235679626,"91":0.6035787463188171,"92":-0.260877788066864,"93":-0.6846081614494324,"94":-0.5672000050544739,"95":-0.30638453364372253,"96":-0.5886654853820801,"97":-1.3678325414657593,"98":0.6674149632453918,"99":1.197377324104309,"100":-2.529911756515503,"101":0.6742218136787415,"102":1.0065819025039673,"103":0.11970753967761993,"104":-1.511250615119934,"105":0.1151733547449112,"106":2.3237154483795166,"107":-0.44631174206733704,"108":-0.4287278950214386,"109":-0.025456851348280907,"110":0.3393774926662445,"111":0.8263511657714844,"112":-0.08477244526147842,"113":-0.1865759789943695,"114":-1.585513949394226,"115":-0.6053786873817444,"116":-0.7238498330116272,"117":-0.8984906077384949,"118":1.210869312286377,"119":0.249415323138237,"120":1.4383156299591064,"121":-0.9143844246864319,"122":-0.8300029635429382,"123":-1.7095091342926025,"124":2.1729094982147217,"125":-1.6975291967391968,"126":-1.6927144527435303,"127":-0.17073552310466766,"128":-1.9383666515350342,"129":0.4983638823032379,"130":-0.9672428369522095,"131":-2.000668525695801,"132":-1.2290921211242676,"133":1.6599297523498535,"134":0.017101669684052467,"135":2.420496702194214,"136":1.6286988258361816,"137":-0.37560927867889404,"138":0.3989981710910797,"139":0.010665769688785076,"140":0.17368187010288239,"141":-0.2387537658214569,"142":-1.0552310943603516,"143":-0.9955419301986694,"144":-0.37483689188957214,"145":-0.23911572992801666,"146":-0.7800256609916687,"147":-0.29391857981681824,"148":0.024803128093481064,"149":-0.6434967517852783,"150":0.11524274200201035,"151":-0.005223678890615702,"152":-0.12002328038215637,"153":-0.16832979023456573,"154":-0.2780067026615143,"155":-0.5801482796669006,"156":1.2118546962738037,"157":1.4314318895339966,"158":-0.2294522225856781,"159":-0.20717576146125793,"160":-2.5251283645629883,"161":0.19820453226566315,"162":0.6121552586555481,"163":-0.4985402524471283,"164":-0.24867098033428192,"165":-0.5736232995986938,"166":0.008431759662926197,"167":0.17946304380893707,"168":-0.35091865062713623,"169":-0.2711242437362671,"170":-0.502804696559906,"171":-0.4730856716632843,"172":-0.5938024520874023,"173":0.1346895396709442,"174":-0.7896255254745483,"175":0.8709800243377686,"176":1.0057085752487183,"177":-0.8253647685050964,"178":0.3219608962535858,"179":-0.11506929248571396,"180":-1.1851285696029663,"181":-0.34467756748199463,"182":-0.8874008059501648,"183":-0.22053250670433044,"184":1.7104746103286743,"185":-0.5509889721870422,"186":1.210123062133789,"187":0.6265996694564819,"188":-1.4509962797164917,"189":-0.1925804167985916,"190":-1.4714264869689941,"191":1.9560314416885376,"192":-1.5909119844436646,"193":0.5502191781997681,"194":-0.13890957832336426,"195":-0.007508659735321999,"196":0.24445059895515442,"197":0.48078668117523193,"198":0.2722795307636261,"199":0.3552848994731903,"200":-0.47000738978385925,"201":-3.267991304397583,"202":-1.0243041515350342,"203":1.1588801145553589,"204":-3.4840126037597656,"205":-1.8656346797943115,"206":0.6028082370758057,"207":-2.0917437076568604,"208":3.1862404346466064,"209":0.42927005887031555,"210":0.35370221734046936,"211":-0.8371301889419556,"212":0.18912917375564575,"213":1.3941435813903809,"214":3.2131240367889404,"215":-4.661131858825684,"216":-3.347571849822998,"217":1.4542927742004395,"218":-0.1397065371274948,"219":0.6206993460655212,"220":0.011005258187651634,"221":-0.29616686701774597,"222":1.12261164188385,"223":0.0007974940235726535,"224":0.7706968784332275,"225":0.2918676435947418,"226":-2.403852701187134,"227":1.4349266290664673,"228":0.4784553050994873,"229":-0.2786720097064972,"230":-0.14654572308063507,"231":-1.964884638786316,"232":-0.7933065891265869,"233":-1.4785349369049072,"234":0.16678912937641144,"235":1.6235328912734985,"236":3.3064539432525635,"237":0.1268000304698944,"238":0.3194615840911865,"239":-0.5962346196174622,"240":-0.2618457078933716,"241":-0.2068149745464325,"242":-0.0427456833422184,"243":0.7391031980514526,"244":-0.5890271067619324,"245":-0.10702582448720932,"246":-0.28972598910331726,"247":-0.3319128453731537,"248":0.4959951341152191,"249":0.09190578013658524,"250":-0.5576556324958801,"251":-0.36596280336380005,"252":0.277249813079834,"253":-0.30576154589653015,"254":-0.13032199442386627,"255":-1.4118380546569824,"256":-0.7449833750724792,"257":-0.540611743927002,"258":-0.07186298072338104,"259":0.023784605786204338,"260":-0.917842447757721,"261":-0.05023832619190216,"262":0.3034493923187256,"263":0.18871478736400604,"264":1.167243480682373,"265":-1.676444411277771,"266":0.4385862350463867,"267":0.365009069442749,"268":-0.5662872195243835,"269":-0.21002648770809174,"270":-0.6291267275810242,"271":2.176701068878174,"272":-0.8510167002677917,"273":0.3498552441596985,"274":-0.3036477267742157,"275":1.752963900566101,"276":1.879130244255066,"277":0.3331318497657776,"278":-0.3888607323169708,"279":-0.31874099373817444,"280":0.029190348461270332,"281":0.4513063430786133,"282":0.11453841626644135,"283":-0.05296248570084572,"284":0.10854164510965347,"285":-0.16852575540542603,"286":-0.13435758650302887,"287":-1.3342888355255127,"288":-0.36505258083343506,"289":1.5030993223190308,"290":1.4614264965057373,"291":-0.06138745695352554,"292":0.8058744668960571,"293":0.5643828511238098,"294":-0.39701277017593384,"295":0.6329962015151978,"296":0.1522757112979889,"297":-0.33579620718955994,"298":0.4011721909046173,"299":1.4021661281585693,"300":-0.3707103729248047,"301":-2.6067376136779785,"302":-0.7542807459831238,"303":-1.0746078491210938,"304":-1.6466717720031738,"305":-0.33986151218414307,"306":-0.30865517258644104,"307":0.3469981849193573,"308":-3.1392970085144043,"309":2.5360238552093506,"310":2.8243627548217773,"311":0.34689247608184814,"312":1.9241256713867188,"313":1.86350679397583,"314":-2.7921688556671143,"315":0.21620215475559235,"316":-0.3461029827594757,"317":-1.5056790113449097,"318":1.4791216850280762,"319":0.3967896103858948,"320":-0.16978636384010315,"321":0.2707115113735199,"322":0.48152410984039307,"323":0.5385469198226929,"324":0.5403067469596863,"325":0.05307891592383385,"326":0.3564033806324005,"327":1.0027529001235962,"328":-1.9933077096939087,"329":-1.4982348680496216,"330":0.7230958938598633,"331":-0.13295306265354156,"332":1.0963362455368042,"333":-1.786715030670166,"334":0.8296318650245667,"335":0.5043389797210693,"336":0.9012899994850159,"337":0.49332767724990845,"338":-0.7295688986778259,"339":0.7250086665153503,"340":1.7592042684555054,"341":0.1715225726366043,"342":-1.2525808811187744,"343":-1.839417576789856,"344":-1.304747223854065,"345":-0.9712669849395752,"346":-0.5590934157371521,"347":-0.7140726447105408,"348":-0.2916475534439087,"349":-0.05880020558834076,"350":0.8498885631561279,"351":-0.6134724020957947,"352":0.7638936638832092,"353":2.4497251510620117,"354":0.9654452800750732,"355":-1.4816135168075562,"356":-1.2976518869400024,"357":0.3072502315044403,"358":-0.717327356338501,"359":-0.6425551176071167,"360":0.5056660175323486,"361":-1.2212690114974976,"362":-0.04111103713512421,"363":-1.24794340133667,"364":-1.1328080892562866,"365":-1.9220408201217651,"366":0.0430089496076107,"367":-0.16260798275470734,"368":1.5539367198944092,"369":-0.9828261137008667,"370":1.8564375638961792,"371":-0.9142239689826965,"372":1.1988043785095215,"373":1.3473893404006958,"374":-0.7480028867721558,"375":-1.8771212100982666,"376":-0.7075607776641846,"377":-0.16838882863521576,"378":0.8916807770729065,"379":-0.027938971295952797,"380":-1.9220126867294312,"381":-0.2039557844400406,"382":0.39483556151390076,"383":1.134788155555725,"384":1.7625797986984253,"385":0.24551691114902496,"386":2.0898361206054688,"387":-1.4678963422775269,"388":-1.3031425476074219,"389":0.2220810353755951,"390":0.8290030360221863,"391":2.4052791595458984,"392":1.688849687576294,"393":0.1849299520254135,"394":-2.558366298675537,"395":0.04757408797740936,"396":0.0828184261918068,"397":-1.406246304512024,"398":1.6361639499664307,"399":0.7426148056983948}},"forgetBias":{"rows":20,"columns":1,"weights":{"0":0,"1":0,"2":0,"3":0,"4":0,"5":0,"6":0,"7":0,"8":0,"9":0,"10":0,"11":0,"12":0,"13":0,"14":0,"15":0,"16":0,"17":0,"18":0,"19":0}},"outputMatrix":{"rows":20,"columns":34,"weights":{"0":-0.7275556921958923,"1":2.803864002227783,"2":-0.7362136244773865,"3":0.047458719462156296,"4":-0.30711087584495544,"5":0.25971719622612,"6":-0.3820093274116516,"7":-0.8259755969047546,"8":-0.0033034896478056908,"9":0.6622487902641296,"10":-0.26069265604019165,"11":0.8879716396331787,"12":0.26422354578971863,"13":0.2635171413421631,"14":-0.05302533879876137,"15":0.2008661925792694,"16":-0.4026149809360504,"17":0.522976815700531,"18":0.9702088236808777,"19":-1.3780640363693237,"20":0.9924029111862183,"21":-0.5411059260368347,"22":1.1162285804748535,"23":-0.9332906007766724,"24":0.7147418856620789,"25":-0.29035818576812744,"26":0.9385916590690613,"27":-1.0061157941818237,"28":-1.0828816890716553,"29":0.055872268974781036,"30":0.010649438016116619,"31":-1.0921961069107056,"32":-0.8304978609085083,"33":0.6104030013084412,"34":-1.3380252122879028,"35":-0.9556472897529602,"36":1.4983247518539429,"37":1.7581771612167358,"38":0.8317766785621643,"39":0.7587141990661621,"40":0.6518191695213318,"41":1.2798082828521729,"42":-1.8520914316177368,"43":-1.8165500164031982,"44":1.134373664855957,"45":-0.8375528454780579,"46":-1.0152403116226196,"47":-2.126523494720459,"48":-0.4075796604156494,"49":-0.49401435256004333,"50":-0.30210500955581665,"51":1.7116730213165283,"52":-1.8057799339294434,"53":1.7544987201690674,"54":-0.7045850157737732,"55":-0.3986349403858185,"56":-1.4902223348617554,"57":-1.6671642065048218,"58":0.325576514005661,"59":-0.6989774107933044,"60":0.47310078144073486,"61":-0.4937289357185364,"62":0.01977185718715191,"63":-0.8346806764602661,"64":0.09526979923248291,"65":-1.9661659002304077,"66":1.2354825735092163,"67":1.4190856218338013,"68":0.6076317429542542,"69":-1.4910271167755127,"70":-2.4349398612976074,"71":-0.05767160654067993,"72":0.7946000695228577,"73":-1.4976351261138916,"74":1.0471625328063965,"75":-1.4688785076141357,"76":2.7869274616241455,"77":2.4444727897644043,"78":-0.9109817743301392,"79":0.6947657465934753,"80":-1.62777841091156,"81":0.9253686666488647,"82":-1.1866003274917603,"83":1.321908950805664,"84":0.23380914330482483,"85":0.34113335609436035,"86":2.2636070251464844,"87":-1.757500171661377,"88":-0.2436717450618744,"89":0.13434697687625885,"90":-0.02111434005200863,"91":0.9509094953536987,"92":1.7367058992385864,"93":-0.023316077888011932,"94":-0.17273032665252686,"95":0.13061396777629852,"96":-0.7683740258216858,"97":0.6664506196975708,"98":2.1211981773376465,"99":1.9819484949111938,"100":-0.7191556096076965,"101":0.4040490686893463,"102":-0.6996249556541443,"103":-0.4527319371700287,"104":-2.0787079334259033,"105":-0.3219515383243561,"106":2.7944812774658203,"107":-0.7007020711898804,"108":1.965396761894226,"109":-0.9108012914657593,"110":1.491640567779541,"111":0.36131057143211365,"112":0.3228229582309723,"113":1.6979924440383911,"114":-1.7641600370407104,"115":1.035062313079834,"116":0.4798411726951599,"117":-0.364165723323822,"118":-1.2539005279541016,"119":1.125836968421936,"120":1.2312006950378418,"121":-0.5844333171844482,"122":0.18846139311790466,"123":0.8742027282714844,"124":0.26677393913269043,"125":-1.4015825986862183,"126":2.0405943393707275,"127":-1.1194936037063599,"128":-0.18897725641727448,"129":0.2782886326313019,"130":-0.8891030550003052,"131":3.0007669925689697,"132":2.5528831481933594,"133":0.5492358803749084,"134":0.521172046661377,"135":-0.19975124299526215,"136":-0.2274530678987503,"137":-0.9568296074867249,"138":1.6554596424102783,"139":1.23095703125,"140":-0.895775556564331,"141":0.03572729229927063,"142":-0.13195422291755676,"143":1.2608710527420044,"144":-0.6398990750312805,"145":-0.4769304692745209,"146":-0.8879395723342896,"147":-0.1784651279449463,"148":0.7233045697212219,"149":-0.5318771004676819,"150":-0.5164774060249329,"151":0.9549800157546997,"152":0.6608620285987854,"153":1.5064902305603027,"154":-0.13751669228076935,"155":0.5490572452545166,"156":0.003289015032351017,"157":-0.8834058046340942,"158":-0.8430603742599487,"159":-0.05755603685975075,"160":1.2345603704452515,"161":0.16579857468605042,"162":0.19110235571861267,"163":-1.7950955629348755,"164":1.0739370584487915,"165":-0.4970979690551758,"166":-1.112672209739685,"167":-1.3782955408096313,"168":-1.0187139511108398,"169":1.2478681802749634,"170":0.9995964169502258,"171":-0.5648831725120544,"172":0.03696226701140404,"173":-1.4605038166046143,"174":-0.35814037919044495,"175":-0.6434913277626038,"176":-0.45266300439834595,"177":-0.2283262312412262,"178":1.8700100183486938,"179":0.9329299330711365,"180":-0.33350861072540283,"181":-1.288014531135559,"182":0.03742135688662529,"183":0.8497256636619568,"184":-0.4677211344242096,"185":0.9449154138565063,"186":0.46717754006385803,"187":-0.5711654424667358,"188":0.9301990270614624,"189":-0.726146936416626,"190":0.35973218083381653,"191":-0.03504593297839165,"192":-0.005578983575105667,"193":1.9963710308074951,"194":1.4989370107650757,"195":0.5745192170143127,"196":-2.06141996383667,"197":1.7753045558929443,"198":0.46764951944351196,"199":0.7258315086364746,"200":2.1639721393585205,"201":0.25611600279808044,"202":0.7356781363487244,"203":-0.02522312104701996,"204":-1.3494840860366821,"205":0.850242018699646,"206":0.6913920044898987,"207":0.6155089139938354,"208":-0.16035941243171692,"209":-0.3912803530693054,"210":2.3420286178588867,"211":-0.4331693649291992,"212":0.7457084059715271,"213":-0.8502629995346069,"214":-0.9074504971504211,"215":0.8793310523033142,"216":-0.9492005109786987,"217":-0.3375052809715271,"218":-0.9817975759506226,"219":-0.8163841962814331,"220":-1.212975263595581,"221":2.5977060794830322,"222":2.0932793617248535,"223":-0.8079678416252136,"224":0.09880101680755615,"225":1.0927008390426636,"226":-0.4943031370639801,"227":-1.3880127668380737,"228":1.1810332536697388,"229":-2.034601926803589,"230":1.0739827156066895,"231":-2.677839517593384,"232":-1.3418395519256592,"233":0.5832023620605469,"234":-0.060874421149492264,"235":1.498454213142395,"236":0.5722441673278809,"237":-0.6623742580413818,"238":0.8262117505073547,"239":0.49376949667930603,"240":-0.7543706893920898,"241":0.856968343257904,"242":-1.3796335458755493,"243":0.7064594626426697,"244":0.897534966468811,"245":-0.7424492835998535,"246":-1.0318255424499512,"247":0.8003609776496887,"248":-1.513698697090149,"249":-0.3352009654045105,"250":0.40087056159973145,"251":1.1210157871246338,"252":0.9416429400444031,"253":-1.6418622732162476,"254":-0.5347151756286621,"255":1.8976894617080688,"256":-1.0302631855010986,"257":0.18821407854557037,"258":1.1930838823318481,"259":0.33835503458976746,"260":1.6394771337509155,"261":0.1902543604373932,"262":-0.5210272073745728,"263":-2.2741615772247314,"264":-0.692649245262146,"265":0.33679014444351196,"266":-1.3799363374710083,"267":0.7949436902999878,"268":-0.8667898774147034,"269":0.12125454097986221,"270":1.0655015707015991,"271":-0.4266129732131958,"272":-0.12142129987478256,"273":0.5622567534446716,"274":0.11107303202152252,"275":1.1368998289108276,"276":0.052798811346292496,"277":0.28500279784202576,"278":-0.24595040082931519,"279":0.9433466792106628,"280":-1.256704330444336,"281":-0.8534016013145447,"282":0.07563675194978714,"283":-1.544627070426941,"284":1.2334381341934204,"285":-1.0826576948165894,"286":-0.3971045911312103,"287":-0.34214088320732117,"288":1.5163543224334717,"289":0.8014664053916931,"290":-1.0654206275939941,"291":0.7600238919258118,"292":1.0718384981155396,"293":-1.2803946733474731,"294":0.6481415629386902,"295":0.021865764632821083,"296":-1.6624703407287598,"297":-0.6263322830200195,"298":0.6324567198753357,"299":-0.7358032464981079,"300":-0.05506104975938797,"301":-0.8765789270401001,"302":-0.6666025519371033,"303":-2.2903921604156494,"304":-0.33495333790779114,"305":-0.5012845396995544,"306":-1.1272156238555908,"307":1.4612698554992676,"308":-0.7064688801765442,"309":0.16827861964702606,"310":0.8503506183624268,"311":-0.10355447977781296,"312":0.6853398084640503,"313":0.09134311228990555,"314":0.2484460026025772,"315":-0.7698301076889038,"316":0.5285676121711731,"317":0.4349149763584137,"318":-1.6922588348388672,"319":-0.6877155900001526,"320":0.3021678328514099,"321":0.08654425293207169,"322":-0.5681993961334229,"323":0.2806074321269989,"324":-1.4889304637908936,"325":1.2875730991363525,"326":1.294404149055481,"327":0.355882465839386,"328":-0.2048846036195755,"329":-1.2161694765090942,"330":-0.7088307738304138,"331":-0.7481710314750671,"332":1.145506739616394,"333":-1.9151862859725952,"334":0.29596585035324097,"335":0.3529348373413086,"336":0.02353884093463421,"337":0.7293241620063782,"338":-0.6811627745628357,"339":-0.18136291205883026,"340":0.3457527160644531,"341":-2.461710214614868,"342":0.7096109986305237,"343":1.2499619722366333,"344":-0.3141193687915802,"345":-2.1421029567718506,"346":-0.30183693766593933,"347":0.6691927313804626,"348":-0.11279017478227615,"349":0.13313110172748566,"350":-1.564929485321045,"351":-0.09032436460256577,"352":1.5648019313812256,"353":-1.3728275299072266,"354":-1.0242424011230469,"355":1.4944342374801636,"356":2.603602886199951,"357":-0.8352953791618347,"358":0.07295327633619308,"359":-0.22025692462921143,"360":-1.5348551273345947,"361":-0.5315461754798889,"362":-2.4338040351867676,"363":-0.9413231015205383,"364":1.1796514987945557,"365":0.9741464257240295,"366":-0.39744070172309875,"367":0.5094965696334839,"368":0.9310880899429321,"369":-0.7827457189559937,"370":-0.8822450637817383,"371":0.5269178748130798,"372":-0.991377592086792,"373":1.5591645240783691,"374":0.8790844082832336,"375":-0.9305955767631531,"376":-2.018918752670288,"377":0.07046381384134293,"378":2.0779924392700195,"379":0.07562465965747833,"380":1.5272232294082642,"381":-1.0675219297409058,"382":1.5135287046432495,"383":2.3003158569335938,"384":0.7392189502716064,"385":1.9058836698532104,"386":-2.3162848949432373,"387":1.1123303174972534,"388":0.026508480310440063,"389":-0.7339727282524109,"390":-0.9433099627494812,"391":1.9234687089920044,"392":2.6534509658813477,"393":-2.1907496452331543,"394":1.1105399131774902,"395":1.3698859214782715,"396":-1.6594382524490356,"397":0.2785380482673645,"398":2.18278169631958,"399":-0.7918602228164673,"400":0.10868491232395172,"401":0.07006002962589264,"402":-0.21786808967590332,"403":2.4563663005828857,"404":1.9292086362838745,"405":0.10183577984571457,"406":0.9227652549743652,"407":0.021329492330551147,"408":-0.5161317586898804,"409":-0.6255412697792053,"410":-0.47184988856315613,"411":-0.09684538841247559,"412":-2.920100688934326,"413":-1.9702681303024292,"414":-0.11196397244930267,"415":-0.45801788568496704,"416":1.32950758934021,"417":-0.2862262725830078,"418":-1.3692426681518555,"419":-0.41137930750846863,"420":-0.7035013437271118,"421":1.2479395866394043,"422":-1.1245276927947998,"423":0.2840203046798706,"424":-0.9106252193450928,"425":-1.5996644496917725,"426":1.4404414892196655,"427":0.1266581267118454,"428":0.31407156586647034,"429":-0.6807977557182312,"430":-0.32151904702186584,"431":-0.7060266733169556,"432":-0.7134010791778564,"433":0.7338609099388123,"434":-0.7855139970779419,"435":0.04000352323055267,"436":0.03273192048072815,"437":0.953822672367096,"438":0.121517613530159,"439":1.7944283485412598,"440":0.32045894861221313,"441":-0.08563682436943054,"442":0.26412415504455566,"443":-0.24706019461154938,"444":-0.6354029774665833,"445":-0.4377843141555786,"446":1.227927327156067,"447":-1.402382254600525,"448":-0.19719728827476501,"449":-1.2347949743270874,"450":1.1759445667266846,"451":2.7251811027526855,"452":1.5300366878509521,"453":0.01669299043715,"454":-2.3060264587402344,"455":0.14315596222877502,"456":-1.1971546411514282,"457":0.6171149611473083,"458":-0.05293148010969162,"459":0.4061259627342224,"460":0.554002046585083,"461":-1.0187270641326904,"462":-0.44665101170539856,"463":0.8780688643455505,"464":0.23581883311271667,"465":2.169614791870117,"466":0.08576755970716476,"467":0.5698666572570801,"468":-0.7107884883880615,"469":1.561683177947998,"470":-0.2267933040857315,"471":0.7708619832992554,"472":1.8729183673858643,"473":1.6970592737197876,"474":-0.057270318269729614,"475":0.23133721947669983,"476":0.7113448977470398,"477":0.457789808511734,"478":0.09049168974161148,"479":0.19015954434871674,"480":0.27199631929397583,"481":-0.13660798966884613,"482":-2.0959224700927734,"483":0.7955374121665955,"484":-0.44576603174209595,"485":-0.11183060705661774,"486":-0.6936355233192444,"487":1.074123501777649,"488":1.1962472200393677,"489":-0.07521101087331772,"490":-0.6240559220314026,"491":1.1433426141738892,"492":-0.15412217378616333,