{"type":"LSTM","options":{"inputSize":39,"inputRange":39,"hiddenLayers":[20,20],"outputSize":39,"decayRate":0.999,"smoothEps":1e-8,"regc":0.000001,"clipval":5,"maxPredictionLength":100,"dataFormatter":{"values":["Room rent","Rent","Home items grocery shopping","Groceries","Breakfast with dal and rotie","Dinning Out","Chicken karie with 2 rotie","Breakfast with pori and channa","Tikka with roti","Splitwise money to Nizam","General","Roti with Dal","Dal with white rice dinner","Tikka kabab for Lunch","Dal and roti for dinner","Tikka for lunch","Debonair pizza for lumch","Biscuits and Grapes","Dinner","Lunch","Breakfast","House hold item shopping","Rotie","lunch","Galaxy Buds"],"indexTable":{"2":28,"R":0,"o":1,"m":2," ":3,"r":4,"e":5,"n":6,"t":7,"H":8,"i":9,"s":10,"g":11,"c":12,"y":13,"h":14,"p":15,"G":16,"B":17,"a":18,"k":19,"f":20,"w":21,"d":22,"l":23,"D":24,"O":25,"u":26,"C":27,"T":29,"S":30,"N":31,"z":32,"b":33,"L":34,"x":35,"stop-input":36,"start-output":37,"unrecognized":38},"characterTable":{"0":"R","1":"o","2":"m","3":" ","4":"r","5":"e","6":"n","7":"t","8":"H","9":"i","10":"s","11":"g","12":"c","13":"y","14":"h","15":"p","16":"G","17":"B","18":"a","19":"k","20":"f","21":"w","22":"d","23":"l","24":"D","25":"O","26":"u","27":"C","28":"2","29":"T","30":"S","31":"N","32":"z","33":"b","34":"L","35":"x","36":null,"37":null,"38":null},"characters":["R","o","m"," ","r","e","n","t","H","i","s","g","c","y","h","p","G","B","a","k","f","w","d","l","D","O","u","C","2","T","S","N","z","b","L","x","stop-input","start-output","unrecognized"],"specialIndexes":[36,37,38]}},"input":{"rows":40,"columns":39,"weights":{"0":0.8703042268753052,"1":-0.2933555245399475,"2":-0.7037801146507263,"3":2.0313093662261963,"4":-0.27201730012893677,"5":-2.859377145767212,"6":-1.3893771171569824,"7":-0.8277636766433716,"8":2.0891854763031006,"9":-0.3256797194480896,"10":0.49315646290779114,"11":-0.08442039042711258,"12":0.7280595302581787,"13":1.5398356914520264,"14":0.22616006433963776,"15":-1.933071494102478,"16":0.031502287834882736,"17":1.7563447952270508,"18":-1.7666960954666138,"19":0.8359041810035706,"20":1.7785875797271729,"21":-0.49062782526016235,"22":-1.5223332643508911,"23":0.4929417669773102,"24":2.7988593578338623,"25":-1.5534415245056152,"26":1.8825212717056274,"27":3.49279522895813,"28":-0.8914164304733276,"29":1.2493609189987183,"30":0.6778309941291809,"31":-0.8594849109649658,"32":-2.541469097137451,"33":1.4740763902664185,"34":-0.6189510822296143,"35":0.8835915923118591,"36":-0.5437782406806946,"37":-0.711065411567688,"38":0.4265899956226349,"39":-3.7704429626464844,"40":4.089823246002197,"41":4.05855655670166,"42":1.6885480880737305,"43":-8.244571685791016,"44":-6.189212322235107,"45":-4.903382778167725,"46":-1.2938365936279297,"47":7.666360855102539,"48":-4.734612464904785,"49":-0.49199724197387695,"50":-3.971874237060547,"51":2.8929052352905273,"52":-3.759575605392456,"53":4.905154228210449,"54":-3.185009002685547,"55":-6.139195919036865,"56":5.953855514526367,"57":-8.624829292297363,"58":-3.982863187789917,"59":7.794593334197998,"60":-6.853696346282959,"61":1.2190666198730469,"62":4.6225433349609375,"63":7.066563129425049,"64":-3.778043270111084,"65":1.875207781791687,"66":7.702573776245117,"67":-3.1797780990600586,"68":-11.194860458374023,"69":-5.84585428237915,"70":3.9418294429779053,"71":-6.719855785369873,"72":-0.3770920932292938,"73":-0.2616497278213501,"74":-0.06360466033220291,"75":8.179966926574707,"76":-6.936488628387451,"77":-1.4015083312988281,"78":-1.210007905960083,"79":1.7361315488815308,"80":-1.5695308446884155,"81":-1.8775447607040405,"82":2.423466682434082,"83":-0.797791600227356,"84":-1.1254932880401611,"85":5.062056541442871,"86":-0.27100226283073425,"87":-1.7435532808303833,"88":3.5974299907684326,"89":-3.606423854827881,"90":2.6803231239318848,"91":-1.037065863609314,"92":1.5740348100662231,"93":-5.6060791015625,"94":2.7591075897216797,"95":5.002434253692627,"96":-2.1167259216308594,"97":-0.2696276009082794,"98":-0.4446052014827728,"99":2.664024829864502,"100":1.544614553451538,"101":3.4344091415405273,"102":-2.2496657371520996,"103":1.0348570346832275,"104":3.003715991973877,"105":-0.1335378885269165,"106":-5.5707526206970215,"107":3.3585708141326904,"108":-3.3065812587738037,"109":0.8322784304618835,"110":-4.190135478973389,"111":-9.723620414733887,"112":0.5302447080612183,"113":-1.926019310951233,"114":-2.4678955078125,"115":1.7243907451629639,"116":-0.8797374963760376,"117":-6.763545989990234,"118":9.66812801361084,"119":-2.3512001037597656,"120":-4.397977352142334,"121":3.049760580062866,"122":-7.419724464416504,"123":-5.048880577087402,"124":1.020905613899231,"125":7.029642581939697,"126":-10.14933967590332,"127":4.653076171875,"128":-5.0487165451049805,"129":3.0121052265167236,"130":-4.213949203491211,"131":10.519258499145508,"132":-0.6923227906227112,"133":-4.593578815460205,"134":7.818312168121338,"135":-4.819826602935791,"136":1.1812982559204102,"137":-3.928243398666382,"138":-4.879029273986816,"139":-0.6003819108009338,"140":0.2667018175125122,"141":3.2867820262908936,"142":-3.7522809505462646,"143":4.03293514251709,"144":5.464601993560791,"145":5.481095314025879,"146":-0.1186235174536705,"147":0.23180517554283142,"148":5.943249702453613,"149":-4.350039958953857,"150":-5.849968433380127,"151":-0.9556559920310974,"152":-5.644503116607666,"153":-6.988204002380371,"154":-0.2988421320915222,"155":2.37150239944458,"156":3.4651126861572266,"157":-0.353958398103714,"158":-1.0056953430175781,"159":-0.7885156273841858,"160":1.172533392906189,"161":1.2153847217559814,"162":-2.913983106613159,"163":-0.5626391172409058,"164":0.711154043674469,"165":-3.816737651824951,"166":-3.1247689723968506,"167":1.225662112236023,"168":0.5808908343315125,"169":-2.56744384765625,"170":-0.07090017944574356,"171":0.9506056904792786,"172":0.8484272360801697,"173":-0.6367967128753662,"174":2.0619077682495117,"175":-2.303135395050049,"176":-3.9226908683776855,"177":0.8267220258712769,"178":-0.7040793299674988,"179":-1.2220489978790283,"180":-2.0498573780059814,"181":0.7456418871879578,"182":1.1899033784866333,"183":1.5904780626296997,"184":-0.0345679447054863,"185":-1.5595461130142212,"186":2.396113157272339,"187":-1.5101696252822876,"188":1.3556145429611206,"189":-0.07694900035858154,"190":-0.3475721776485443,"191":-1.4951152801513672,"192":1.6873279809951782,"193":1.8119596242904663,"194":-0.8047175407409668,"195":-1.7352101802825928,"196":1.0902827978134155,"197":-0.6024830937385559,"198":-1.3049094676971436,"199":2.285003423690796,"200":-1.3157343864440918,"201":-2.2631192207336426,"202":1.4081259965896606,"203":-3.222719669342041,"204":2.6596286296844482,"205":0.009031545370817184,"206":-3.8307418823242188,"207":3.0156798362731934,"208":2.954725980758667,"209":-0.8118740320205688,"210":0.24352310597896576,"211":1.6618579626083374,"212":-1.8878368139266968,"213":-0.16880661249160767,"214":0.9105738401412964,"215":-0.8876451253890991,"216":-1.7606852054595947,"217":-0.801945686340332,"218":1.6481964588165283,"219":-0.28493618965148926,"220":1.9142189025878906,"221":2.5395328998565674,"222":0.3993505835533142,"223":1.0418442487716675,"224":-1.2188115119934082,"225":-0.743827760219574,"226":0.628037691116333,"227":4.676057815551758,"228":1.5156298875808716,"229":0.4888271987438202,"230":0.046723026782274246,"231":-2.4964559078216553,"232":-0.6386988759040833,"233":-1.8033429384231567,"234":-1.816123604774475,"235":-2.5477352142333984,"236":-1.596027135848999,"237":3.0431318283081055,"238":-4.198235511779785,"239":-1.2549121379852295,"240":-1.6742057800292969,"241":1.159400224685669,"242":-0.9634079337120056,"243":3.216870069503784,"244":1.7688573598861694,"245":-0.4334767758846283,"246":2.673030138015747,"247":5.591641902923584,"248":-1.831918478012085,"249":1.1456397771835327,"250":-2.128904342651367,"251":-4.151031970977783,"252":0.6685137748718262,"253":-0.09401489049196243,"254":1.6220325231552124,"255":1.463841199874878,"256":-1.330487608909607,"257":0.7478126883506775,"258":1.0236384868621826,"259":0.2843720316886902,"260":0.7132200002670288,"261":2.1642088890075684,"262":-0.9471287131309509,"263":1.8814448118209839,"264":-1.354325294494629,"265":-2.0751230716705322,"266":-0.9078461527824402,"267":0.4490504860877991,"268":-2.3391549587249756,"269":-0.5344871878623962,"270":0.42448604106903076,"271":1.9638396501541138,"272":-0.17226068675518036,"273":-0.30067768692970276,"274":1.3024719953536987,"275":3.0615532398223877,"276":-2.6268374919891357,"277":-0.7240506410598755,"278":-2.0269970893859863,"279":-3.8047127723693848,"280":1.3336824178695679,"281":1.4275416135787964,"282":-3.0383896827697754,"283":-0.4019598066806793,"284":0.07271493971347809,"285":3.711097002029419,"286":-0.414012610912323,"287":-1.682104229927063,"288":1.4533040523529053,"289":1.0266199111938477,"290":-0.14967834949493408,"291":-0.5496706962585449,"292":0.14633634686470032,"293":-1.4432201385498047,"294":-1.758152723312378,"295":-1.0064300298690796,"296":-2.5696823596954346,"297":-0.6097582578659058,"298":2.5432932376861572,"299":-3.418851375579834,"300":0.1793643981218338,"301":-0.7986664175987244,"302":-4.346599578857422,"303":0.9393877387046814,"304":1.3828734159469604,"305":-1.2874020338058472,"306":0.10366660356521606,"307":-2.8795363903045654,"308":0.6183634400367737,"309":4.219527244567871,"310":-2.3548855781555176,"311":-1.977856159210205,"312":-1.8967931270599365,"313":1.5658329725265503,"314":0.5312169790267944,"315":0.11208001524209976,"316":-3.6121978759765625,"317":-0.783772349357605,"318":0.014352954924106598,"319":-0.9943152666091919,"320":1.442246913909912,"321":-0.14467833936214447,"322":2.48356294631958,"323":-1.9623854160308838,"324":0.22123266756534576,"325":-1.901581883430481,"326":1.5744497776031494,"327":-3.4748294353485107,"328":-1.6835131645202637,"329":1.3093962669372559,"330":-3.6083731651306152,"331":0.33453842997550964,"332":-0.4762742817401886,"333":-0.9089038968086243,"334":-1.5617454051971436,"335":1.0253790616989136,"336":2.438992738723755,"337":-1.9791508913040161,"338":1.0972095727920532,"339":-0.6663416028022766,"340":0.20752714574337006,"341":-0.9567160606384277,"342":-1.3185622692108154,"343":3.4454050064086914,"344":-1.7876808643341064,"345":-1.872066617012024,"346":3.4271059036254883,"347":-2.819014072418213,"348":4.401961803436279,"349":-1.1774506568908691,"350":0.836706817150116,"351":-4.905328273773193,"352":-4.056309223175049,"353":-7.198835372924805,"354":-5.585180282592773,"355":1.714991569519043,"356":1.424238681793213,"357":7.059138298034668,"358":-12.446981430053711,"359":-4.875681400299072,"360":2.778749942779541,"361":5.089344024658203,"362":-1.9473369121551514,"363":-10.784479141235352,"364":5.708864212036133,"365":5.86527156829834,"366":6.2163496017456055,"367":1.3001049757003784,"368":-8.305892944335938,"369":-6.5777692794799805,"370":14.369667053222656,"371":5.3448872566223145,"372":5.537043571472168,"373":7.563753604888916,"374":-6.5297675132751465,"375":-5.531766891479492,"376":7.438948631286621,"377":1.2425200939178467,"378":5.116674423217773,"379":10.499225616455078,"380":3.346290111541748,"381":5.998541831970215,"382":0.29956021904945374,"383":0.9955097436904907,"384":2.5124337673187256,"385":-0.8420169353485107,"386":-9.070066452026367,"387":-3.3651304244995117,"388":8.504413604736328,"389":8.73210620880127,"390":-2.092240333557129,"391":-0.4840483069419861,"392":-0.7065758109092712,"393":2.541884183883667,"394":2.3221473693847656,"395":-0.9107341766357422,"396":0.08806250244379044,"397":2.2449374198913574,"398":-2.304780960083008,"399":1.808971643447876,"400":1.6717880964279175,"401":-1.0026648044586182,"402":-1.24332857131958,"403":1.375506043434143,"404":-0.18884211778640747,"405":0.558327853679657,"406":1.729886770248413,"407":-1.6617988348007202,"408":-1.1874250173568726,"409":-0.09763642400503159,"410":0.9741349220275879,"411":-1.4133344888687134,"412":1.9911243915557861,"413":-1.8231828212738037,"414":-3.038015127182007,"415":1.560727834701538,"416":1.4139078855514526,"417":3.1651368141174316,"418":-0.30575811862945557,"419":1.7026574611663818,"420":1.2070387601852417,"421":-1.105345368385315,"422":-0.5602498054504395,"423":2.309994697570801,"424":-2.198517084121704,"425":0.7886248826980591,"426":-1.6683164834976196,"427":0.12578268349170685,"428":-0.6276540756225586,"429":-6.4801249504089355,"430":-5.961368083953857,"431":5.273183822631836,"432":-0.4575972855091095,"433":2.9400060176849365,"434":-2.123171091079712,"435":-0.6724425554275513,"436":1.9521676301956177,"437":-0.3328743278980255,"438":3.640883684158325,"439":0.402700275182724,"440":-1.3310819864273071,"441":1.6909986734390259,"442":4.0557050704956055,"443":-0.3410409986972809,"444":-0.08892682939767838,"445":2.2755730152130127,"446":-1.6108046770095825,"447":3.312138795852661,"448":0.8900861144065857,"449":2.275224447250366,"450":-1.1379895210266113,"451":1.1437822580337524,"452":-0.5891932845115662,"453":0.44004517793655396,"454":-0.29238855838775635,"455":0.0724598690867424,"456":-0.778718113899231,"457":-1.0990961790084839,"458":1.472048282623291,"459":-1.209533452987671,"460":0.9826560616493225,"461":1.2905791997909546,"462":2.5620336532592773,"463":-1.4135916233062744,"464":2.4681026935577393,"465":-3.6541988849639893,"466":-2.4376580715179443,"467":-2.029735565185547,"468":-2.3431289196014404,"469":0.6118106245994568,"470":-0.9858466982841492,"471":-0.9063432812690735,"472":3.2725727558135986,"473":-0.6104108691215515,"474":2.1717658042907715,"475":1.1996586322784424,"476":-2.594231128692627,"477":3.352917194366455,"478":1.39241361618042,"479":-0.24762390553951263,"480":0.6607644557952881,"481":1.020851731300354,"482":-1.4056472778320312,"483":-2.7214157581329346,"484":2.370008945465088,"485":1.6927238702774048,"486":-1.6553200483322144,"487":0.8871517181396484,"488":-1.0836259126663208,"489":-1.4942976236343384,"490":-0.622271716594696,"491":2.15382981300354,"492":0.4646803140640259,"493":-0.9367095828056335,"494":0.8449850678443909,"495":-0.26273617148399353,"496":2.8996987342834473,"497":2.688218116760254,"498":0.8546038269996643,"499":-0.28859567642211914,"500":1.9512457847595215,"501":1.0200059413909912,"502":1.312982439994812,"503":2.3673362731933594,"504":-3.408804178237915,"505":-1.0336028337478638,"506":1.1360722780227661,"507":1.6448752880096436,"508":-1.5261752605438232,"509":-3.4996941089630127,"510":1.365071177482605,"511":4.071279525756836,"512":3.7156906127929688,"513":2.0684585571289062,"514":-0.2852481007575989,"515":0.1929178535938263,"516":0.6294929385185242,"517":4.229321002960205,"518":-0.8353716135025024,"519":-0.7058308124542236,"520":0.9929418563842773,"521":-1.716497540473938,"522":-2.0757505893707275,"523":0.6749251484870911,"524":-3.1507837772369385,"525":1.5741387605667114,"526":-0.6676539182662964,"527":1.024956226348877,"528":1.4362536668777466,"529":-0.9688668251037598,"530":-4.170122146606445,"531":-1.9184919595718384,"532":3.2490487098693848,"533":4.5174360275268555,"534":-0.6264956593513489,"535":0.5519914627075195,"536":3.799942970275879,"537":4.746225357055664,"538":0.39417144656181335,"539":-1.7763243913650513,"540":2.526261568069458,"541":0.7874645590782166,"542":0.20753213763237,"543":-2.529442071914673,"544":2.4773755073547363,"545":1.0505229234695435,"546":-5.1936116218566895,"547":-7.638437747955322,"548":4.389562606811523,"549":0.7594329118728638,"550":-4.023634433746338,"551":1.2685827016830444,"552":6.920567512512207,"553":-0.8775172829627991,"554":-2.3183767795562744,"555":12.011468887329102,"556":8.95037841796875,"557":-0.9150636792182922,"558":-6.349248886108398,"559":9.10476303100586,"560":0.4500144422054291,"561":-1.1580586433410645,"562":1.467561960220337,"563":-3.4780290126800537,"564":-2.8246731758117676,"565":2.3384366035461426,"566":13.380383491516113,"567":-6.906733989715576,"568":7.4601826667785645,"569":-2.4426822662353516,"570":-2.6203854084014893,"571":4.7325568199157715,"572":-0.011086802929639816,"573":-6.85883092880249,"574":-13.013176918029785,"575":2.835413932800293,"576":6.320500373840332,"577":-4.453586101531982,"578":-5.872826099395752,"579":1.1333907842636108,"580":-5.276922225952148,"581":-1.7785707712173462,"582":3.990663766860962,"583":2.423048496246338,"584":-5.194035530090332,"585":1.9239699840545654,"586":1.1047861576080322,"587":0.6103148460388184,"588":-1.7632200717926025,"589":-3.730123281478882,"590":1.8120735883712769,"591":0.6517995595932007,"592":-0.3624746799468994,"593":1.547112226486206,"594":-3.285656690597534,"595":-3.2392122745513916,"596":5.133325099945068,"597":0.034614529460668564,"598":-0.6448526978492737,"599":-2.311290979385376,"600":-0.9777441024780273,"601":-2.7206897735595703,"602":0.48433011770248413,"603":-2.803992748260498,"604":0.4072984457015991,"605":-2.5827949047088623,"606":0.36125844717025757,"607":0.9249086380004883,"608":5.704036235809326,"609":3.969162940979004,"610":-3.722338914871216,"611":-0.6890180110931396,"612":-0.6265569925308228,"613":1.6973190307617188,"614":-1.5071296691894531,"615":-2.495776891708374,"616":1.0107262134552002,"617":1.8485363721847534,"618":3.631756544113159,"619":4.082769870758057,"620":-2.6974940299987793,"621":-0.5678443908691406,"622":-2.213768243789673,"623":0.8886530995368958,"624":2.1360268592834473,"625":6.469970226287842,"626":-10.514473915100098,"627":-2.6055383682250977,"628":5.291107654571533,"629":2.956102132797241,"630":3.041388988494873,"631":6.033858299255371,"632":0.16727133095264435,"633":0.6747868061065674,"634":1.3691844940185547,"635":2.968672513961792,"636":-4.910888671875,"637":2.0689752101898193,"638":-4.298459529876709,"639":-0.9553248286247253,"640":7.926964282989502,"641":1.3079147338867188,"642":2.0048828125,"643":-2.3264315128326416,"644":0.7233511209487915,"645":1.4421324729919434,"646":-7.955475807189941,"647":-1.8752535581588745,"648":-5.2293548583984375,"649":3.7614524364471436,"650":-1.933863878250122,"651":-2.0490224361419678,"652":5.479685306549072,"653":0.6201040744781494,"654":-1.768691062927246,"655":-0.5259416699409485,"656":-0.5967618823051453,"657":-4.047122955322266,"658":-3.994600296020508,"659":-4.196498394012451,"660":0.07100851833820343,"661":0.2209053486585617,"662":5.290506839752197,"663":-7.628519058227539,"664":-3.4100823402404785,"665":-0.5142502188682556,"666":8.14079475402832,"667":1.4937331676483154,"668":0.31273138523101807,"669":-6.3643798828125,"670":-3.914097309112549,"671":5.873401641845703,"672":3.2810747623443604,"673":2.564326524734497,"674":-6.0356059074401855,"675":-0.9755091667175293,"676":5.621611595153809,"677":-1.4825952053070068,"678":-0.706683337688446,"679":-5.170602321624756,"680":1.9473105669021606,"681":5.32125186920166,"682":6.254977226257324,"683":3.982468366622925,"684":0.6336528062820435,"685":3.5730130672454834,"686":1.849625587463379,"687":6.408908843994141,"688":-2.921424150466919,"689":1.9636471271514893,"690":3.9055261611938477,"691":3.8813798427581787,"692":2.910073757171631,"693":-6.578141689300537,"694":-2.0553221702575684,"695":-3.594820022583008,"696":6.914855003356934,"697":3.0269691944122314,"698":2.945125102996826,"699":-3.921428918838501,"700":-6.356225967407227,"701":-4.752496719360352,"702":7.4759840965271,"703":-3.5667624473571777,"704":5.151120185852051,"705":0.6981445550918579,"706":2.6090264320373535,"707":3.112474203109741,"708":1.1986008882522583,"709":-2.509721517562866,"710":0.5185793042182922,"711":-3.3987317085266113,"712":-4.772328853607178,"713":7.286311149597168,"714":-0.6455257534980774,"715":-1.9707876443862915,"716":-0.9854468703269958,"717":4.103296756744385,"718":-0.5110728740692139,"719":1.1140881776809692,"720":0.5936964750289917,"721":-0.12147799879312515,"722":-1.5826565027236938,"723":1.6461957693099976,"724":-4.803083419799805,"725":4.302407264709473,"726":3.744051933288574,"727":-5.946850299835205,"728":-1.388455867767334,"729":-0.5789656043052673,"730":1.5718975067138672,"731":-4.975546360015869,"732":4.089705944061279,"733":-0.3651524484157562,"734":7.311463832855225,"735":4.257157325744629,"736":3.9668126106262207,"737":7.047262191772461,"738":3.7098820209503174,"739":-2.5660018920898438,"740":0.40106940269470215,"741":-0.5287628173828125,"742":-2.6813106536865234,"743":1.2936158180236816,"744":0.4123859405517578,"745":2.089157819747925,"746":-0.8149762749671936,"747":7.815666675567627,"748":-2.752182722091675,"749":-1.1761445999145508,"750":5.5352702140808105,"751":3.0361483097076416,"752":2.0797951221466064,"753":-5.986456871032715,"754":3.169766426086426,"755":-2.6710901260375977,"756":4.3281755447387695,"757":-0.5831820368766785,"758":-5.682839393615723,"759":-0.8479549288749695,"760":1.0249919891357422,"761":1.2347458600997925,"762":-2.4397778511047363,"763":-0.32709425687789917,"764":-1.5473253726959229,"765":-0.817328155040741,"766":0.029485737904906273,"767":-1.8366469144821167,"768":-7.009489059448242,"769":-2.962493419647217,"770":-0.19948221743106842,"771":-3.412184715270996,"772":-5.0297651290893555,"773":-3.1570963859558105,"774":3.2427706718444824,"775":0.8888217806816101,"776":-4.825736045837402,"777":-0.37522631883621216,"778":-0.7330909371376038,"779":-1.77678382396698,"780":-5.84598970413208,"781":-0.12390748411417007,"782":0.2912463843822479,"783":-0.6713346838951111,"784":-0.9347686171531677,"785":-1.4793330430984497,"786":2.6427574157714844,"787":-6.281269550323486,"788":-0.34076473116874695,"789":6.025171279907227,"790":2.8614869117736816,"791":-2.6241650581359863,"792":-6.168747425079346,"793":6.064457416534424,"794":1.2147061824798584,"795":4.400444507598877,"796":-3.004310131072998,"797":0.6282655596733093,"798":-3.8401741981506348,"799":0.8859717845916748,"800":2.4292173385620117,"801":-3.209796667098999,"802":1.8398224115371704,"803":2.2288830280303955,"804":-2.0188403129577637,"805":-0.5986530184745789,"806":6.458200931549072,"807":-2.2456676959991455,"808":-1.0071674585342407,"809":-2.856560468673706,"810":-1.168309211730957,"811":-2.7437326908111572,"812":2.333665132522583,"813":3.5844666957855225,"814":1.5116503238677979,"815":-2.3615875244140625,"816":-0.2823527753353119,"817":3.5705957412719727,"818":1.9170891046524048,"819":2.800412178039551,"820":2.339916706085205,"821":1.0429449081420898,"822":-3.736659049987793,"823":4.309473514556885,"824":1.9801775217056274,"825":5.0335211753845215,"826":-4.3632025718688965,"827":0.9592241644859314,"828":-2.2022767066955566,"829":-4.143179416656494,"830":5.334063529968262,"831":-2.659736156463623,"832":-4.382387161254883,"833":2.1108436584472656,"834":-3.9333157539367676,"835":-4.1145405769348145,"836":1.9762742519378662,"837":-0.2843661606311798,"838":2.9720144271850586,"839":-11.28848934173584,"840":0.30061233043670654,"841":-2.4395697116851807,"842":4.391610145568848,"843":0.8013401031494141,"844":0.4486244022846222,"845":-3.258485794067383,"846":-3.7758870124816895,"847":7.694648742675781,"848":4.923218250274658,"849":-0.106842041015625,"850":-0.9687185287475586,"851":6.845992088317871,"852":-2.1410484313964844,"853":0.7690057158470154,"854":7.541609287261963,"855":2.0651462078094482,"856":1.0759861469268799,"857":5.515987873077393,"858":1.4505096673965454,"859":5.090686321258545,"860":-1.2269680500030518,"861":4.980032920837402,"862":-5.728968620300293,"863":-5.646630764007568,"864":-6.026022911071777,"865":-3.441877603530884,"866":6.974566459655762,"867":-1.595049262046814,"868":2.9874072074890137,"869":-5.5283613204956055,"870":10.222938537597656,"871":0.2757907807826996,"872":-1.3041152954101562,"873":-0.9768316149711609,"874":3.15926194190979,"875":-2.2082371711730957,"876":-4.8269453048706055,"877":-4.017552375793457,"878":-1.5009212493896484,"879":-0.09789182245731354,"880":-0.37864798307418823,"881":1.6656293869018555,"882":6.481195449829102,"883":-5.346391677856445,"884":0.9784746170043945,"885":8.323433876037598,"886":4.770422458648682,"887":-4.315843105316162,"888":4.893899440765381,"889":4.029164791107178,"890":-1.3161741495132446,"891":2.5319032669067383,"892":1.550166130065918,"893":-5.616914749145508,"894":4.944638252258301,"895":-2.1647098064422607,"896":8.022528648376465,"897":-2.116464853286743,"898":4.57274055480957,"899":-4.588493824005127,"900":1.0110243558883667,"901":-1.8086496591567993,"902":-7.952165603637695,"903":-4.629023551940918,"904":-1.1404277086257935,"905":-1.2783050537109375,"906":-2.2323951721191406,"907":1.5735994577407837,"908":-0.19975505769252777,"909":-4.448085308074951,"910":-0.28025582432746887,"911":0.43614453077316284,"912":-0.7928204536437988,"913":-2.685108184814453,"914":5.719005584716797,"915":-5.0357890129089355,"916":-0.2669427990913391,"917":0.6103450059890747,"918":1.6149053573608398,"919":-0.5018157362937927,"920":3.047672986984253,"921":-4.559208869934082,"922":-4.630851745605469,"923":4.610882759094238,"924":2.8117504119873047,"925":-2.876150369644165,"926":5.266224384307861,"927":2.206207513809204,"928":-6.299983978271484,"929":2.3946406841278076,"930":-1.095645785331726,"931":1.3077473640441895,"932":0.21922937035560608,"933":-2.424015998840332,"934":3.276087522506714,"935":1.1491281986236572,"936":-4.446139335632324,"937":-0.9287755489349365,"938":1.6638506650924683,"939":-0.11815246939659119,"940":-0.31453216075897217,"941":2.5774474143981934,"942":2.079774856567383,"943":0.9116446375846863,"944":-2.524062395095825,"945":1.040093183517456,"946":-1.9236018657684326,"947":1.5417611598968506,"948":-4.353778839111328,"949":4.244082450866699,"950":6.944510459899902,"951":3.938110113143921,"952":-5.822733402252197,"953":-4.231748104095459,"954":1.6672310829162598,"955":7.1737895011901855,"956":1.7599623203277588,"957":-9.125533103942871,"958":1.5500062704086304,"959":-1.3286648988723755,"960":-1.9838918447494507,"961":-1.00259530544281,"962":-6.04982852935791,"963":-1.9416418075561523,"964":-0.643639862537384,"965":-5.820304870605469,"966":3.4706435203552246,"967":-2.9031403064727783,"968":1.0492503643035889,"969":4.6315531730651855,"970":0.19776880741119385,"971":-4.4693756103515625,"972":2.4078664779663086,"973":1.5884995460510254,"974":-5.440279960632324,"975":-2.2316744327545166,"976":-4.363386154174805,"977":0.6176090240478516,"978":0.5077671408653259,"979":-0.4592830538749695,"980":0.34521690011024475,"981":2.7895615100860596,"982":2.104750394821167,"983":-0.42071205377578735,"984":4.581827640533447,"985":-0.046576980501413345,"986":-0.5830278396606445,"987":0.11068031191825867,"988":1.9738702774047852,"989":-0.22156213223934174,"990":0.24014577269554138,"991":-1.6107451915740967,"992":-2.18593430519104,"993":0.05016639456152916,"994":4.288409233093262,"995":3.0504138469696045,"996":-4.8331990242004395,"997":1.1874825954437256,"998":0.5822622179985046,"999":1.0088577270507812,"1000":-1.4550284147262573,"1001":1.0470590591430664,"1002":-0.9253224730491638,"1003":1.2292752265930176,"1004":1.4465138912200928,"1005":-2.696589231491089,"1006":0.506718099117279,"1007":1.440717339515686,"1008":2.3995776176452637,"1009":-0.7827110886573792,"1010":-0.03466027230024338,"1011":-1.797427773475647,"1012":0.11006538569927216,"1013":-5.580898284912109,"1014":-1.470784068107605,"1015":2.2087910175323486,"1016":-3.337538957595825,"1017":-1.5500653982162476,"1018":1.085296869277954,"1019":-0.6077385544776917,"1020":2.5506937503814697,"1021":1.1218898296356201,"1022":-2.746354818344116,"1023":0.5191315412521362,"1024":0.8670899271965027,"1025":0.6030567288398743,"1026":-2.836427688598633,"1027":0.30992522835731506,"1028":2.007601499557495,"1029":0.8515132069587708,"1030":2.5119524002075195,"1031":2.5196030139923096,"1032":2.652844190597534,"1033":-0.6201348900794983,"1034":0.3736928701400757,"1035":-1.705518126487732,"1036":-1.0623160600662231,"1037":-3.6474204063415527,"1038":-0.29681575298309326,"1039":3.7320501804351807,"1040":-1.6018632650375366,"1041":-2.208749771118164,"1042":2.2436678409576416,"1043":0.48165830969810486,"1044":2.2191216945648193,"1045":-0.8181726932525635,"1046":0.46207335591316223,"1047":0.2522062659263611,"1048":-1.5141428709030151,"1049":0.4348742961883545,"1050":-2.6081175804138184,"1051":1.6313295364379883,"1052":1.32057785987854,"1053":-1.5856050252914429,"1054":0.8667972683906555,"1055":0.6488204002380371,"1056":-0.0284226443618536,"1057":2.9014534950256348,"1058":2.444708824157715,"1059":1.3132914304733276,"1060":2.0638315677642822,"1061":-2.6493284702301025,"1062":-0.521933376789093,"1063":-0.38301998376846313,"1064":-0.8036268949508667,"1065":-1.5172345638275146,"1066":-5.027280330657959,"1067":2.4769885540008545,"1068":-5.270216464996338,"1069":-2.949788808822632,"1070":1.7475335597991943,"1071":2.690112829208374,"1072":-0.43943262100219727,"1073":6.443706512451172,"1074":-2.8514535427093506,"1075":-0.673720121383667,"1076":-0.9060226678848267,"1077":-0.475594162940979,"1078":-3.1218862533569336,"1079":-1.7765971422195435,"1080":-1.403464674949646,"1081":-0.005643279291689396,"1082":3.6540496349334717,"1083":-4.062173366546631,"1084":1.6901894807815552,"1085":0.07786903530359268,"1086":-0.7717309594154358,"1087":-0.6941786408424377,"1088":1.404179573059082,"1089":-3.238471508026123,"1090":-1.9541046619415283,"1091":0.6374211311340332,"1092":-6.198801517486572,"1093":2.6736156940460205,"1094":9.841447830200195,"1095":-3.814822196960449,"1096":-5.851621150970459,"1097":2.552233934402466,"1098":-2.3930561542510986,"1099":3.402177572250366,"1100":13.907535552978516,"1101":5.8405632972717285,"1102":-4.500336647033691,"1103":-2.0635910034179688,"1104":3.163041353225708,"1105":3.8882546424865723,"1106":-3.98934006690979,"1107":-10.962992668151855,"1108":-16.230627059936523,"1109":-3.8860926628112793,"1110":-16.952713012695312,"1111":6.904372215270996,"1112":-2.67659330368042,"1113":-1.4937951564788818,"1114":8.022709846496582,"1115":14.65445613861084,"1116":4.428854465484619,"1117":-4.187867641448975,"1118":6.159814834594727,"1119":-0.19789105653762817,"1120":2.876722574234009,"1121":-14.206062316894531,"1122":-14.168241500854492,"1123":9.985313415527344,"1124":5.082527160644531,"1125":13.87475299835205,"1126":16.43999481201172,"1127":-15.914186477661133,"1128":7.239203929901123,"1129":-14.673105239868164,"1130":4.677272796630859,"1131":-2.695486545562744,"1132":-0.31020522117614746,"1133":7.758072853088379,"1134":11.837909698486328,"1135":-0.6371828317642212,"1136":-1.139081358909607,"1137":-7.3284912109375,"1138":-4.881158828735352,"1139":7.020792007446289,"1140":10.263155937194824,"1141":5.289883613586426,"1142":-1.6046178340911865,"1143":1.7432090044021606,"1144":8.75394344329834,"1145":2.4716928005218506,"1146":2.9515974521636963,"1147":-4.484591960906982,"1148":6.119952201843262,"1149":-4.964447021484375,"1150":5.758938789367676,"1151":11.948779106140137,"1152":-5.095305442810059,"1153":5.225840091705322,"1154":0.2437661737203598,"1155":3.597569465637207,"1156":-2.8876662254333496,"1157":-0.06462210416793823,"1158":11.720221519470215,"1159":-17.115825653076172,"1160":-5.192370414733887,"1161":12.106708526611328,"1162":-8.114821434020996,"1163":-14.669939041137695,"1164":5.747842311859131,"1165":-6.295280456542969,"1166":0.1329272836446762,"1167":10.416959762573242,"1168":15.263607025146484,"1169":-4.9093337059021,"1170":-2.6813764572143555,"1171":-3.9483237266540527,"1172":3.610139846801758,"1173":4.8623785972595215,"1174":6.262287139892578,"1175":-1.7103381156921387,"1176":5.743603229522705,"1177":1.5328662395477295,"1178":0.8996238708496094,"1179":3.5240557193756104,"1180":0.9795675873756409,"1181":-0.18534521758556366,"1182":2.191744565963745,"1183":-0.8026678562164307,"1184":3.751378297805786,"1185":-2.2053792476654053,"1186":2.360398530960083,"1187":3.1081442832946777,"1188":2.3225491046905518,"1189":2.871907949447632,"1190":0.9527142643928528,"1191":-5.573007583618164,"1192":-1.3650460243225098,"1193":2.4213833808898926,"1194":1.9680261611938477,"1195":0.19731082022190094,"1196":0.6316363215446472,"1197":-0.09424395114183426,"1198":0.6805714964866638,"1199":9.66571044921875,"1200":1.2906315326690674,"1201":2.5237648487091064,"1202":3.7733054161071777,"1203":1.5990413427352905,"1204":-0.027684610337018967,"1205":6.929993152618408,"1206":-1.5525609254837036,"1207":3.34198260307312,"1208":2.545151948928833,"1209":-7.7048563957214355,"1210":1.736948013305664,"1211":4.2324018478393555,"1212":-8.560216903686523,"1213":17.349620819091797,"1214":5.123236656188965,"1215":4.643306732177734,"1216":12.060873985290527,"1217":-3.1626462936401367,"1218":0.8079031109809875,"1219":-1.6338144540786743,"1220":-13.113517761230469,"1221":14.194214820861816,"1222":-2.2557532787323,"1223":0.1132582351565361,"1224":-3.35937762260437,"1225":6.770276069641113,"1226":1.3406636714935303,"1227":8.957995414733887,"1228":-0.5877281427383423,"1229":0.7259008884429932,"1230":-6.657233238220215,"1231":10.110030174255371,"1232":4.339681625366211,"1233":-9.02851676940918,"1234":1.8238797187805176,"1235":-6.7300872802734375,"1236":-6.706305027008057,"1237":4.238802909851074,"1238":3.7209415435791016,"1239":-7.932281970977783,"1240":3.389320135116577,"1241":2.2841475009918213,"1242":-18.430761337280273,"1243":-12.123698234558105,"1244":7.212813854217529,"1245":-0.7218685746192932,"1246":2.1515703201293945,"1247":-10.088761329650879,"1248":0.35571610927581787,"1249":-16.594839096069336,"1250":4.482556343078613,"1251":-1.1231845617294312,"1252":14.166041374206543,"1253":-4.044165134429932,"1254":-6.360736846923828,"1255":0.5865916013717651,"1256":2.354356527328491,"1257":9.118269920349121,"1258":-14.655326843261719,"1259":-8.433174133300781,"1260":16.002113342285156,"1261":14.294600486755371,"1262":-3.307138204574585,"1263":7.0488080978393555,"1264":-5.925327777862549,"1265":-22.88654327392578,"1266":4.972110748291016,"1267":12.204081535339355,"1268":9.023124694824219,"1269":0.19848129153251648,"1270":16.202987670898438,"1271":5.408349990844727,"1272":-8.20311450958252,"1273":6.41430139541626,"1274":-4.886791229248047,"1275":6.157627105712891,"1276":2.5119082927703857,"1277":1.8326740264892578,"1278":-10.455587387084961,"1279":6.225597381591797,"1280":-0.8825092911720276,"1281":-4.821284294128418,"1282":-9.557795524597168,"1283":-8.876110076904297,"1284":5.349950790405273,"1285":-15.664762496948242,"1286":-3.723388195037842,"1287":0.3305228352546692,"1288":-10.269519805908203,"1289":-1.061079740524292,"1290":-1.1916406154632568,"1291":6.634280204772949,"1292":3.623197078704834,"1293":1.8906611204147339,"1294":11.068493843078613,"1295":-9.920120239257812,"1296":3.300647258758545,"1297":-2.650294780731201,"1298":9.591779708862305,"1299":-0.7563930749893188,"1300":3.8291172981262207,"1301":11.254298210144043,"1302":-4.183788299560547,"1303":6.61060905456543,"1304":-9.290847778320312,"1305":8.811659812927246,"1306":8.088998794555664,"1307":0.7925529479980469,"1308":5.2315449714660645,"1309":-0.4727640151977539,"1310":-8.52969741821289,"1311":-3.7716875076293945,"1312":8.639931678771973,"1313":1.3214025497436523,"1314":-1.7433407306671143,"1315":-6.5353102684021,"1316":8.05910587310791,"1317":9.397704124450684,"1318":-5.197199821472168,"1319":4.876653671264648,"1320":3.1245384216308594,"1321":-2.174731731414795,"1322":0.9820266962051392,"1323":-5.7588677406311035,"1324":3.9980201721191406,"1325":-8.547246932983398,"1326":1.9768120050430298,"1327":-11.18860912322998,"1328":-5.246140003204346,"1329":1.9831843376159668,"1330":-0.9209101796150208,"1331":12.855380058288574,"1332":9.142608642578125,"1333":-11.757871627807617,"1334":-4.690563678741455,"1335":-4.199470043182373,"1336":-0.2216605395078659,"1337":-0.8177058100700378,"1338":-0.3081550896167755,"1339":-6.331851482391357,"1340":0.7785258889198303,"1341":2.0056443214416504,"1342":1.7765250205993652,"1343":-9.635409355163574,"1344":-1.147936224937439,"1345":-8.595595359802246,"1346":-2.7959938049316406,"1347":4.798440933227539,"1348":-0.9930754899978638,"1349":-5.627852916717529,"1350":-5.8434014320373535,"1351":14.104939460754395,"1352":9.384438514709473,"1353":-7.86229133605957,"1354":8.613186836242676,"1355":7.615139961242676,"1356":12.42431926727295,"1357":-0.33014965057373047,"1358":2.6411075592041016,"1359":7.30286979675293,"1360":1.2234004735946655,"1361":-2.520409345626831,"1362":-4.495106220245361,"1363":7.586312770843506,"1364":4.133566379547119,"1365":0.7816008925437927,"1366":0.6415056586265564,"1367":-0.7276670336723328,"1368":-5.162574291229248,"1369":4.212396144866943,"1370":2.5652472972869873,"1371":2.962743043899536,"1372":10.313210487365723,"1373":-5.827599048614502,"1374":-0.7204301953315735,"1375":-5.382585048675537,"1376":4.684711456298828,"1377":-4.282834529876709,"1378":1.5178821086883545,"1379":1.9311671257019043,"1380":-4.28621768951416,"1381":4.837564468383789,"1382":0.16113992035388947,"1383":8.023700714111328,"1384":1.466698169708252,"1385":-9.529553413391113,"1386":6.603119850158691,"1387":-3.0217106342315674,"1388":2.5849461555480957,"1389":-6.480881214141846,"1390":1.043174147605896,"1391":-5.157975673675537,"1392":-5.805759429931641,"1393":-2.0613532066345215,"1394":2.9366567134857178,"1395":-4.356629371643066,"1396":2.0459790229797363,"1397":6.976667404174805,"1398":-1.0148212909698486,"1399":-3.771406888961792,"1400":1.0456604957580566,"1401":-5.150364398956299,"1402":-6.727804183959961,"1403":1.9905965328216553,"1404":-6.782282829284668,"1405":-3.612287998199463,"1406":-3.6898958683013916,"1407":14.33519458770752,"1408":-18.054718017578125,"1409":3.458383560180664,"1410":-15.805903434753418,"1411":-8.76543140411377,"1412":6.789726257324219,"1413":-8.633487701416016,"1414":11.332075119018555,"1415":-8.542133331298828,"1416":13.45103645324707,"1417":-1.3915090560913086,"1418":-6.979059219360352,"1419":8.767885208129883,"1420":-11.48237419128418,"1421":5.71218729019165,"1422":-12.639248847961426,"1423":-6.4478607177734375,"1424":4.667267799377441,"1425":2.253176689147949,"1426":6.056229114532471,"1427":-3.297034978866577,"1428":16.6314697265625,"1429":-1.6636472940444946,"1430":2.7658629417419434,"1431":16.896747589111328,"1432":1.9106017351150513,"1433":-7.74284029006958,"1434":3.928481101989746,"1435":0.34814420342445374,"1436":-14.840953826904297,"1437":7.055971145629883,"1438":-6.26721715927124,"1439":-15.199037551879883,"1440":18.032899856567383,"1441":-7.278402328491211,"1442":-1.7246952056884766,"1443":-0.7934321761131287,"1444":3.9334828853607178,"1445":-2.4300971031188965,"1446":1.1359894275665283,"1447":-0.7284492254257202,"1448":0.20198237895965576,"1449":-0.20836995542049408,"1450":-0.47341182827949524,"1451":-0.4038466513156891,"1452":-5.8408708572387695,"1453":-1.53348970413208,"1454":0.6282441020011902,"1455":1.8212192058563232,"1456":-1.4012986421585083,"1457":-0.46177560091018677,"1458":-0.8294904232025146,"1459":-0.6472180485725403,"1460":3.4285991191864014,"1461":0.08696448802947998,"1462":-2.022798776626587,"1463":-1.0731396675109863,"1464":1.5977119207382202,"1465":-1.8729846477508545,"1466":0.7438710927963257,"1467":0.04487602785229683,"1468":1.6716828346252441,"1469":-0.5748929381370544,"1470":3.3298916816711426,"1471":2.1540820598602295,"1472":-0.6940867900848389,"1473":2.849766969680786,"1474":-0.16415457427501678,"1475":0.34346213936805725,"1476":-1.4323972463607788,"1477":-0.5879340767860413,"1478":0.2456011027097702,"1479":0.8463167548179626,"1480":3.286862850189209,"1481":1.4668337106704712,"1482":-1.3155267238616943,"1483":-1.3222143650054932,"1484":2.991161346435547,"1485":3.855942487716675,"1486":-0.4801688492298126,"1487":-4.3624587059021,"1488":2.4847252368927,"1489":-1.261253833770752,"1490":2.954728603363037,"1491":3.43550443649292,"1492":2.4417080879211426,"1493":-2.108046293258667,"1494":-1.177822470664978,"1495":0.6224016547203064,"1496":1.2473905086517334,"1497":-1.2565557956695557,"1498":-1.1372934579849243,"1499":1.0593464374542236,"1500":0.3869249224662781,"1501":2.401449203491211,"1502":2.5220844745635986,"1503":-6.2075724601745605,"1504":-1.2574431896209717,"1505":0.8061522841453552,"1506":2.041533946990967,"1507":-2.21378231048584,"1508":0.9593022465705872,"1509":0.5869525671005249,"1510":-2.0029757022857666,"1511":1.868517518043518,"1512":-1.9815038442611694,"1513":0.6410093307495117,"1514":-2.1115503311157227,"1515":0.747949481010437,"1516":4.41571569442749,"1517":1.9505079984664917,"1518":1.0958151817321777,"1519":-0.8733752369880676,"1520":1.4023141860961914,"1521":-0.025508448481559753,"1522":-0.012091540731489658,"1523":-0.005508949514478445,"1524":0.0008691178518347442,"1525":-0.03433440998196602,"1526":0.047245092689991,"1527":0.04880155995488167,"1528":0.0034547788091003895,"1529":-0.0018041185103356838,"1530":-0.002961450722068548,"1531":-0.03033345192670822,"1532":-0.0381612628698349,"1533":-0.0028220724780112505,"1534":-0.016380732879042625,"1535":-0.045522768050432205,"1536":0.027587443590164185,"1537":0.036813873797655106,"1538":0.0369192473590374,"1539":-0.025102848187088966,"1540":0.024908769875764847,"1541":0.013288818299770355,"1542":-0.002138609765097499,"1543":-0.02881588041782379,"1544":-0.003349585458636284,"1545":-0.014065169729292393,"1546":-0.03726382181048393,"1547":0.034221842885017395,"1548":-0.024499570950865746,"1549":0.031232310459017754,"1550":-0.0028640886303037405,"1551":-0.047784410417079926,"1552":0.028127489611506462,"1553":-0.04164205119013786,"1554":-0.034900058060884476,"1555":-0.020348768681287766,"1556":-0.025248020887374878,"1557":0.04130036011338234,"1558":0.043254878371953964,"1559":-0.00765225850045681}},"hiddenLayers":[{"inputMatrix":{"rows":20,"columns":39,"weights":{"0":0.9571106433868408,"1":1.3833063840866089,"2":-0.8185573220252991,"3":-0.9127044677734375,"4":-1.8465371131896973,"5":-0.2229735553264618,"6":-2.0954818725585938,"7":-1.35413658618927,"8":2.009042501449585,"9":-1.298826813697815,"10":-0.2656179368495941,"11":1.1736332178115845,"12":2.6042356491088867,"13":-1.0877388715744019,"14":-0.8610439300537109,"15":-0.1307293027639389,"16":-1.0896122455596924,"17":1.5271589756011963,"18":-1.2031892538070679,"19":-0.9313955307006836,"20":-2.509171724319458,"21":1.1723567247390747,"22":0.5110823512077332,"23":0.8594257235527039,"24":0.15882238745689392,"25":0.33793386816978455,"26":1.4985485076904297,"27":1.8599588871002197,"28":-0.42277994751930237,"29":-0.9645900726318359,"30":0.7529310584068298,"31":-1.7143549919128418,"32":0.3526903986930847,"33":-1.7223871946334839,"34":-0.6052517294883728,"35":-0.05972207710146904,"36":1.8036503791809082,"37":0.741644024848938,"38":0.7863664031028748,"39":1.4817088842391968,"40":0.04587439447641373,"41":-0.820426344871521,"42":-0.1505098193883896,"43":-0.507386326789856,"44":-0.3328438699245453,"45":2.5749454498291016,"46":2.137539863586426,"47":-2.378986358642578,"48":2.5904722213745117,"49":2.0537784099578857,"50":0.8257985711097717,"51":-1.2220025062561035,"52":1.2794575691223145,"53":0.7312374711036682,"54":-0.3896477520465851,"55":1.4343348741531372,"56":0.14116054773330688,"57":0.6920797228813171,"58":-1.034665584564209,"59":1.9545156955718994,"60":1.02865469455719,"61":-0.7807672619819641,"62":-2.944840669631958,"63":-0.45853370428085327,"64":0.8055794835090637,"65":0.2545787990093231,"66":-2.0068607330322266,"67":-1.1058783531188965,"68":0.775840699672699,"69":-0.5383050441741943,"70":0.9648857712745667,"71":-0.6319724321365356,"72":-1.29745352268219,"73":-2.8511624336242676,"74":0.012957539409399033,"75":-1.8278579711914062,"76":-0.6849528551101685,"77":2.115511178970337,"78":-1.7114695310592651,"79":3.096034288406372,"80":-1.9182311296463013,"81":-1.2864044904708862,"82":2.5402233600616455,"83":-1.7675904035568237,"84":1.293238639831543,"85":-0.4133208394050598,"86":-0.5042704939842224,"87":1.6904011964797974,"88":0.6235791444778442,"89":-0.6610764861106873,"90":-2.1603689193725586,"91":-0.9704667925834656,"92":0.7691501975059509,"93":0.0625990629196167,"94":1.4191616773605347,"95":2.2934060096740723,"96":0.6407169699668884,"97":0.01353422086685896,"98":0.5662438869476318,"99":-0.33914685249328613,"100":-0.30556032061576843,"101":1.0045536756515503,"102":-0.2811063230037689,"103":-0.5964310765266418,"104":0.031955573707818985,"105":0.7446422576904297,"106":2.022125005722046,"107":1.1949328184127808,"108":-1.0878390073776245,"109":0.13298003375530243,"110":-0.7665204405784607,"111":-1.3032251596450806,"112":-1.3709008693695068,"113":1.5876826047897339,"114":-1.8217068910598755,"115":2.8465003967285156,"116":1.2189569473266602,"117":0.9834551811218262,"118":1.2487456798553467,"119":0.6925510168075562,"120":0.6883620619773865,"121":0.5160141587257385,"122":-0.8390066027641296,"123":-1.8741992712020874,"124":-2.1814279556274414,"125":2.142070770263672,"126":-1.4583255052566528,"127":-0.40755414962768555,"128":-0.19672709703445435,"129":0.9524250626564026,"130":-1.1906145811080933,"131":0.128726527094841,"132":-1.0887030363082886,"133":0.8270274996757507,"134":2.927614688873291,"135":-0.866939902305603,"136":0.10486847907304764,"137":-1.9287654161453247,"138":0.6274637579917908,"139":0.4411774277687073,"140":-0.3939858376979828,"141":0.8439109325408936,"142":-0.6669743061065674,"143":-0.03358963876962662,"144":2.0447466373443604,"145":-1.1777710914611816,"146":-1.1102581024169922,"147":1.1049830913543701,"148":-0.6932284235954285,"149":-0.9891191720962524,"150":-1.3851526975631714,"151":-0.48277613520622253,"152":0.19443084299564362,"153":1.835145354270935,"154":-1.3856322765350342,"155":-0.3637130558490753,"156":1.4903541803359985,"157":0.8551207780838013,"158":0.41901063919067383,"159":-1.0264949798583984,"160":-2.608583688735962,"161":-1.102248191833496,"162":-2.6030220985412598,"163":-0.8637264966964722,"164":1.8599958419799805,"165":-2.742565870285034,"166":-1.801741600036621,"167":0.7050215601921082,"168":0.14900065958499908,"169":-2.4558427333831787,"170":0.16975827515125275,"171":-0.7775276899337769,"172":-0.8719757795333862,"173":2.0239357948303223,"174":-4.14056396484375,"175":-1.085189700126648,"176":-2.2215518951416016,"177":4.246609687805176,"178":-1.149601936340332,"179":3.1920762062072754,"180":-0.25682684779167175,"181":-0.9036245942115784,"182":1.9725830554962158,"183":1.9298166036605835,"184":0.20755279064178467,"185":-1.890769362449646,"186":0.6272898316383362,"187":0.06289301067590714,"188":0.7197080254554749,"189":-1.0501419305801392,"190":1.626940369606018,"191":1.6424951553344727,"192":0.19194693863391876,"193":-0.43517544865608215,"194":-0.9510726928710938,"195":-2.6717588901519775,"196":-0.7101432085037231,"197":1.4303913116455078,"198":-0.5851802825927734,"199":0.7757670879364014,"200":-0.38397103548049927,"201":-0.46297362446784973,"202":-2.582608699798584,"203":0.8888490200042725,"204":0.6855325102806091,"205":0.7540201544761658,"206":-0.9246355295181274,"207":-1.0579336881637573,"208":1.1373472213745117,"209":1.5335201025009155,"210":2.764310359954834,"211":-4.219844818115234,"212":-0.7830418944358826,"213":-0.08862520754337311,"214":2.76340913772583,"215":-1.0158751010894775,"216":-2.19256591796875,"217":0.5895546078681946,"218":3.7975387573242188,"219":1.7161004543304443,"220":-3.797391891479492,"221":1.0078556537628174,"222":0.5448849201202393,"223":0.33090537786483765,"224":-0.6507673263549805,"225":-0.21234989166259766,"226":-0.41459277272224426,"227":0.46071043610572815,"228":2.617903709411621,"229":2.3916327953338623,"230":-0.44475045800209045,"231":0.3969717025756836,"232":-0.7540857791900635,"233":0.46929600834846497,"234":-1.678761601448059,"235":-0.17472539842128754,"236":-0.699042022228241,"237":1.1107197999954224,"238":1.246507167816162,"239":-0.6728703379631042,"240":-0.054258719086647034,"241":1.779707431793213,"242":-0.581222653388977,"243":1.083175539970398,"244":0.8868890404701233,"245":-3.5816309452056885,"246":1.8077341318130493,"247":1.2986639738082886,"248":0.7586127519607544,"249":-1.112837314605713,"250":0.30733877420425415,"251":0.5962187647819519,"252":1.5212806463241577,"253":0.4744833707809448,"254":0.5200951099395752,"255":-1.110762357711792,"256":1.0826233625411987,"257":0.8525901436805725,"258":-0.7878711223602295,"259":-0.03700145334005356,"260":3.0230767726898193,"261":0.15390992164611816,"262":-1.2295352220535278,"263":2.6580684185028076,"264":0.4030176103115082,"265":-0.5435383319854736,"266":-0.2582548260688782,"267":-1.308533787727356,"268":-1.1777217388153076,"269":2.2516167163848877,"270":-2.1991171836853027,"271":1.9285895824432373,"272":-1.3408838510513306,"273":0.2624671757221222,"274":-2.209134340286255,"275":-1.1193768978118896,"276":1.6430000066757202,"277":2.230858325958252,"278":1.118031620979309,"279":1.3934391736984253,"280":-2.495015859603882,"281":-1.9927780628204346,"282":0.8122928738594055,"283":-1.1548925638198853,"284":-1.0671533346176147,"285":-2.1046762466430664,"286":1.2430896759033203,"287":0.5713752508163452,"288":0.9372557997703552,"289":-0.7952063679695129,"290":-0.6828386187553406,"291":0.949151337146759,"292":1.8046455383300781,"293":1.4917181730270386,"294":0.06185351312160492,"295":0.3794300854206085,"296":1.1116383075714111,"297":-1.6412328481674194,"298":0.39985543489456177,"299":2.6466338634490967,"300":-3.1481003761291504,"301":0.06558822840452194,"302":1.6877213716506958,"303":-1.7542630434036255,"304":-1.8309299945831299,"305":0.9217268228530884,"306":1.817260503768921,"307":2.012096405029297,"308":3.286562442779541,"309":-1.3573623895645142,"310":-0.78267902135849,"311":-0.2964985966682434,"312":-2.5155692100524902,"313":-0.3032107949256897,"314":-0.7508449554443359,"315":3.745497703552246,"316":-1.088132619857788,"317":-0.9603828191757202,"318":1.6229031085968018,"319":-3.0723214149475098,"320":0.18966658413410187,"321":0.21626918017864227,"322":1.526721715927124,"323":-1.6458338499069214,"324":0.28070011734962463,"325":0.03089437261223793,"326":0.1520005464553833,"327":1.0883781909942627,"328":-1.2477833032608032,"329":1.4218356609344482,"330":-1.144517183303833,"331":2.2851510047912598,"332":0.9828647375106812,"333":-1.276963710784912,"334":1.7493277788162231,"335":-0.33319854736328125,"336":0.9100269675254822,"337":1.0965214967727661,"338":1.7267189025878906,"339":2.767698287963867,"340":3.0255331993103027,"341":0.7637373805046082,"342":1.9173622131347656,"343":-3.265453577041626,"344":-0.5844143033027649,"345":-0.5096070170402527,"346":0.26612985134124756,"347":-0.299710214138031,"348":-0.09511173516511917,"349":1.7175930738449097,"350":2.187432050704956,"351":0.25025513768196106,"352":2.2360806465148926,"353":-0.5770876407623291,"354":-1.5311760902404785,"355":-1.3192108869552612,"356":0.5201039910316467,"357":-0.9932342767715454,"358":1.202012538909912,"359":0.0979422852396965,"360":-2.569766044616699,"361":-0.8705089092254639,"362":-1.2130669355392456,"363":1.3819137811660767,"364":-2.026885747909546,"365":-1.2388720512390137,"366":-0.2108515352010727,"367":0.2789056897163391,"368":0.25058841705322266,"369":-0.35492658615112305,"370":0.04958111792802811,"371":-0.9940840005874634,"372":0.5220242142677307,"373":0.5079749822616577,"374":-0.6800318360328674,"375":-2.0202724933624268,"376":1.5772371292114258,"377":0.26582300662994385,"378":0.08808129280805588,"379":0.9687211513519287,"380":-1.6788630485534668,"381":-0.6390106678009033,"382":3.1768131256103516,"383":-1.5286445617675781,"384":-0.3953371047973633,"385":-0.4253961145877838,"386":-2.9620676040649414,"387":-1.136009693145752,"388":-1.4133318662643433,"389":-0.46283644437789917,"390":0.7169769406318665,"391":1.4225190877914429,"392":0.8220064043998718,"393":-1.743282675743103,"394":0.809276819229126,"395":2.621731758117676,"396":1.4417804479599,"397":0.9777470827102661,"398":-1.6517925262451172,"399":2.0779409408569336,"400":-1.053591012954712,"401":0.9717190861701965,"402":-0.054363641887903214,"403":2.106147050857544,"404":-0.7331260442733765,"405":-0.798332929611206,"406":-0.4779554307460785,"407":0.6257020235061646,"408":2.0223019123077393,"409":0.24287086725234985,"410":-0.5378673672676086,"411":0.02016313001513481,"412":1.4477194547653198,"413":1.0687538385391235,"414":1.495941162109375,"415":-0.8505067229270935,"416":-1.9483468532562256,"417":-1.7903265953063965,"418":1.9274647235870361,"419":-0.2633489966392517,"420":-3.7016329765319824,"421":-0.8115606904029846,"422":2.2079102993011475,"423":-0.23909159004688263,"424":0.7067604660987854,"425":1.0345488786697388,"426":-0.4334055483341217,"427":-2.1110825538635254,"428":-0.010291960090398788,"429":1.1895287036895752,"430":1.9102400541305542,"431":-3.5050833225250244,"432":-1.1144051551818848,"433":-1.2365809679031372,"434":-0.44873422384262085,"435":-1.2096797227859497,"436":1.6413213014602661,"437":-0.16691869497299194,"438":-0.8972007036209106,"439":-1.1011548042297363,"440":-0.06406261771917343,"441":2.0085694789886475,"442":-0.11344651132822037,"443":-3.1501948833465576,"444":-1.50321626663208,"445":2.7395055294036865,"446":1.274939775466919,"447":-2.1182444095611572,"448":-0.22401507198810577,"449":-1.6013880968093872,"450":1.0926623344421387,"451":-2.847360372543335,"452":1.634020447731018,"453":1.583458423614502,"454":-0.4032857120037079,"455":1.6415740251541138,"456":0.8053147792816162,"457":0.2452644556760788,"458":-1.4190340042114258,"459":-1.6602327823638916,"460":2.302001953125,"461":1.5543574094772339,"462":0.5175699591636658,"463":1.7131539583206177,"464":0.638633131980896,"465":-0.5740669965744019,"466":-2.1651933193206787,"467":2.195326089859009,"468":-2.229727029800415,"469":-0.30712375044822693,"470":2.523508310317993,"471":-0.20232850313186646,"472":2.411613941192627,"473":-0.0414372943341732,"474":2.9291248321533203,"475":1.3666291236877441,"476":-2.4845404624938965,"477":1.488318920135498,"478":0.13631193339824677,"479":-1.544901967048645,"480":-0.15817150473594666,"481":-1.043495774269104,"482":-0.03886444494128227,"483":-0.32590213418006897,"484":1.9153434038162231,"485":-0.06207766383886337,"486":-0.24003951251506805,"487":1.2963343858718872,"488":1.0810751914978027,"489":-1.7328377962112427,"490":1.9316675662994385,"491":-0.4396831691265106,"492":-3.8477542400360107,"493":2.284287452697754,"494":0.6361988186836243,"495":-2.550058603286743,"496":-1.1634548902511597,"497":2.079683780670166,"498":0.8443306088447571,"499":2.053083896636963,"500":0.739986777305603,"501":0.054759103804826736,"502":0.9066904187202454,"503":1.979227066040039,"504":-1.2630620002746582,"505":1.654977560043335,"506":-0.2058461457490921,"507":4.3516645431518555,"508":0.5270736813545227,"509":-0.6297656297683716,"510":-0.1969941258430481,"511":-1.0203461647033691,"512":0.14857639372348785,"513":-0.18510323762893677,"514":-0.6458011865615845,"515":-1.1681886911392212,"516":-1.9111765623092651,"517":-3.362117052078247,"518":1.9613964557647705,"519":-0.6447702050209045,"520":-0.4003283679485321,"521":-0.5806131958961487,"522":1.3549795150756836,"523":2.348379135131836,"524":-0.1390334814786911,"525":1.5216327905654907,"526":-2.8501362800598145,"527":-1.4041739702224731,"528":1.2431858777999878,"529":0.0015336228534579277,"530":-1.610739827156067,"531":-0.8644353747367859,"532":1.172351598739624,"533":-2.107954263687134,"534":-1.1363365650177002,"535":0.002828713273629546,"536":-0.817140519618988,"537":0.42648693919181824,"538":-1.1131459474563599,"539":1.1519943475723267,"540":0.4942125678062439,"541":-1.3669267892837524,"542":1.4206069707870483,"543":0.6791474223136902,"544":-2.0334296226501465,"545":0.35245609283447266,"546":0.16661065816879272,"547":0.571538507938385,"548":-0.4854850769042969,"549":0.37239521741867065,"550":-3.2747738361358643,"551":-1.978017807006836,"552":-1.4065724611282349,"553":-0.19813279807567596,"554":1.6510239839553833,"555":-0.26993706822395325,"556":0.9412260055541992,"557":-0.5968087911605835,"558":-0.216455340385437,"559":0.32793572545051575,"560":0.6223938465118408,"561":-0.24369406700134277,"562":-0.4257014989852905,"563":0.9084513187408447,"564":-2.7798359394073486,"565":-1.1189066171646118,"566":-0.3713400661945343,"567":-0.7368842363357544,"568":-1.9541277885437012,"569":1.331656813621521,"570":1.696811556816101,"571":-0.40452176332473755,"572":1.2968227863311768,"573":2.287412405014038,"574":-1.0349136590957642,"575":-1.1343843936920166,"576":0.3714430034160614,"577":-0.7094040513038635,"578":-1.5399272441864014,"579":-1.3860807418823242,"580":0.43737173080444336,"581":-0.7868849635124207,"582":2.327885150909424,"583":0.712752103805542,"584":2.3947536945343018,"585":0.9469979405403137,"586":-2.104841470718384,"587":1.104809284210205,"588":-0.6020925045013428,"589":1.3627368211746216,"590":3.637603282928467,"591":1.547325611114502,"592":-2.1083831787109375,"593":1.0757275819778442,"594":0.8220747709274292,"595":-3.09808087348938,"596":1.853515625,"597":-2.469651937484741,"598":-0.4430229365825653,"599":-0.8873227834701538,"600":1.3808631896972656,"601":-0.02005939744412899,"602":-2.8720591068267822,"603":0.060414426028728485,"604":0.7338595986366272,"605":-1.0486613512039185,"606":2.38488507270813,"607":0.8883808255195618,"608":-0.4577726423740387,"609":-0.6580412983894348,"610":0.39270153641700745,"611":0.5501386523246765,"612":-1.7976936101913452,"613":0.048070695251226425,"614":-1.3918405771255493,"615":0.5000269412994385,"616":-1.459347128868103,"617":1.2131266593933105,"618":2.749828338623047,"619":0.957165002822876,"620":-0.9902706742286682,"621":1.1860743761062622,"622":-0.3528509736061096,"623":-3.685333490371704,"624":-0.14224717020988464,"625":2.2234549522399902,"626":1.0489462614059448,"627":-0.8448044061660767,"628":-0.6975650191307068,"629":0.8336891531944275,"630":1.3042869567871094,"631":-0.9618168473243713,"632":0.15107592940330505,"633":-0.940555989742279,"634":-0.8475481867790222,"635":1.1896229982376099,"636":0.7088028788566589,"637":-0.8927419781684875,"638":0.47181233763694763,"639":2.369126796722412,"640":-0.9966298937797546,"641":0.0977054163813591,"642":-0.09404013305902481,"643":0.0300604160875082,"644":-1.407647728919983,"645":-0.9116349816322327,"646":-0.35611492395401,"647":1.304219365119934,"648":-0.8311110138893127,"649":-0.07730711251497269,"650":-1.9854477643966675,"651":-1.1522578001022339,"652":1.7446671724319458,"653":-3.221712827682495,"654":0.09525834769010544,"655":1.314215064048767,"656":0.28174883127212524,"657":-0.31185460090637207,"658":0.4711317718029022,"659":-2.6570184230804443,"660":1.4244943857192993,"661":-0.006356966216117144,"662":0.0530240461230278,"663":3.0874805450439453,"664":3.182070732116699,"665":-0.23464494943618774,"666":-2.5822770595550537,"667":-1.798084020614624,"668":2.315894842147827,"669":-0.35317277908325195,"670":0.7629026770591736,"671":1.4537341594696045,"672":-1.8009185791015625,"673":-1.2669577598571777,"674":3.0648252964019775,"675":-0.08165886998176575,"676":-1.1135159730911255,"677":-1.4646989107131958,"678":-1.6883578300476074,"679":-0.2709817886352539,"680":0.20072346925735474,"681":0.22270144522190094,"682":-0.28896939754486084,"683":-1.7143887281417847,"684":2.4674055576324463,"685":-0.7105107307434082,"686":1.5017223358154297,"687":-0.41448599100112915,"688":-1.7231286764144897,"689":-1.6773960590362549,"690":-0.4509524703025818,"691":1.164414644241333,"692":-2.937859058380127,"693":-0.7653756141662598,"694":1.3093557357788086,"695":0.7109127044677734,"696":-2.149635076522827,"697":0.5245456099510193,"698":-2.255352258682251,"699":1.5140278339385986,"700":-0.876120924949646,"701":2.034144163131714,"702":-0.042804837226867676,"703":-0.6729949116706848,"704":-0.2691344916820526,"705":-0.5555968880653381,"706":2.3430240154266357,"707":2.8474831581115723,"708":-0.33746108412742615,"709":0.5855302810668945,"710":-2.1130311489105225,"711":2.9471242427825928,"712":-0.6644321084022522,"713":0.18643918633460999,"714":-1.1584794521331787,"715":0.29925888776779175,"716":-0.29369309544563293,"717":0.5673068165779114,"718":-0.4035496413707733,"719":-0.1845054030418396,"720":1.7252529859542847,"721":1.0476187467575073,"722":1.3050657510757446,"723":0.44764190912246704,"724":0.8945803642272949,"725":0.029006490483880043,"726":-0.903722882270813,"727":-0.08450448513031006,"728":0.1415616124868393,"729":-2.7651290893554688,"730":0.8105056285858154,"731":1.113742709159851,"732":-0.6297622919082642,"733":-0.0354829840362072,"734":1.628456711769104,"735":1.5253069400787354,"736":-0.3186890482902527,"737":1.0725443363189697,"738":-2.242415189743042,"739":-1.745041847229004,"740":-0.5295768976211548,"741":-0.5300683975219727,"742":-1.8627874851226807,"743":1.7055257558822632,"744":0.4431256055831909,"745":3.124511957168579,"746":1.1770906448364258,"747":2.5432841777801514,"748":-1.23582124710083,"749":-1.5399223566055298,"750":2.067976236343384,"751":0.327323317527771,"752":0.576036274433136,"753":-1.9274146556854248,"754":0.6993650794029236,"755":-1.6497182846069336,"756":-1.8099446296691895,"757":0.6833832859992981,"758":0.2924518883228302,"759":2.6935837268829346,"760":1.0061872005462646,"761":0.5755506157875061,"762":-2.0105865001678467,"763":1.580535888671875,"764":-2.041473150253296,"765":-4.234734535217285,"766":2.9245808124542236,"767":0.619204580783844,"768":-2.8071699142456055,"769":0.520230770111084,"770":3.255619764328003,"771":-2.0443620681762695,"772":-0.0938817486166954,"773":0.5226156115531921,"774":1.510661005973816,"775":-0.8874627351760864,"776":2.2818868160247803,"777":-1.9752825498580933,"778":-0.538438618183136,"779":-0.954378068447113}},"inputHidden":{"rows":20,"columns":20,"weights":{"0":-0.8241993188858032,"1":1.4793367385864258,"2":1.5744504928588867,"3":-2.770569324493408,"4":1.4570993185043335,"5":0.1635179966688156,"6":0.1832769364118576,"7":0.31394413113594055,"8":1.344375491142273,"9":-0.16882894933223724,"10":0.08787613362073898,"11":-0.45607760548591614,"12":3.168062686920166,"13":-0.3658302128314972,"14":-0.03169674426317215,"15":1.283549189567566,"16":-1.2877658605575562,"17":-0.9593569040298462,"18":-2.0178563594818115,"19":1.450333595275879,"20":2.3730828762054443,"21":-0.4201607406139374,"22":-1.425208568572998,"23":-0.026346497237682343,"24":0.601186990737915,"25":0.5196089744567871,"26":-0.03755143657326698,"27":-0.8552806973457336,"28":-0.46243956685066223,"29":0.8120298385620117,"30":0.1785106360912323,"31":0.006338999141007662,"32":-0.7237914800643921,"33":0.0018519086297601461,"34":0.8862648606300354,"35":-0.9540628790855408,"36":0.03536874055862427,"37":-0.5244941711425781,"38":4.717217922210693,"39":3.7036988735198975,"40":0.7198218703269958,"41":0.2716124951839447,"42":1.2971041202545166,"43":-0.9024762511253357,"44":-0.8628201484680176,"45":4.05886697769165,"46":-2.5461299419403076,"47":1.4450455904006958,"48":-1.8177717924118042,"49":-0.4462471604347229,"50":1.2471498250961304,"51":-1.475844383239746,"52":-0.0637265220284462,"53":0.6894302368164062,"54":-1.1238515377044678,"55":2.2044246196746826,"56":-0.7752662897109985,"57":1.6104577779769897,"58":-1.9164897203445435,"59":1.5909398794174194,"60":0.9366453289985657,"61":-0.5477583408355713,"62":-0.18698355555534363,"63":2.3617169857025146,"64":1.5402576923370361,"65":0.8556727766990662,"66":-3.7628655433654785,"67":1.0915542840957642,"68":0.16236761212348938,"69":-0.450708270072937,"70":0.15503288805484772,"71":0.3207765817642212,"72":-2.260070323944092,"73":0.07951436936855316,"74":0.8955631852149963,"75":0.6963915824890137,"76":0.2153366655111313,"77":2.0378262996673584,"78":-0.15580837428569794,"79":0.047113023698329926,"80":-1.799648404121399,"81":1.268413782119751,"82":6.631856441497803,"83":-1.290279507637024,"84":0.34688058495521545,"85":-1.3136173486709595,"86":-3.267022132873535,"87":-1.8015787601470947,"88":-0.17551155388355255,"89":3.7123851776123047,"90":2.7070565223693848,"91":0.813499927520752,"92":1.9862881898880005,"93":-0.8666457533836365,"94":-2.742795705795288,"95":-0.5474835634231567,"96":-0.8539947271347046,"97":-2.307494640350342,"98":-2.7346441745758057,"99":-1.4487508535385132,"100":-1.4668784141540527,"101":0.026003366336226463,"102":-1.0866773128509521,"103":1.3519285917282104,"104":0.006978955585509539,"105":1.2339621782302856,"106":0.2918267250061035,"107":0.3619960844516754,"108":0.31554651260375977,"109":0.33391454815864563,"110":-2.433084487915039,"111":1.2653722763061523,"112":-1.3202661275863647,"113":0.2890219986438751,"114":0.42033788561820984,"115":-1.311517357826233,"116":1.9331133365631104,"117":1.6073952913284302,"118":1.2286314964294434,"119":1.5492748022079468,"120":-0.8006143569946289,"121":-0.46002545952796936,"122":0.03325162082910538,"123":-2.543314218521118,"124":-0.7256288528442383,"125":-0.5555793642997742,"126":0.9356491565704346,"127":-1.6792224645614624,"128":-1.55233895778656,"129":0.7417390942573547,"130":-1.0170680284500122,"131":-1.0039838552474976,"132":2.385162115097046,"133":-0.43060266971588135,"134":-0.06276852637529373,"135":1.7084648609161377,"136":-0.38755887746810913,"137":-2.050360918045044,"138":0.9017974138259888,"139":-1.106919765472412,"140":-0.6732536554336548,"141":-0.053405921906232834,"142":1.222995400428772,"143":0.984387993812561,"144":0.9657270908355713,"145":1.0385076999664307,"146":1.7448495626449585,"147":-1.474238634109497,"148":-2.2253684997558594,"149":-0.3926539123058319,"150":-3.696958065032959,"151":-1.9806926250457764,"152":1.707391381263733,"153":1.9443702697753906,"154":1.8506536483764648,"155":0.8450033068656921,"156":1.0483518838882446,"157":-0.13894681632518768,"158":1.6850939989089966,"159":0.2888147830963135,"160":-1.3301997184753418,"161":2.0194106101989746,"162":-1.539638638496399,"163":-0.5021042227745056,"164":-3.6741268634796143,"165":-1.9770252704620361,"166":-1.076340913772583,"167":2.648467779159546,"168":-1.8846499919891357,"169":-1.8242641687393188,"170":-2.7368366718292236,"171":-1.273870587348938,"172":1.3646233081817627,"173":-4.66340970993042,"174":-0.16856245696544647,"175":0.2664830982685089,"176":-0.3119596838951111,"177":2.0013952255249023,"178":-0.35324931144714355,"179":-1.7894625663757324,"180":0.6358484029769897,"181":-0.4876323938369751,"182":0.3270171880722046,"183":0.390593945980072,"184":0.6897825598716736,"185":0.4881155788898468,"186":-0.9555302262306213,"187":-0.003551497822627425,"188":0.2973702549934387,"189":0.002087670611217618,"190":-0.8627213835716248,"191":0.7488948106765747,"192":0.7397351861000061,"193":0.40486156940460205,"194":0.3494880199432373,"195":1.2506084442138672,"196":0.3121490478515625,"197":-1.3323493003845215,"198":-0.5822148323059082,"199":-0.949317991733551,"200":-0.859420120716095,"201":-0.672178328037262,"202":-0.8195774555206299,"203":-1.5919438600540161,"204":0.113399937748909,"205":-1.5297296047210693,"206":0.12453046441078186,"207":-1.7152966260910034,"208":-1.3753639459609985,"209":1.2259485721588135,"210":0.7330408692359924,"211":0.09425986558198929,"212":-0.28608396649360657,"213":0.036122627556324005,"214":-1.133378505706787,"215":-0.5476852059364319,"216":-0.5539860725402832,"217":1.134320616722107,"218":0.03678102046251297,"219":1.8128015995025635,"220":-0.5281971096992493,"221":0.25744959712028503,"222":-0.7937137484550476,"223":-0.8076778650283813,"224":0.2989344596862793,"225":2.1969990730285645,"226":0.4836887717247009,"227":-0.22574104368686676,"228":-0.887690544128418,"229":-0.47304531931877136,"230":-0.030172007158398628,"231":1.056543231010437,"232":-1.5126429796218872,"233":-0.4051281809806824,"234":0.28203511238098145,"235":0.6688617467880249,"236":-0.941742479801178,"237":-0.8573718667030334,"238":1.6650981903076172,"239":0.874908983707428,"240":1.850650429725647,"241":3.77750563621521,"242":-1.4758899211883545,"243":-2.576658010482788,"244":4.103435039520264,"245":4.231061935424805,"246":0.6080815196037292,"247":1.9604554176330566,"248":-0.7817672491073608,"249":-3.9054908752441406,"250":-1.3803385496139526,"251":1.3156806230545044,"252":-0.5697447061538696,"253":1.0070998668670654,"254":1.3453714847564697,"255":0.18634773790836334,"256":-2.81339955329895,"257":2.222506284713745,"258":-0.9174224138259888,"259":0.5505779385566711,"260":0.3136039972305298,"261":-0.5520632863044739,"262":1.2753597497940063,"263":1.749767541885376,"264":1.3482000827789307,"265":-1.2098405361175537,"266":-1.1165086030960083,"267":-0.49216851592063904,"268":-2.1051063537597656,"269":-0.053036801517009735,"270":3.2309229373931885,"271":-3.3322677612304688,"272":-0.9181341528892517,"273":3.19735050201416,"274":-0.8416125774383545,"275":-1.0734847784042358,"276":2.6093196868896484,"277":-3.145955801010132,"278":-1.2858561277389526,"279":0.586313009262085,"280":1.1346479654312134,"281":-0.6828247904777527,"282":-0.15956078469753265,"283":-0.6381517648696899,"284":-0.2006828784942627,"285":0.43402624130249023,"286":0.3970809578895569,"287":-1.3216828107833862,"288":-0.3498406708240509,"289":-0.7093807458877563,"290":-0.07645761966705322,"291":-0.2559807598590851,"292":2.2896323204040527,"293":-0.39168620109558105,"294":0.323997437953949,"295":1.051794171333313,"296":-0.7319741249084473,"297":-0.5863022804260254,"298":0.2927069664001465,"299":-1.140214443206787,"300":-1.7942081689834595,"301":2.968651056289673,"302":-2.2695353031158447,"303":-0.7445655465126038,"304":-0.8868654370307922,"305":0.6696498394012451,"306":-5.22833251953125,"307":-1.7098616361618042,"308":-0.554470419883728,"309":0.5741087794303894,"310":-0.544537365436554,"311":-2.8105709552764893,"312":2.785649061203003,"313":-0.07895970344543457,"314":0.048436034470796585,"315":-4.342873573303223,"316":2.1742630004882812,"317":-1.0458059310913086,"318":-0.6732338070869446,"319":-0.8695920705795288,"320":-0.2582795023918152,"321":-0.4207918643951416,"322":0.41880571842193604,"323":-0.9329881072044373,"324":-1.4897956848144531,"325":1.607164740562439,"326":-0.8093847632408142,"327":-0.3219904899597168,"328":-0.6884567737579346,"329":-1.7384188175201416,"330":0.7945355772972107,"331":0.8362907767295837,"332":1.2584034204483032,"333":1.7557613849639893,"334":0.6225760579109192,"335":0.4759019613265991,"336":0.6779794692993164,"337":-0.7975861430168152,"338":0.6072190403938293,"339":-0.5880142450332642,"340":-0.5089403986930847,"341":1.6261705160140991,"342":-0.5914143919944763,"343":-0.9350910782814026,"344":2.5694332122802734,"345":-0.2124466449022293,"346":1.0330909490585327,"347":1.696970820426941,"348":0.705372154712677,"349":-3.1700010299682617,"350":-0.26104363799095154,"351":0.22345785796642303,"352":0.6872406601905823,"353":-1.3656326532363892,"354":0.57776939868927,"355":1.8113486766815186,"356":-0.7683255076408386,"357":1.3802814483642578,"358":0.9148160219192505,"359":0.6997573375701904,"360":0.49736288189888,"361":-0.5963166952133179,"362":-0.8413912653923035,"363":1.3668842315673828,"364":0.12229509651660919,"365":-0.13462238013744354,"366":1.946557641029358,"367":2.071777820587158,"368":-0.7763001322746277,"369":-1.1729629039764404,"370":1.0589501857757568,"371":-0.33517053723335266,"372":0.14458277821540833,"373":-0.5588281750679016,"374":-2.5151827335357666,"375":1.9697483777999878,"376":2.521132230758667,"377":1.0288461446762085,"378":-2.4440340995788574,"379":2.3885951042175293,"380":0.012883520685136318,"381":0.37279918789863586,"382":0.30431947112083435,"383":1.9049981832504272,"384":0.6451760530471802,"385":-0.8924906849861145,"386":-0.3272050619125366,"387":0.551419198513031,"388":-0.33814695477485657,"389":-0.48860251903533936,"390":-0.10334460437297821,"391":-0.533063530921936,"392":0.8183948397636414,"393":-0.8249323964118958,"394":0.088631771504879,"395":1.5707975625991821,"396":2.0495643615722656,"397":0.10697533190250397,"398":1.5415672063827515,"399":1.0491063594818115}},"inputBias":{"rows":20,"columns":1,"weights":{"0":1.7349685430526733,"1":-1.0647248029708862,"2":-0.08013707399368286,"3":0.2512500286102295,"4":1.9607126712799072,"5":0.24455013871192932,"6":-0.3689018785953522,"7":-0.3482787311077118,"8":0.26311489939689636,"9":-0.24483637511730194,"10":0.00684643117710948,"11":-1.0666861534118652,"12":-1.05087149143219,"13":-0.2893100380897522,"14":0.33009129762649536,"15":0.3740949034690857,"16":-0.42504969239234924,"17":0.2915775775909424,"18":0.08528804033994675,"19":0.1383880078792572}},"forgetMatrix":{"rows":20,"columns":39,"weights":{"0":-0.09983363002538681,"1":0.3533061742782593,"2":0.6901706457138062,"3":0.6191520094871521,"4":-0.6082410216331482,"5":-0.9091868996620178,"6":2.4023091793060303,"7":-1.9260872602462769,"8":0.08970044553279877,"9":-1.5049890279769897,"10":-0.7629602551460266,"11":0.8226377964019775,"12":-1.3956403732299805,"13":-1.594133734703064,"14":0.46264660358428955,"15":-0.07957737147808075,"16":0.6379115581512451,"17":0.4400738477706909,"18":0.18499018251895905,"19":2.890497922897339,"20":-1.2309859991073608,"21":-2.277449369430542,"22":-1.6206995248794556,"23":0.41663965582847595,"24":1.31784987449646,"25":1.2186905145645142,"26":-0.2597058415412903,"27":0.9878178238868713,"28":0.7957531809806824,"29":-1.4699280261993408,"30":-0.025347379967570305,"31":0.16133366525173187,"32":-0.025204773992300034,"33":1.2402909994125366,"34":2.1969170570373535,"35":-1.6592835187911987,"36":2.6542868614196777,"37":0.5545890927314758,"38":2.040186882019043,"39":0.8817118406295776,"40":-0.1461039036512375,"41":0.5004859566688538,"42":-0.0398433580994606,"43":1.9764068126678467,"44":1.4022247791290283,"45":1.0181584358215332,"46":1.564037799835205,"47":-2.1738486289978027,"48":0.7421889901161194,"49":-1.2416033744812012,"50":0.9290016293525696,"51":-2.488858461380005,"52":0.46907761693000793,"53":-0.8376218676567078,"54":-0.036103591322898865,"55":-0.03812822699546814,"56":0.6916041374206543,"57":1.1303069591522217,"58":-0.5743064880371094,"59":-1.085322618484497,"60":-1.1961612701416016,"61":1.7069599628448486,"62":-0.6547494530677795,"63":0.1305454671382904,"64":-0.24618378281593323,"65":-2.253962278366089,"66":-1.6961066722869873,"67":0.7817505598068237,"68":1.2338331937789917,"69":-1.7161401510238647,"70":-0.33283835649490356,"71":0.21850237250328064,"72":0.7294298410415649,"73":0.022957818582654,"74":-0.7943933606147766,"75":-0.4815370738506317,"76":0.40899577736854553,"77":0.8275501728057861,"78":0.8866670727729797,"79":-0.14515157043933868,"80":-0.18024998903274536,"81":-1.40688157081604,"82":-0.6943746209144592,"83":0.36430683732032776,"84":-3.228904962539673,"85":-1.195556402206421,"86":0.36139461398124695,"87":0.008994518779218197,"88":-0.4416220486164093,"89":1.9583797454833984,"90":-0.2636108100414276,"91":-0.5664522647857666,"92":-0.19975940883159637,"93":2.4203290939331055,"94":-1.7526535987854004,"95":-1.1205729246139526,"96":-0.09585210680961609,"97":-2.995584011077881,"98":-0.1500713974237442,"99":0.41047409176826477,"100":-1.4290157556533813,"101":0.29244908690452576,"102":1.0984246730804443,"103":0.36763060092926025,"104":1.1888600587844849,"105":0.6642776131629944,"106":-0.04094928130507469,"107":-3.121946334838867,"108":0.38217392563819885,"109":2.1820805072784424,"110":0.44000715017318726,"111":1.8988069295883179,"112":0.40702205896377563,"113":-0.258139431476593,"114":-0.6214724779129028,"115":0.7336081862449646,"116":0.4354000389575958,"117":-0.6577576398849487,"118":-3.0794336795806885,"119":0.9074082374572754,"120":0.7894423604011536,"121":0.5431400537490845,"122":-0.46575993299484253,"123":0.11340723186731339,"124":-0.2966103255748749,"125":-2.2730722427368164,"126":1.2084922790527344,"127":-1.1875348091125488,"128":1.198922872543335,"129":-0.17646647989749908,"130":1.4257620573043823,"131":1.458379864692688,"132":0.652477502822876,"133":-0.5772798657417297,"134":-0.7661381363868713,"135":-1.0911023616790771,"136":1.537599802017212,"137":1.9018986225128174,"138":-1.2359087467193604,"139":2.9566431045532227,"140":1.6445378065109253,"141":1.059565544128418,"142":-1.0714043378829956,"143":2.840801239013672,"144":0.7881473302841187,"145":-1.5130491256713867,"146":-0.46533703804016113,"147":-1.145707130432129,"148":-0.7339255213737488,"149":1.2261046171188354,"150":0.834797203540802,"151":-0.846895158290863,"152":2.3041303157806396,"153":-1.0216083526611328,"154":-1.1747528314590454,"155":-2.559828758239746,"156":-0.8501579761505127,"157":-0.579076886177063,"158":1.3693891763687134,"159":0.06890058517456055,"160":2.720123767852783,"161":1.1012190580368042,"162":1.179579257965088,"163":-1.9330087900161743,"164":-0.8438109159469604,"165":1.6136993169784546,"166":0.5167930126190186,"167":0.24527712166309357,"168":-2.9165892601013184,"169":0.07501023262739182,"170":1.6920084953308105,"171":0.3093597888946533,"172":1.2605034112930298,"173":-1.895381212234497,"174":3.201113224029541,"175":-0.2910850942134857,"176":0.9085392355918884,"177":-0.841188907623291,"178":-0.05971609801054001,"179":-2.7556588649749756,"180":-1.241098403930664,"181":-0.4634227752685547,"182":0.03287912905216217,"183":-1.4625808000564575,"184":-1.7376434803009033,"185":0.9801297187805176,"186":-0.7791355848312378,"187":0.21368296444416046,"188":-0.6228556632995605,"189":2.906451463699341,"190":2.288581132888794,"191":-0.5102503895759583,"192":-0.35890549421310425,"193":-0.15655560791492462,"194":1.0019994974136353,"195":-0.5009713768959045,"196":-1.1102802753448486,"197":0.7868240475654602,"198":0.21820326149463654,"199":-1.2081851959228516,"200":-0.8770593404769897,"201":-1.4325660467147827,"202":0.02898181974887848,"203":1.1606131792068481,"204":0.7134280800819397,"205":-0.4220733642578125,"206":-1.108432412147522,"207":0.25224223732948303,"208":1.353678822517395,"209":0.18897952139377594,"210":2.5383975505828857,"211":-4.077908515930176,"212":-1.0957818031311035,"213":-1.3961405754089355,"214":1.2880337238311768,"215":1.6101635694503784,"216":-2.6228384971618652,"217":0.08364299684762955,"218":0.4118799865245819,"219":0.9414663314819336,"220":-1.4659041166305542,"221":1.244943380355835,"222":-0.10770519077777863,"223":0.9865010976791382,"224":0.21865245699882507,"225":0.3158324658870697,"226":0.674343466758728,"227":1.2912266254425049,"228":0.759583592414856,"229":2.125216007232666,"230":-0.9222135543823242,"231":-0.717606246471405,"232":0.5810269117355347,"233":2.7270548343658447,"234":-0.3582678735256195,"235":-2.399350166320801,"236":0.47601139545440674,"237":2.0443942546844482,"238":1.7823996543884277,"239":0.030882269144058228,"240":-0.8150201439857483,"241":0.8515877723693848,"242":-1.0649724006652832,"243":0.3843453824520111,"244":0.9556208848953247,"245":-1.0001276731491089,"246":3.0652639865875244,"247":0.559805154800415,"248":-1.052185297012329,"249":-0.5170461535453796,"250":0.368429958820343,"251":-1.443148136138916,"252":2.0381293296813965,"253":1.13844633102417,"254":-0.49176502227783203,"255":-1.0929187536239624,"256":-0.6022345423698425,"257":-1.1097859144210815,"258":0.0725637823343277,"259":0.746854841709137,"260":-0.6921374201774597,"261":0.2959233224391937,"262":0.13342414796352386,"263":2.463698387145996,"264":0.7830567955970764,"265":-0.9979554414749146,"266":-1.7525354623794556,"267":0.21155595779418945,"268":-0.23881979286670685,"269":-0.9965259432792664,"270":0.28576532006263733,"271":-1.4115699529647827,"272":-2.684133768081665,"273":3.3647372722625732,"274":0.8263081908226013,"275":-1.5571717023849487,"276":-2.351013660430908,"277":-0.864024817943573,"278":-0.5357910990715027,"279":-0.7159348130226135,"280":-0.9057772755622864,"281":1.3799008131027222,"282":-1.259135127067566,"283":-0.05656241253018379,"284":1.0092389583587646,"285":1.9176750183105469,"286":-0.39559805393218994,"287":-1.11162531375885,"288":0.2348724752664566,"289":1.039547324180603,"290":1.0432679653167725,"291":-0.8733077645301819,"292":-1.333613395690918,"293":-2.3275961875915527,"294":1.0436779260635376,"295":-1.359810709953308,"296":0.0849594995379448,"297":0.5800442099571228,"298":-0.09216084331274033,"299":-1.074533224105835,"300":0.6946201324462891,"301":1.9282214641571045,"302":-0.9578948020935059,"303":1.130486011505127,"304":1.9085179567337036,"305":-0.10261771082878113,"306":-0.9452584385871887,"307":0.543817937374115,"308":-0.028714904561638832,"309":0.38005632162094116,"310":0.18538585305213928,"311":1.9085109233856201,"312":1.9575772285461426,"313":1.82294499874115,"314":-1.9168728590011597,"315":-1.9145798683166504,"316":1.8423938751220703,"317":-0.37252554297447205,"318":-0.3379257321357727,"319":-0.008905881084501743,"320":0.5811589360237122,"321":-1.2242982387542725,"322":-1.5639889240264893,"323":1.7369451522827148,"324":-1.3253391981124878,"325":-2.289971113204956,"326":0.8940719962120056,"327":-0.9593055844306946,"328":0.18365663290023804,"329":3.074697971343994,"330":0.38266852498054504,"331":-1.2534992694854736,"332":-1.4451744556427002,"333":-0.7182615995407104,"334":-3.3046514987945557,"335":2.2899067401885986,"336":1.7466747760772705,"337":-2.246720790863037,"338":2.270426034927368,"339":-0.8126403093338013,"340":0.8339963555335999,"341":0.840040922164917,"342":-1.6295804977416992,"343":-0.4247554838657379,"344":1.443265676498413,"345":-2.6821858882904053,"346":0.20299507677555084,"347":2.4304468631744385,"348":0.7284837961196899,"349":0.2968745529651642,"350":1.6824194192886353,"351":1.2686772346496582,"352":-0.8106452822685242,"353":0.613926351070404,"354":0.2247859090566635,"355":-2.0686757564544678,"356":0.8170146942138672,"357":1.6870062351226807,"358":-0.2916778326034546,"359":0.12715695798397064,"360":-1.526016354560852,"361":-1.0682615041732788,"362":0.9202191829681396,"363":1.7370188236236572,"364":-0.327664852142334,"365":-2.059373140335083,"366":0.38196006417274475,"367":-1.5977543592453003,"368":-1.7870781421661377,"369":-0.8666666150093079,"370":-2.422450542449951,"371":-1.94452702999115,"372":1.5628502368927002,"373":-0.12781837582588196,"374":-0.24636389315128326,"375":1.5742084980010986,"376":1.5613698959350586,"377":-1.5850461721420288,"378":0.3537490665912628,"379":0.5002873539924622,"380":-2.3725452423095703,"381":0.39034584164619446,"382":0.11531338840723038,"383":-0.13974937796592712,"384":-0.28583118319511414,"385":-0.5419370532035828,"386":-0.8622220754623413,"387":3.3475942611694336,"388":0.7412246465682983,"389":-0.9314077496528625,"390":-0.6479517221450806,"391":0.9005917310714722,"392":0.22335819900035858,"393":-0.99186110496521,"394":-0.726471483707428,"395":-1.3080799579620361,"396":-1.799541711807251,"397":0.4244523048400879,"398":1.0947672128677368,"399":-0.840492308139801,"400":-0.42055296897888184,"401":-1.185226559638977,"402":4.042555332183838,"403":-0.3670969605445862,"404":0.43631574511528015,"405":-0.03075115755200386,"406":0.6905323266983032,"407":-0.13083241879940033,"408":-0.1565268337726593,"409":-0.5592004060745239,"410":-1.1920404434204102,"411":0.5017653703689575,"412":-1.235127568244934,"413":1.764886498451233,"414":1.5298124551773071,"415":0.08810751140117645,"416":1.6944706439971924,"417":3.476384401321411,"418":-0.02232884243130684,"419":-2.176403045654297,"420":1.282444715499878,"421":0.5607986450195312,"422":0.056297168135643005,"423":-0.7970954775810242,"424":1.0140334367752075,"425":0.8306763172149658,"426":1.001603126525879,"427":-0.4832729995250702,"428":-0.5145605802536011,"429":-0.8965972065925598,"430":0.17195969820022583,"431":0.48737865686416626,"432":0.05811040475964546,"433":-1.2770020961761475,"434":-1.4805999994277954,"435":-0.5700198411941528,"436":0.006808909121900797,"437":0.6740486025810242,"438":-0.11787544935941696,"439":1.6283245086669922,"440":-2.7913854122161865,"441":2.9562835693359375,"442":1.7407031059265137,"443":1.863877773284912,"444":-1.4308499097824097,"445":1.408149242401123,"446":-1.175119161605835,"447":-0.06917238980531693,"448":1.0446786880493164,"449":0.460252970457077,"450":-1.9180927276611328,"451":1.0157275199890137,"452":1.0975083112716675,"453":0.857119083404541,"454":0.12741413712501526,"455":-0.01690777949988842,"456":1.349450707435608,"457":-0.6489311456680298,"458":-0.14991238713264465,"459":1.4002209901809692,"460":0.15954101085662842,"461":-0.23009203374385834,"462":-1.4420242309570312,"463":-0.45191147923469543,"464":-0.1458275020122528,"465":1.7940806150436401,"466":0.49935904145240784,"467":-0.853932797908783,"468":-0.6980797648429871,"469":0.20223678648471832,"470":0.6849069595336914,"471":-2.047697067260742,"472":1.040562629699707,"473":-0.2868015468120575,"474":-0.08650815486907959,"475":2.8889527320861816,"476":1.0526834726333618,"477":-0.08102162182331085,"478":0.22356319427490234,"479":0.15577836334705353,"480":1.5488990545272827,"481":0.6471394896507263,"482":1.9688267707824707,"483":-2.98776912689209,"484":1.7760260105133057,"485":0.0023039442021399736,"486":-0.6392439603805542,"487":0.0018955926643684506,"488":-0.08142174035310745,"489":-0.33925214409828186,"490":-0.7634976506233215,"491":0.4446580410003662,"492":1.0525230169296265,"493":-0.70829838514328,"494":-0.7456527352333069,"495":-1.8185265064239502,"496":0.9452909231185913,"497":-1.218762755393982,"498":-1.130861759185791,"499":3.3576433658599854,"500":1.5967557430267334,"501":-1.9076507091522217,"502":0.2333952933549881,"503":0.6230884194374084,"504":-1.7973055839538574,"505":-1.4214766025543213,"506":0.0616491436958313,"507":-0.6280596852302551,"508":0.8398705720901489,"509":-3.1408281326293945,"510":0.7004348635673523,"511":-1.3735387325286865,"512":0.28180450201034546,"513":-0.6680566072463989,"514":1.6303893327713013,"515":1.0176758766174316,"516":0.8242003917694092,"517":2.006749391555786,"518":-0.5940848588943481,"519":0.4034412205219269,"520":-0.6439066529273987,"521":-0.23031851649284363,"522":-1.0022162199020386,"523":0.3714105188846588,"524":0.49445679783821106,"525":-1.7533756494522095,"526":0.4529191851615906,"527":-0.9738404750823975,"528":-0.9655429124832153,"529":-2.327155590057373,"530":1.4608607292175293,"531":1.5124800205230713,"532":0.8912868499755859,"533":2.980292320251465,"534":0.7170306444168091,"535":0.5006334781646729,"536":-1.4506996870040894,"537":2.060304880142212,"538":-0.8120603561401367,"539":0.8708919882774353,"540":0.2295820713043213,"541":2.6484920978546143,"542":0.35595008730888367,"543":1.6205048561096191,"544":3.7843449115753174,"545":0.05123468115925789,"546":0.16970208287239075,"547":3.065640926361084,"548":-0.7238959670066833,"549":-1.439624547958374,"550":0.5802534818649292,"551":-0.29801034927368164,"552":-0.9146731495857239,"553":0.7878833413124084,"554":0.9765488505363464,"555":-3.09690260887146,"556":0.10914306342601776,"557":-0.07932216674089432,"558":-0.520918607711792,"559":-2.3279201984405518,"560":1.8634551763534546,"561":0.07180219143629074,"562":-0.08431542664766312,"563":3.4005215167999268,"564":0.009234958328306675,"565":-0.82193523645401,"566":-0.7692142724990845,"567":-0.05450555309653282,"568":-0.6622774004936218,"569":-0.044748127460479736,"570":-0.04644272103905678,"571":-0.6385341286659241,"572":-3.0343575477600098,"573":1.2896637916564941,"574":0.3394439220428467,"575":-1.9051955938339233,"576":-0.8915924429893494,"577":0.036659207195043564,"578":-1.4288052320480347,"579":-3.5468242168426514,"580":-1.8135360479354858,"581":-0.335828959941864,"582":0.32347941398620605,"583":-0.20456251502037048,"584":-0.8277463316917419,"585":2.2330214977264404,"586":-2.41625714302063,"587":-0.3299972116947174,"588":1.3069145679473877,"589":-0.9818007946014404,"590":0.6294489502906799,"591":-0.8380810022354126,"592":-2.077089548110962,"593":0.24433769285678864,"594":-0.7663928866386414,"595":-0.8827031850814819,"596":-0.026001043617725372,"597":3.024024248123169,"598":-2.0631535053253174,"599":-2.4742343425750732,"600":-1.2351385354995728,"601":-0.19836290180683136,"602":0.32615602016448975,"603":-1.9274827241897583,"604":-1.6526368856430054,"605":-2.2694482803344727,"606":1.9489696025848389,"607":-0.7439404726028442,"608":1.4389033317565918,"609":-1.817096471786499,"610":-0.2512184679508209,"611":3.137843608856201,"612":0.7200270891189575,"613":-1.2549530267715454,"614":0.12255928665399551,"615":0.27177882194519043,"616":0.7795950770378113,"617":-1.1431728601455688,"618":0.5664771199226379,"619":2.188544511795044,"620":2.7051291465759277,"621":1.3871744871139526,"622":0.6770471930503845,"623":1.7310664653778076,"624":1.2068126201629639,"625":0.4500146508216858,"626":0.7728855609893799,"627":-0.667357325553894,"628":-1.377357840538025,"629":0.29070690274238586,"630":1.3842809200286865,"631":-0.1662752628326416,"632":2.547441005706787,"633":-0.6239895820617676,"634":-1.16972815990448,"635":-0.19382213056087494,"636":-0.37643691897392273,"637":-0.7570477724075317,"638":0.9867899417877197,"639":1.7693761587142944,"640":0.06158063933253288,"641":0.928120493888855,"642":0.1330002099275589,"643":0.4386475384235382,"644":-0.5305079221725464,"645":-2.7882487773895264,"646":-0.11247268319129944,"647":-1.4428999423980713,"648":1.5442897081375122,"649":-0.8508983850479126,"650":0.8576449155807495,"651":2.4316482543945312,"652":0.971991240978241,"653":-1.9822158813476562,"654":1.7396366596221924,"655":1.0024971961975098,"656":-1.0236231088638306,"657":0.01388607919216156,"658":-0.05032940208911896,"659":-0.2067124843597412,"660":3.5267815589904785,"661":0.20445023477077484,"662":0.4562247097492218,"663":-0.009736713953316212,"664":1.0586918592453003,"665":-1.4189690351486206,"666":-2.0273399353027344,"667":1.3084721565246582,"668":0.22130899131298065,"669":-1.6359080076217651,"670":1.2016675472259521,"671":-0.7597842216491699,"672":-0.39147713780403137,"673":-2.113349437713623,"674":-0.01360679604113102,"675":2.6030359268188477,"676":1.0917640924453735,"677":-2.065901041030884,"678":-0.40148475766181946,"679":3.2276744842529297,"680":-0.10414250940084457,"681":1.7427399158477783,"682":-0.8097834587097168,"683":-2.098731517791748,"684":2.34941029548645,"685":-0.5232829451560974,"686":1.7375298738479614,"687":-0.7549871206283569,"688":1.2741156816482544,"689":-1.7786946296691895,"690":-1.5730996131896973,"691":1.9188534021377563,"692":-0.8458353281021118,"693":-0.7252868413925171,"694":-0.1492067575454712,"695":5.500720500946045,"696":-1.0360703468322754,"697":-1.9220166206359863,"698":0.2793574035167694,"699":0.033578161150217056,"700":-1.6017707586288452,"701":-0.029114877805113792,"702":0.6272667646408081,"703":2.366760015487671,"704":0.7803193926811218,"705":0.9330908060073853,"706":-0.5406673550605774,"707":-1.0475850105285645,"708":0.7338711619377136,"709":-1.5028070211410522,"710":-0.45557817816734314,"711":-1.2236007452011108,"712":1.4167481660842896,"713":0.43405935168266296,"714":0.30261898040771484,"715":-0.1365712434053421,"716":1.2463127374649048,"717":-1.25515615940094,"718":-1.04672110080719,"719":4.032657146453857,"720":-1.0054917335510254,"721":0.3613969385623932,"722":0.04028717055916786,"723":1.4803186655044556,"724":0.14884167909622192,"725":1.7905333042144775,"726":2.552278757095337,"727":-2.4612550735473633,"728":-1.4168297052383423,"729":1.2491708993911743,"730":0.6411426067352295,"731":0.7724435925483704,"732":-0.31441423296928406,"733":1.0815045833587646,"734":-0.5096413493156433,"735":-2.626533031463623,"736":0.4869033992290497,"737":0.9364721775054932,"738":0.17625972628593445,"739":0.6451939940452576,"740":2.235275983810425,"741":-0.03525848686695099,"742":-0.19611360132694244,"743":0.09912777692079544,"744":-2.7148241996765137,"745":-0.39087599515914917,"746":-1.6940051317214966,"747":-1.947422742843628,"748":-1.5688456296920776,"749":-0.4383845627307892,"750":1.4925512075424194,"751":-0.7530301809310913,"752":-1.1233810186386108,"753":1.4635367393493652,"754":2.1417696475982666,"755":-2.844942808151245,"756":0.7802910208702087,"757":0.08018217235803604,"758":2.1824147701263428,"759":1.5678738355636597,"760":1.1053441762924194,"761":-0.9886179566383362,"762":1.2129324674606323,"763":-0.8845596313476562,"764":2.473008632659912,"765":0.49934902787208557,"766":1.9046331644058228,"767":0.032445553690195084,"768":-0.4273013174533844,"769":3.8419387340545654,"770":-1.0508661270141602,"771":-3.281292200088501,"772":0.04529201239347458,"773":3.643064260482788,"774":-0.3734821677207947,"775":0.7759758234024048,"776":0.23828306794166565,"777":-1.2924351692199707,"778":0.4299703538417816,"779":-0.30683836340904236}},"forgetHidden":{"rows":20,"columns":20,"weights":{"0":-2.1876330375671387,"1":-0.1858212798833847,"2":1.0452146530151367,"3":-0.32108640670776367,"4":-1.270327091217041,"5":-1.6755082607269287,"6":2.375716209411621,"7":0.7515978217124939,"8":-2.463932752609253,"9":-0.560548722743988,"10":0.9265826940536499,"11":1.2623757123947144,"12":1.258780837059021,"13":0.6332892179489136,"14":0.018407529219985008,"15":-1.3945634365081787,"16":1.2296847105026245,"17":0.7977837324142456,"18":-1.8744661808013916,"19":-1.7043579816818237,"20":-1.378119945526123,"21":0.9838912487030029,"22":0.9996099472045898,"23":0.5294439196586609,"24":-1.0711458921432495,"25":-1.590632677078247,"26":1.7792118787765503,"27":0.9176723957061768,"28":0.01280753593891859,"29":1.3024991750717163,"30":-1.9885430335998535,"31":2.20719313621521,"32":0.17787115275859833,"33":-3.9050686359405518,"34":0.013352072797715664,"35":-1.9554262161254883,"36":1.082390546798706,"37":0.047347187995910645,"38":0.6152536869049072,"39":0.20092934370040894,"40":-2.8007137775421143,"41":-2.5184173583984375,"42":-1.6015962362289429,"43":1.686868667602539,"44":0.06959360092878342,"45":-1.1667875051498413,"46":1.9056682586669922,"47":-1.7071917057037354,"48":-2.779533624649048,"49":-0.40458330512046814,"50":0.6372402906417847,"51":0.586513102054596,"52":1.0042098760604858,"53":-1.1358879804611206,"54":-0.44173097610473633,"55":0.40750041604042053,"56":1.8699365854263306,"57":-2.0623385906219482,"58":0.39863157272338867,"59":-1.3192442655563354,"60":-0.8707311153411865,"61":-1.253819465637207,"62":2.5789201259613037,"63":0.5398304462432861,"64":-1.163567304611206,"65":0.70005863904953,"66":0.6750097870826721,"67":-2.2723195552825928,"68":2.1286401748657227,"69":-2.859204053878784,"70":1.6148549318313599,"71":2.295424222946167,"72":-1.9863520860671997,"73":0.06255029886960983,"74":0.5415307283401489,"75":2.2097766399383545,"76":-1.1916594505310059,"77":-0.07164932042360306,"78":-1.9995746612548828,"79":-5.785398483276367,"80":1.2938312292099,"81":0.769954264163971,"82":-0.44096821546554565,"83":-1.0074853897094727,"84":1.2779085636138916,"85":0.8414335250854492,"86":-1.192809820175171,"87":1.4708181619644165,"88":-0.25273191928863525,"89":-2.9729902744293213,"90":0.04383612424135208,"91":0.601164698600769,"92":-1.0171726942062378,"93":-1.5609722137451172,"94":-0.8046742081642151,"95":0.362754762172699,"96":-0.43558573722839355,"97":2.7119336128234863,"98":-1.5024956464767456,"99":0.34212470054626465,"100":-0.0225385595113039,"101":0.02915124222636223,"102":0.40652161836624146,"103":-0.1890515834093094,"104":-2.034540891647339,"105":1.3854337930679321,"106":0.3620719611644745,"107":-0.0817873552441597,"108":-0.946440577507019,"109":-0.9428417682647705,"110":0.4470467269420624,"111":0.1962740421295166,"112":-0.60342937707901,"113":-0.5633073449134827,"114":0.40478408336639404,"115":-0.7455502152442932,"116":2.2750396728515625,"117":-0.3065633177757263,"118":1.243921160697937,"119":-0.4238540530204773,"120":-0.47502726316452026,"121":2.3202567100524902,"122":-1.978026032447815,"123":-1.137588620185852,"124":0.975830614566803,"125":1.5308209657669067,"126":-3.2002267837524414,"127":0.9726111888885498,"128":2.175638437271118,"129":0.3306956887245178,"130":-0.4815625250339508,"131":-0.6213151812553406,"132":-4.249512672424316,"133":0.2254806011915207,"134":-1.3788611888885498,"135":0.480491042137146,"136":-1.3201992511749268,"137":-0.7667179107666016,"138":0.6560492515563965,"139":1.3139660358428955,"140":-2.593172311782837,"141":-1.6237725019454956,"142":-2.2223854064941406,"143":-0.32562926411628723,"144":-2.333866596221924,"145":-2.510899782180786,"146":1.5531567335128784,"147":-1.169760823249817,"148":-1.1397374868392944,"149":2.287580728530884,"150":-0.9216393232345581,"151":0.7747629880905151,"152":-2.0379886627197266,"153":-2.2141149044036865,"154":-0.004283072426915169,"155":-0.7945055365562439,"156":-0.37677204608917236,"157":-2.8902041912078857,"158":2.2330033779144287,"159":-1.3299800157546997,"160":1.9035749435424805,"161":0.08219567686319351,"162":-0.11980853229761124,"163":0.21184192597866058,"164":-0.28280553221702576,"165":1.3561277389526367,"166":1.4740408658981323,"167":2.548875570297241,"168":2.0385608673095703,"169":2.099423885345459,"170":-1.7396044731140137,"171":1.1338317394256592,"172":-0.7325016856193542,"173":-0.6079058647155762,"174":0.3239894509315491,"175":-1.1113368272781372,"176":0.08415596187114716,"177":0.12161557376384735,"178":0.374865859746933,"179":0.4516852796077728,"180":-1.5234466791152954,"181":0.8155084252357483,"182":-1.4925118684768677,"183":-1.436530590057373,"184":2.1786763668060303,"185":-0.051894091069698334,"186":0.2700546085834503,"187":1.3657193183898926,"188":0.7042084336280823,"189":-2.34468412399292,"190":-0.4812193810939789,"191":1.6611926555633545,"192":1.5106230974197388,"193":-2.427631378173828,"194":-1.2006722688674927,"195":0.358933687210083,"196":-4.116758346557617,"197":0.8466188311576843,"198":0.2970859706401825,"199":1.1482220888137817,"200":-0.8147967457771301,"201":-0.47800642251968384,"202":-1.9436492919921875,"203":0.3573438227176666,"204":-2.5084917545318604,"205":1.4051264524459839,"206":-2.061396598815918,"207":-0.0061469972133636475,"208":-0.3078271746635437,"209":0.8238160610198975,"210":-0.7750059962272644,"211":-2.465573310852051,"212":0.2645079493522644,"213":0.682682454586029,"214":0.4633316695690155,"215":-0.6630640029907227,"216":0.570380687713623,"217":-0.03263632953166962,"218":-0.4928773045539856,"219":-1.6732428073883057,"220":-3.1502885818481445,"221":-1.282477617263794,"222":-0.29987451434135437,"223":-1.634544849395752,"224":0.4547589123249054,"225":-0.9893514513969421,"226":-0.48211678862571716,"227":-2.0261261463165283,"228":-2.9332797527313232,"229":-0.4542138874530792,"230":-1.6047885417938232,"231":0.9363772869110107,"232":-1.080550193786621,"233":-1.7243598699569702,"234":-0.8036770820617676,"235":0.6632322669029236,"236":2.748039722442627,"237":-1.8468431234359741,"238":0.48644140362739563,"239":-2.0235559940338135,"240":-0.5312684774398804,"241":-1.72812020778656,"242":-1.788976788520813,"243":0.9492742419242859,"244":-1.0203869342803955,"245":-1.6287758350372314,"246":0.07482206076383591,"247":1.3725944757461548,"248":-0.6714503765106201,"249":1.3709461688995361,"250":-1.138392448425293,"251":2.8441660404205322,"252":-3.132761001586914,"253":-0.8741886615753174,"254":1.4761942625045776,"255":0.9919653534889221,"256":0.9609518647193909,"257":0.6118605732917786,"258":1.0821516513824463,"259":0.47850263118743896,"260":-0.6108771562576294,"261":-1.0093214511871338,"262":-1.7446093559265137,"263":-0.5146735906600952,"264":1.4681589603424072,"265":1.0301793813705444,"266":0.0619329996407032,"267":0.04945090413093567,"268":-2.086533308029175,"269":-0.850905179977417,"270":-0.5957834720611572,"271":-0.5166416168212891,"272":-1.0373878479003906,"273":-0.3627690374851227,"274":0.7866989970207214,"275":1.422545313835144,"276":-0.3160254657268524,"277":0.9657431840896606,"278":0.21676792204380035,"279":1.175241231918335,"280":-2.503702402114868,"281":1.5702605247497559,"282":1.223462700843811,"283":-0.5332036018371582,"284":-3.2871148586273193,"285":0.9979819655418396,"286":-1.321088194847107,"287":0.14918529987335205,"288":-0.33417269587516785,"289":0.6086276769638062,"290":0.7758780121803284,"291":-0.2820284962654114,"292":0.8983945250511169,"293":-0.7619107961654663,"294":-1.3451359272003174,"295":0.8391903042793274,"296":3.2778780460357666,"297":0.04988573119044304,"298":-1.2274448871612549,"299":-1.258597493171692,"300":0.9957684278488159,"301":2.0602030754089355,"302":2.2515900135040283,"303":2.630256414413452,"304":-0.03835619240999222,"305":2.507768392562866,"306":-1.9786587953567505,"307":0.9252368211746216,"308":0.8581364750862122,"309":1.0051124095916748,"310":1.023400068283081,"311":-0.7184260487556458,"312":-0.6034408807754517,"313":-1.5227551460266113,"314":-0.33846837282180786,"315":-3.575457811355591,"316":2.402289390563965,"317":-0.6800034642219543,"318":0.2685515582561493,"319":2.037818670272827,"320":-2.2890021800994873,"321":1.9731969833374023,"322":-1.1660939455032349,"323":1.145004391670227,"324":-1.0122275352478027,"325":-0.906514048576355,"326":0.3993210792541504,"327":-0.8116816282272339,"328":-2.949721097946167,