{"type":"LSTM","options":{"inputSize":30,"inputRange":30,"hiddenLayers":[20,20],"outputSize":30,"decayRate":0.999,"smoothEps":1e-8,"regc":0.000001,"clipval":5,"maxPredictionLength":100,"dataFormatter":{"values":["Dinner in pizza hut","Dinning Out","Supermarket shopping","Groceries","today 4","today 3","yesterday too","today 2","today lunch"],"indexTable":{"2":25,"3":24,"4":23,"D":0,"i":1,"n":2,"e":3,"r":4," ":5,"p":6,"z":7,"a":8,"h":9,"u":10,"t":11,"g":12,"O":13,"S":14,"m":15,"k":16,"s":17,"o":18,"G":19,"c":20,"d":21,"y":22,"l":26,"stop-input":27,"start-output":28,"unrecognized":29},"characterTable":{"0":"D","1":"i","2":"n","3":"e","4":"r","5":" ","6":"p","7":"z","8":"a","9":"h","10":"u","11":"t","12":"g","13":"O","14":"S","15":"m","16":"k","17":"s","18":"o","19":"G","20":"c","21":"d","22":"y","23":"4","24":"3","25":"2","26":"l","27":null,"28":null,"29":null},"characters":["D","i","n","e","r"," ","p","z","a","h","u","t","g","O","S","m","k","s","o","G","c","d","y","4","3","2","l","stop-input","start-output","unrecognized"],"specialIndexes":[27,28,29]}},"input":{"rows":31,"columns":30,"weights":{"0":-0.38331177830696106,"1":0.5917320847511292,"2":-0.24826182425022125,"3":0.6951183676719666,"4":0.9636066555976868,"5":-0.42867234349250793,"6":0.4208306670188904,"7":-1.5456445217132568,"8":0.46601375937461853,"9":0.7324736714363098,"10":0.5301864147186279,"11":-0.8848960995674133,"12":0.5343039631843567,"13":-0.4965539872646332,"14":0.4841341972351074,"15":-0.25286802649497986,"16":-0.4300265908241272,"17":0.5370813012123108,"18":-0.4800563156604767,"19":-0.6975628137588501,"20":-0.6966248750686646,"21":0.14370417594909668,"22":-0.1036667600274086,"23":-0.3872326910495758,"24":-0.7529395222663879,"25":1.1839547157287598,"26":1.6095294952392578,"27":-0.597457766532898,"28":0.4332698881626129,"29":0.8838290572166443,"30":1.2209101915359497,"31":0.6050465703010559,"32":-0.5121564865112305,"33":-1.5118576288223267,"34":0.41657888889312744,"35":1.28498113155365,"36":-1.4275692701339722,"37":-0.45050495862960815,"38":0.3349660038948059,"39":-2.1633856296539307,"40":0.21673353016376495,"41":-0.605134904384613,"42":-1.1317273378372192,"43":-0.9519265294075012,"44":-1.6220223903656006,"45":0.6922284960746765,"46":-0.4307551681995392,"47":-1.8809821605682373,"48":1.0325157642364502,"49":1.6582725048065186,"50":1.9348646402359009,"51":0.5112046599388123,"52":-1.7481567859649658,"53":1.2726870775222778,"54":1.1365234851837158,"55":-1.625270128250122,"56":0.554092526435852,"57":1.3434195518493652,"58":0.5867026448249817,"59":0.665921688079834,"60":0.8504674434661865,"61":-0.7441648840904236,"62":0.7987495064735413,"63":0.7127678394317627,"64":-0.2331678569316864,"65":1.5461442470550537,"66":-1.5498368740081787,"67":0.22014090418815613,"68":-0.6952127814292908,"69":-0.12230423837900162,"70":-0.5210015773773193,"71":-0.08385857194662094,"72":0.5050243139266968,"73":0.14707957208156586,"74":-1.0415818691253662,"75":0.3433302938938141,"76":0.6512048244476318,"77":-1.3456830978393555,"78":1.2370026111602783,"79":2.2113115787506104,"80":0.3527746796607971,"81":-0.6042845249176025,"82":-0.4751903712749481,"83":0.8849388360977173,"84":-0.2853426933288574,"85":-1.4984625577926636,"86":-0.578772783279419,"87":0.28304553031921387,"88":0.496131956577301,"89":-0.5295878648757935,"90":0.8509508371353149,"91":0.4154933989048004,"92":0.23211884498596191,"93":0.022347286343574524,"94":-0.5988610982894897,"95":0.9930622577667236,"96":-0.7024422287940979,"97":0.3125811815261841,"98":0.5179595351219177,"99":-0.19858422875404358,"100":0.36046159267425537,"101":-0.8096627593040466,"102":-1.611791729927063,"103":-0.498884916305542,"104":-0.8579860329627991,"105":0.758211076259613,"106":-0.3367179334163666,"107":-0.3072333335876465,"108":0.61934494972229,"109":0.2702167332172394,"110":0.5365686416625977,"111":0.9301437139511108,"112":-0.3829319179058075,"113":0.4648517370223999,"114":1.7253494262695312,"115":-0.5054991245269775,"116":-0.3569546639919281,"117":1.2332007884979248,"118":-0.7422311902046204,"119":0.12625707685947418,"120":1.0886961221694946,"121":-0.7545744776725769,"122":0.473775178194046,"123":0.07371551543474197,"124":0.019232068210840225,"125":1.2103191614151,"126":-1.31779944896698,"127":1.0616720914840698,"128":-0.6781707406044006,"129":-1.0617173910140991,"130":-0.5151136517524719,"131":-0.5695645213127136,"132":-1.758582353591919,"133":0.8226889371871948,"134":-0.8755434155464172,"135":0.1826373189687729,"136":0.5673871636390686,"137":-1.0911833047866821,"138":1.5613622665405273,"139":1.1359875202178955,"140":1.0698165893554688,"141":-0.808862566947937,"142":-1.4848212003707886,"143":1.0399423837661743,"144":-1.2467851638793945,"145":-1.6486011743545532,"146":-0.12212079763412476,"147":1.397262454032898,"148":0.9918699860572815,"149":-0.3268257975578308,"150":0.6167150735855103,"151":1.9052029848098755,"152":-2.597943067550659,"153":0.3376814126968384,"154":1.2699947357177734,"155":-0.47059497237205505,"156":0.12019331753253937,"157":-1.342026710510254,"158":2.512105703353882,"159":-0.8186942338943481,"160":1.9329941272735596,"161":0.03401901200413704,"162":0.8445654511451721,"163":0.04855889827013016,"164":-0.5077009201049805,"165":-0.9607229828834534,"166":-2.0542116165161133,"167":0.2270611673593521,"168":-0.1362781673669815,"169":-0.7086383700370789,"170":-0.08365944027900696,"171":1.6597555875778198,"172":-1.3231128454208374,"173":0.7299354076385498,"174":-0.429903507232666,"175":1.2282655239105225,"176":3.310368061065674,"177":0.663246750831604,"178":1.6303859949111938,"179":0.4088916778564453,"180":0.1326533406972885,"181":1.3124526739120483,"182":-1.583146572113037,"183":0.22917431592941284,"184":0.3331824541091919,"185":-0.32440292835235596,"186":0.06708168238401413,"187":-0.7918768525123596,"188":1.6915680170059204,"189":0.8369739055633545,"190":1.5139877796173096,"191":-0.6969736218452454,"192":-0.7906517386436462,"193":-0.8010711073875427,"194":-0.003231986425817013,"195":1.4627718925476074,"196":-1.3823251724243164,"197":-0.6021888852119446,"198":0.13911746442317963,"199":0.48048803210258484,"200":0.5904497504234314,"201":1.5149250030517578,"202":-0.031046947464346886,"203":0.1765120029449463,"204":1.1188699007034302,"205":0.8378801941871643,"206":1.1343493461608887,"207":0.2960152328014374,"208":0.6926667094230652,"209":1.0400978326797485,"210":0.10552210360765457,"211":-1.1205577850341797,"212":1.6045602560043335,"213":-3.034993886947632,"214":-1.9459284543991089,"215":-0.3049106299877167,"216":0.11165503412485123,"217":2.0515615940093994,"218":-1.1933038234710693,"219":-0.7571326494216919,"220":-1.8531299829483032,"221":1.5473090410232544,"222":0.9135793447494507,"223":1.3056803941726685,"224":0.4067268669605255,"225":-1.5622289180755615,"226":1.4973151683807373,"227":-0.35157084465026855,"228":-0.3145030736923218,"229":0.9243248105049133,"230":0.617093563079834,"231":-1.5032402276992798,"232":0.9862575531005859,"233":-0.8021040558815002,"234":0.24625012278556824,"235":0.5684658288955688,"236":-1.3008679151535034,"237":-0.41984498500823975,"238":-2.724609136581421,"239":-1.805591106414795,"240":-1.7191659212112427,"241":1.6641031503677368,"242":-0.48159652948379517,"243":-0.6333072185516357,"244":0.8627552390098572,"245":-1.2771352529525757,"246":1.406798243522644,"247":-1.0175693035125732,"248":0.8734377026557922,"249":2.8759591579437256,"250":0.76343834400177,"251":0.5678898692131042,"252":-2.4787652492523193,"253":-2.7181968688964844,"254":1.8007707595825195,"255":1.4727402925491333,"256":-1.4101841449737549,"257":-0.5245212912559509,"258":-0.5740739703178406,"259":0.70073002576828,"260":0.9871221780776978,"261":1.7456783056259155,"262":1.70881187915802,"263":-2.527015209197998,"264":4.132215976715088,"265":1.2852139472961426,"266":-0.6173201203346252,"267":-1.7220226526260376,"268":-3.1903610229492188,"269":2.5575783252716064,"270":0.2716884911060333,"271":0.022588279098272324,"272":0.7477404475212097,"273":-1.249457597732544,"274":-0.865630030632019,"275":0.15322691202163696,"276":-0.013680142350494862,"277":1.0884321928024292,"278":-0.41867420077323914,"279":-0.7624058127403259,"280":-0.8302580714225769,"281":0.17499198019504547,"282":-0.2824234664440155,"283":0.330872118473053,"284":-0.1988758146762848,"285":-0.43274012207984924,"286":0.37345632910728455,"287":-0.2977226972579956,"288":0.15460142493247986,"289":0.4331308603286743,"290":0.37747326493263245,"291":-0.07302945107221603,"292":-0.2873065769672394,"293":-0.09658531844615936,"294":0.6012097001075745,"295":-0.5054279565811157,"296":-0.7577530145645142,"297":0.34808027744293213,"298":-0.8370150923728943,"299":-0.7162647247314453,"300":1.5661354064941406,"301":-1.7813076972961426,"302":1.4511798620224,"303":0.6509961485862732,"304":-0.09861905127763748,"305":1.3937863111495972,"306":-1.3515568971633911,"307":1.276786208152771,"308":-1.114189863204956,"309":-0.34867021441459656,"310":-0.9454602003097534,"311":-0.21903951466083527,"312":-0.27099841833114624,"313":-0.2074257731437683,"314":-1.1852198839187622,"315":-0.6625570058822632,"316":0.764411211013794,"317":-0.8017241358757019,"318":0.9268138408660889,"319":0.8433201313018799,"320":0.6101800203323364,"321":-0.37352901697158813,"322":-0.9285233616828918,"323":1.4530856609344482,"324":1.8342156410217285,"325":-1.0832462310791016,"326":-0.6566228866577148,"327":0.8351927995681763,"328":-0.7758357524871826,"329":-0.7171294093132019,"330":-0.37786054611206055,"331":0.7320128083229065,"332":-0.5806324481964111,"333":-0.442366361618042,"334":0.22556814551353455,"335":-1.2552649974822998,"336":0.9745675325393677,"337":-0.6858624219894409,"338":0.7346642017364502,"339":1.220186471939087,"340":0.49012380838394165,"341":0.5947908163070679,"342":0.9421205520629883,"343":-0.10190794616937637,"344":1.0089209079742432,"345":-0.26875826716423035,"346":-0.5649601221084595,"347":0.6848587989807129,"348":-0.46208786964416504,"349":-0.7895613312721252,"350":-0.529924750328064,"351":0.4110147953033447,"352":0.7969072461128235,"353":-0.5775703191757202,"354":-0.04722502455115318,"355":1.654052972793579,"356":0.691204845905304,"357":-0.5107269287109375,"358":-0.19164951145648956,"359":0.1499071568250656,"360":-0.5187256336212158,"361":0.3043495714664459,"362":-0.23696815967559814,"363":-0.4445253908634186,"364":0.7139773964881897,"365":0.053738269954919815,"366":-0.2653675079345703,"367":-0.5145319104194641,"368":-0.04976046457886696,"369":0.7660551071166992,"370":0.16644889116287231,"371":-0.03298436105251312,"372":-0.5380180478096008,"373":-0.8798491358757019,"374":0.01894953101873398,"375":0.8087655305862427,"376":-0.43929368257522583,"377":-0.37908363342285156,"378":0.25183457136154175,"379":0.4201650321483612,"380":0.47012859582901,"381":0.3501743972301483,"382":0.3482884168624878,"383":-0.06017378717660904,"384":0.9076656103134155,"385":-0.14300046861171722,"386":-0.3056248128414154,"387":-0.3753456771373749,"388":-0.8594653010368347,"389":0.7278726100921631,"390":-0.5359445214271545,"391":0.4808456003665924,"392":0.06997595727443695,"393":0.41826969385147095,"394":-0.3871458172798157,"395":-0.8128716945648193,"396":1.230294942855835,"397":0.1359611451625824,"398":0.9076288342475891,"399":0.5590046048164368,"400":0.030781637877225876,"401":1.3383095264434814,"402":0.7203232645988464,"403":-0.23931357264518738,"404":1.6951462030410767,"405":0.3109632134437561,"406":-0.1919175535440445,"407":1.223073959350586,"408":-0.6393890380859375,"409":-0.774298906326294,"410":-1.2675366401672363,"411":0.4354119896888733,"412":1.352006435394287,"413":-1.1757088899612427,"414":-0.06263882666826248,"415":0.774972677230835,"416":0.0715535432100296,"417":-0.9692204594612122,"418":-0.036875903606414795,"419":0.006213896907866001,"420":0.27722272276878357,"421":-0.09081859141588211,"422":-0.048157863318920135,"423":0.22696475684642792,"424":-0.5893375277519226,"425":0.22913716733455658,"426":-0.5189908146858215,"427":0.3583155572414398,"428":0.0897003710269928,"429":-0.2244202047586441,"430":0.2301805466413498,"431":-0.8527318239212036,"432":-2.2862117290496826,"433":0.39167359471321106,"434":0.048433613032102585,"435":0.9001795649528503,"436":0.22375981509685516,"437":-0.7709714770317078,"438":0.6744735240936279,"439":0.5796733498573303,"440":0.4942377805709839,"441":-0.1666804403066635,"442":0.2563645541667938,"443":0.6169923543930054,"444":0.2323954999446869,"445":0.3167228102684021,"446":0.145109623670578,"447":0.8418704867362976,"448":0.32945212721824646,"449":-0.38538819551467896,"450":0.591440737247467,"451":-1.6941895484924316,"452":1.6988511085510254,"453":1.6779309511184692,"454":1.0171056985855103,"455":0.5294069647789001,"456":-0.8553294539451599,"457":0.866090714931488,"458":-2.2535219192504883,"459":0.6368076801300049,"460":-1.3844135999679565,"461":-1.3177932500839233,"462":-0.4028753340244293,"463":1.7156883478164673,"464":-0.3776404857635498,"465":-2.765287160873413,"466":1.5767899751663208,"467":-0.42120715975761414,"468":0.7922351360321045,"469":0.35287246108055115,"470":-1.941820502281189,"471":-2.147097587585449,"472":0.058415498584508896,"473":1.0090030431747437,"474":-1.9867111444473267,"475":-0.546760618686676,"476":0.8465994000434875,"477":0.5082635283470154,"478":0.8109028339385986,"479":-1.1359795331954956,"480":2.354059934616089,"481":-0.7290143966674805,"482":1.0095187425613403,"483":-0.5600998997688293,"484":0.18668235838413239,"485":2.5751068592071533,"486":-2.6998724937438965,"487":0.46201327443122864,"488":-0.4756116271018982,"489":2.753448009490967,"490":-0.42068836092948914,"491":-2.637270927429199,"492":-1.4418889284133911,"493":0.4566669166088104,"494":-2.8170106410980225,"495":0.6539233326911926,"496":0.09369257092475891,"497":-2.302069664001465,"498":2.8334336280822754,"499":2.0379011631011963,"500":-0.5201805830001831,"501":-0.23661822080612183,"502":-3.017012357711792,"503":2.103792428970337,"504":0.4300873279571533,"505":-2.848283290863037,"506":-0.23682138323783875,"507":2.420177459716797,"508":1.8930531740188599,"509":0.40345779061317444,"510":-1.6046792268753052,"511":-0.1529739648103714,"512":-1.3791996240615845,"513":3.8233160972595215,"514":1.2251160144805908,"515":-1.481174111366272,"516":1.2290709018707275,"517":-1.272206425666809,"518":0.8523828983306885,"519":0.8569902777671814,"520":1.0114904642105103,"521":1.963928461074829,"522":-0.8152421712875366,"523":-0.5139926671981812,"524":1.6759103536605835,"525":0.9789859652519226,"526":-0.23507705330848694,"527":2.8964648246765137,"528":-2.3081579208374023,"529":-3.062110424041748,"530":-0.4264744818210602,"531":0.1974562406539917,"532":3.226304054260254,"533":-1.466965675354004,"534":-1.9814109802246094,"535":0.9098922610282898,"536":2.006924867630005,"537":-1.4801875352859497,"538":0.7176326513290405,"539":0.39207401871681213,"540":0.6993573904037476,"541":-1.7793158292770386,"542":1.276708960533142,"543":-2.510754346847534,"544":-2.0797009468078613,"545":1.3048028945922852,"546":-1.3305939435958862,"547":1.064661979675293,"548":-1.3598768711090088,"549":-1.3491342067718506,"550":-1.8969568014144897,"551":0.1564251184463501,"552":2.6338555812835693,"553":1.0644508600234985,"554":-1.220245599746704,"555":-0.5812363028526306,"556":1.7366938591003418,"557":-1.1783745288848877,"558":1.0804190635681152,"559":1.5695604085922241,"560":1.3867241144180298,"561":-1.1302258968353271,"562":-0.5175740718841553,"563":0.6604025363922119,"564":1.2009402513504028,"565":-1.5487138032913208,"566":-1.5909013748168945,"567":0.12239690870046616,"568":-1.7344616651535034,"569":-1.7420300245285034,"570":0.40327969193458557,"571":1.050674557685852,"572":-1.0029176473617554,"573":0.37482672929763794,"574":0.770799458026886,"575":0.18805164098739624,"576":-0.11964505910873413,"577":-0.6286237239837646,"578":0.9681472778320312,"579":0.030047910287976265,"580":0.8393728733062744,"581":-0.8410734534263611,"582":-0.6082786321640015,"583":-0.5693825483322144,"584":-0.3666481077671051,"585":0.6761234402656555,"586":-1.0338084697723389,"587":-0.2559562921524048,"588":0.3307533860206604,"589":0.124891497194767,"590":0.3056488335132599,"591":1.183412790298462,"592":-0.9206172823905945,"593":0.27754610776901245,"594":0.7539347410202026,"595":0.25505146384239197,"596":0.7435206770896912,"597":0.5862716436386108,"598":0.42421069741249084,"599":0.9184282422065735,"600":-0.5258257985115051,"601":0.4808460772037506,"602":-1.022115707397461,"603":2.9606058597564697,"604":0.7127946615219116,"605":0.07744976878166199,"606":1.0402177572250366,"607":-0.33478906750679016,"608":1.1437671184539795,"609":-2.330781936645508,"610":1.3024637699127197,"611":1.9743977785110474,"612":-2.345203161239624,"613":-0.42817172408103943,"614":1.3961445093154907,"615":2.9414427280426025,"616":-0.5833538770675659,"617":3.311642646789551,"618":-0.5181540846824646,"619":-4.652554035186768,"620":-3.745293378829956,"621":0.8032744526863098,"622":2.2096800804138184,"623":-0.05820716544985771,"624":-1.655080795288086,"625":-2.1090598106384277,"626":1.2528510093688965,"627":1.968582272529602,"628":4.3704962730407715,"629":0.6835271716117859,"630":0.6625527143478394,"631":-0.6486467719078064,"632":-0.7007133960723877,"633":1.2558250427246094,"634":0.3685944676399231,"635":-0.8037945628166199,"636":0.9503079652786255,"637":0.22777564823627472,"638":0.6459780931472778,"639":1.1602232456207275,"640":0.3355437219142914,"641":0.30994412302970886,"642":0.2386568784713745,"643":1.3295704126358032,"644":0.337685763835907,"645":-0.33320122957229614,"646":-0.2782813608646393,"647":1.2978739738464355,"648":-1.2914605140686035,"649":-1.6288739442825317,"650":-0.9543784856796265,"651":-0.07276906818151474,"652":0.6349605917930603,"653":1.0519484281539917,"654":-0.8608732223510742,"655":0.7496582865715027,"656":0.6486383676528931,"657":0.5330090522766113,"658":1.1747053861618042,"659":-0.6982271075248718,"660":1.7360055446624756,"661":-0.021484799683094025,"662":0.27248984575271606,"663":0.6368187069892883,"664":0.04334475100040436,"665":1.786734938621521,"666":-1.7516567707061768,"667":0.5790172219276428,"668":-0.2440059781074524,"669":-1.2129802703857422,"670":-0.404873788356781,"671":-0.09685418009757996,"672":-0.29207026958465576,"673":-0.03652186319231987,"674":-1.8821743726730347,"675":-0.30313053727149963,"676":0.03852894902229309,"677":-1.5502276420593262,"678":1.3906644582748413,"679":1.5830190181732178,"680":1.0971139669418335,"681":-0.2064884454011917,"682":-2.128734588623047,"683":1.1166656017303467,"684":0.154173344373703,"685":-2.15303111076355,"686":-0.29207316040992737,"687":0.8590588569641113,"688":0.5789010524749756,"689":-0.03469076752662659,"690":-0.28529277443885803,"691":-0.49741262197494507,"692":-0.3671344220638275,"693":1.9847559928894043,"694":-0.37647438049316406,"695":0.154754638671875,"696":0.34849923849105835,"697":0.6333099603652954,"698":0.15085525810718536,"699":-0.06633023917675018,"700":0.1117626503109932,"701":3.471271276473999,"702":2.8349509239196777,"703":-0.4263439178466797,"704":-0.1135382205247879,"705":1.1518572568893433,"706":0.28548166155815125,"707":2.0218703746795654,"708":-0.4710564911365509,"709":-0.7976862192153931,"710":-1.5617748498916626,"711":0.534037709236145,"712":0.408626526594162,"713":-0.7939359545707703,"714":-0.6232377290725708,"715":-0.7912870645523071,"716":-0.8365480303764343,"717":-0.8473135232925415,"718":-0.09783662110567093,"719":-0.19426321983337402,"720":1.3893040418624878,"721":-1.1220386028289795,"722":0.3435027599334717,"723":-0.7120762467384338,"724":-0.3224024772644043,"725":1.961556077003479,"726":-1.8108623027801514,"727":-0.25250244140625,"728":-0.8940061926841736,"729":-1.7798810005187988,"730":-1.2578636407852173,"731":0.9810237884521484,"732":2.0543103218078613,"733":-0.41437816619873047,"734":-2.539821147918701,"735":-1.7095704078674316,"736":0.7686609029769897,"737":-2.3995206356048584,"738":1.3885401487350464,"739":1.2894378900527954,"740":0.7882286906242371,"741":-1.2937450408935547,"742":-2.9726791381835938,"743":1.5872966051101685,"744":-1.30960214138031,"745":-2.4959261417388916,"746":-0.3629153072834015,"747":1.3348499536514282,"748":-1.0712445974349976,"749":0.13660264015197754,"750":1.5269460678100586,"751":0.35723787546157837,"752":2.3890812397003174,"753":0.6482328772544861,"754":-0.09017030149698257,"755":2.5545101165771484,"756":-2.2202093601226807,"757":-0.4263133704662323,"758":-0.3063843548297882,"759":-3.2565042972564697,"760":-1.4991005659103394,"761":1.4200612306594849,"762":3.3478033542633057,"763":-0.5459406971931458,"764":-2.146406412124634,"765":-3.0263540744781494,"766":-0.1998395323753357,"767":-2.5660758018493652,"768":2.250574827194214,"769":2.404482841491699,"770":1.1735193729400635,"771":0.26238566637039185,"772":-2.244109869003296,"773":1.1434228420257568,"774":0.45313775539398193,"775":-2.758100986480713,"776":-0.4197330176830292,"777":-1.169180989265442,"778":0.5743071436882019,"779":0.3042215406894684,"780":1.5106778144836426,"781":-1.2719824314117432,"782":1.3464148044586182,"783":-0.1547211855649948,"784":-1.2299436330795288,"785":1.919315218925476,"786":-1.8397643566131592,"787":0.7636662721633911,"788":-1.2669150829315186,"789":-2.744755744934082,"790":-1.4664844274520874,"791":-1.1333880424499512,"792":1.6148391962051392,"793":0.6291168928146362,"794":-2.021209478378296,"795":2.097038507461548,"796":1.4223442077636719,"797":-2.0388453006744385,"798":1.8501896858215332,"799":1.7843351364135742,"800":2.1319074630737305,"801":-1.474753737449646,"802":-2.130298376083374,"803":1.7034494876861572,"804":1.5442962646484375,"805":-2.024196147918701,"806":1.5551173686981201,"807":1.5020867586135864,"808":2.0080385208129883,"809":-0.8352928757667542,"810":0.6782107353210449,"811":-1.321814775466919,"812":1.484567642211914,"813":1.0335204601287842,"814":-1.103350043296814,"815":0.5383248329162598,"816":-0.41799551248550415,"817":0.9398430585861206,"818":-1.8803653717041016,"819":3.5741946697235107,"820":-1.190600872039795,"821":-2.5274882316589355,"822":-0.38262882828712463,"823":1.453426718711853,"824":-0.7316625714302063,"825":1.267748236656189,"826":1.3017295598983765,"827":-0.7507010102272034,"828":0.8573790788650513,"829":0.8087744116783142,"830":-2.628523588180542,"831":-1.510927677154541,"832":-0.29411831498146057,"833":0.7896777391433716,"834":-1.93401300907135,"835":-0.40035006403923035,"836":-1.4628788232803345,"837":0.35399532318115234,"838":1.373930811882019,"839":-1.1030793190002441,"840":-1.1449579000473022,"841":0.4516463875770569,"842":0.49197256565093994,"843":-2.1109673976898193,"844":-0.7101863026618958,"845":-1.1236509084701538,"846":0.8887194991111755,"847":0.18411028385162354,"848":-0.2947304844856262,"849":0.5826035141944885,"850":-0.30635866522789,"851":0.3745705783367157,"852":0.6716899275779724,"853":-0.202535018324852,"854":0.8925104141235352,"855":-1.0136618614196777,"856":-0.06263955682516098,"857":0.2633337080478668,"858":-0.6437608599662781,"859":-0.4132501184940338,"860":-0.15916690230369568,"861":0.13665947318077087,"862":0.4264276325702667,"863":-1.048288345336914,"864":0.9434534311294556,"865":1.1437408924102783,"866":-1.1538901329040527,"867":-0.8243629932403564,"868":-1.8701759576797485,"869":-0.23799888789653778,"870":-0.08594564348459244,"871":1.176772952079773,"872":-1.172492504119873,"873":-0.843687117099762,"874":0.6409015655517578,"875":-0.06545749306678772,"876":0.041202716529369354,"877":-0.689133882522583,"878":1.1023856401443481,"879":0.007756067905575037,"880":1.110066533088684,"881":-0.5178815722465515,"882":-0.9130027890205383,"883":-0.6935731172561646,"884":-0.39855295419692993,"885":1.0803554058074951,"886":-1.0751173496246338,"887":-0.30427494645118713,"888":0.06919605284929276,"889":0.08691319823265076,"890":0.8579332828521729,"891":1.1313649415969849,"892":-0.4452802538871765,"893":0.18232321739196777,"894":1.7059547901153564,"895":0.7418392896652222,"896":0.688458263874054,"897":0.5066879391670227,"898":-0.07160283625125885,"899":0.7881551384925842,"900":0.06705691665410995,"901":-0.05343972146511078,"902":0.0016986553091555834,"903":-0.023701952770352364,"904":0.03970099985599518,"905":-0.0008996556280180812,"906":0.06760003417730331,"907":-0.043240517377853394,"908":0.05560842156410217,"909":-0.044418852776288986,"910":0.0565863735973835,"911":0.011781666427850723,"912":0.05253353342413902,"913":-0.060142166912555695,"914":-0.07849784195423126,"915":-0.028471823781728745,"916":0.032160431146621704,"917":-0.014720945619046688,"918":0.07203500717878342,"919":-0.05086679011583328,"920":0.04628922790288925,"921":0.06957875937223434,"922":0.007173655554652214,"923":0.06960955262184143,"924":0.02132672443985939,"925":-0.011801227927207947,"926":-0.07632990926504135,"927":0.021973751485347748,"928":0.009433955885469913,"929":-0.01587030291557312}},"hiddenLayers":[{"inputMatrix":{"rows":20,"columns":30,"weights":{"0":0.15068836510181427,"1":0.2255658656358719,"2":-0.276800274848938,"3":-0.17892345786094666,"4":0.2902849018573761,"5":0.7087547183036804,"6":-0.7789784073829651,"7":-0.4338510036468506,"8":0.14857889711856842,"9":-0.5573445558547974,"10":-0.01331599522382021,"11":-0.0005023680860176682,"12":-0.0893717110157013,"13":-0.6019747853279114,"14":-0.7540338635444641,"15":0.612232506275177,"16":-0.10157821327447891,"17":-0.6319604516029358,"18":0.5774338841438293,"19":0.37687620520591736,"20":0.5010004043579102,"21":-0.016209566965699196,"22":-0.8876978754997253,"23":0.40526828169822693,"24":-0.39952030777931213,"25":-1.288496732711792,"26":0.4880143702030182,"27":0.35970601439476013,"28":0.8207921981811523,"29":0.5593748688697815,"30":-0.8537047505378723,"31":1.2736276388168335,"32":-0.33384379744529724,"33":-1.0222654342651367,"34":0.6799144148826599,"35":-1.082213282585144,"36":0.6992231607437134,"37":-1.1567829847335815,"38":0.7296563386917114,"39":1.1689798831939697,"40":0.22731930017471313,"41":-0.5956926941871643,"42":-0.009332080371677876,"43":-0.9261850118637085,"44":0.6649166345596313,"45":-0.6727222800254822,"46":-1.015674114227295,"47":-0.21826015412807465,"48":-0.3799850046634674,"49":0.05278401076793671,"50":0.2991749346256256,"51":0.8016505837440491,"52":0.01562846265733242,"53":-0.6426765322685242,"54":1.4065788984298706,"55":1.7424956560134888,"56":0.3313709497451782,"57":-1.1462838649749756,"58":-0.7257059216499329,"59":0.9918762445449829,"60":-0.5700063705444336,"61":-0.16971641778945923,"62":0.33777540922164917,"63":-0.6436198353767395,"64":0.15355396270751953,"65":-0.484943687915802,"66":0.36278000473976135,"67":-0.6518546342849731,"68":-0.38166311383247375,"69":0.9480729699134827,"70":-0.36793383955955505,"71":0.035898126661777496,"72":1.461390495300293,"73":0.005293284077197313,"74":0.06382280588150024,"75":-1.2601051330566406,"76":0.17688201367855072,"77":0.30638831853866577,"78":-0.4957735538482666,"79":-0.25273796916007996,"80":-0.7833019495010376,"81":-0.5852334499359131,"82":-0.14200618863105774,"83":-0.5134100317955017,"84":-0.9317222833633423,"85":0.8099650144577026,"86":0.0007539933430962265,"87":-1.5977766513824463,"88":-0.7324091792106628,"89":0.09771730750799179,"90":0.6077235341072083,"91":-0.3674980700016022,"92":0.8093345761299133,"93":-0.8202139139175415,"94":-0.39283129572868347,"95":0.4713902175426483,"96":-0.5281541347503662,"97":0.08160845935344696,"98":-0.4753624498844147,"99":-0.9551549553871155,"100":-0.7556074857711792,"101":0.07815541326999664,"102":0.6273741126060486,"103":0.17580844461917877,"104":-0.5535742044448853,"105":-1.5070371627807617,"106":0.3158235549926758,"107":-0.5558754205703735,"108":0.3152371048927307,"109":0.5239179134368896,"110":0.5712181329727173,"111":-0.3686949908733368,"112":-0.19884555041790009,"113":0.4354064464569092,"114":0.9271050095558167,"115":-0.24716202914714813,"116":-0.3020215630531311,"117":-0.20437538623809814,"118":-1.0534967184066772,"119":-0.2910058796405792,"120":-0.23465241491794586,"121":-0.11356271058320999,"122":0.7139783501625061,"123":-1.3995932340621948,"124":-1.00192129611969,"125":-0.3465014398097992,"126":-0.061741989105939865,"127":0.5983121991157532,"128":-0.3258604109287262,"129":-0.23903131484985352,"130":-0.821043848991394,"131":0.7251853942871094,"132":0.8784027695655823,"133":0.43049001693725586,"134":0.4613962173461914,"135":-0.8508634567260742,"136":0.5095966458320618,"137":-0.02398565411567688,"138":0.012100335210561752,"139":0.4829511046409607,"140":0.45338571071624756,"141":-0.3183726668357849,"142":0.8414267301559448,"143":-0.7730225920677185,"144":0.7491262555122375,"145":0.4935300350189209,"146":-0.8076245784759521,"147":-1.2055702209472656,"148":-1.5859521627426147,"149":-0.5945279598236084,"150":-0.5685651898384094,"151":0.05142286792397499,"152":-0.2087724506855011,"153":-0.1167583093047142,"154":0.0900115966796875,"155":-0.9018409252166748,"156":0.6442461609840393,"157":-0.3021661937236786,"158":0.17943550646305084,"159":1.1881765127182007,"160":0.2222473919391632,"161":0.35244080424308777,"162":0.1359865814447403,"163":-0.06583908200263977,"164":0.8694710731506348,"165":0.24666476249694824,"166":-0.16132813692092896,"167":0.4219268262386322,"168":-0.6630050539970398,"169":-0.5321206450462341,"170":-0.46252962946891785,"171":0.19786374270915985,"172":1.4221824407577515,"173":-0.7346295714378357,"174":-0.10529632121324539,"175":1.1337021589279175,"176":0.39360126852989197,"177":-0.6645047068595886,"178":-0.3200834393501282,"179":0.10446561872959137,"180":-0.03961888328194618,"181":-0.28392115235328674,"182":1.382353663444519,"183":-0.7473567724227905,"184":-1.1443818807601929,"185":1.1819323301315308,"186":-0.9455713629722595,"187":1.442166805267334,"188":-0.7782933712005615,"189":-0.4595598578453064,"190":-0.7031674385070801,"191":0.5375483632087708,"192":-0.4536078870296478,"193":-0.2792874276638031,"194":-0.8629193902015686,"195":-0.33729228377342224,"196":0.5782012343406677,"197":-0.48335960507392883,"198":0.26841431856155396,"199":0.6468024253845215,"200":0.45889413356781006,"201":0.1427018791437149,"202":-0.7167045474052429,"203":0.05482011288404465,"204":0.5475351214408875,"205":-1.1871970891952515,"206":-1.7427009344100952,"207":-0.12246108800172806,"208":-1.239565134048462,"209":-0.5803679823875427,"210":-0.3559969365596771,"211":0.5519949197769165,"212":-1.2482620477676392,"213":1.1691356897354126,"214":0.7854007482528687,"215":-0.7255551815032959,"216":0.87677401304245,"217":-0.7186443209648132,"218":1.4262717962265015,"219":0.11235395818948746,"220":1.3392343521118164,"221":0.3477379083633423,"222":0.6096208691596985,"223":-0.7437776327133179,"224":0.470304399728775,"225":0.6074946522712708,"226":-0.7685341835021973,"227":1.0205204486846924,"228":-0.8318353891372681,"229":-1.1241260766983032,"230":-0.45275163650512695,"231":0.8275448679924011,"232":0.04888032749295235,"233":-0.5046010613441467,"234":-0.6432033181190491,"235":0.7643123269081116,"236":1.3264080286026,"237":-0.152162104845047,"238":0.8302187919616699,"239":0.6856539249420166,"240":-1.1564562320709229,"241":0.6126362681388855,"242":-0.6515935063362122,"243":0.7400517463684082,"244":0.7114692330360413,"245":-0.7959641218185425,"246":0.8661502599716187,"247":-0.930459201335907,"248":0.5202304124832153,"249":1.1221369504928589,"250":0.7181680798530579,"251":-0.043380044400691986,"252":0.4552597403526306,"253":-0.8162924647331238,"254":0.6342505216598511,"255":0.004896032623946667,"256":-0.6953742504119873,"257":1.1190253496170044,"258":-0.8135103583335876,"259":-1.3757065534591675,"260":-1.486057996749878,"261":0.5381839275360107,"262":0.534447193145752,"263":-0.6061570644378662,"264":-0.01169306319206953,"265":0.8657505512237549,"266":0.3551563024520874,"267":-0.41578686237335205,"268":0.44365575909614563,"269":0.6669614315032959,"270":0.6989515423774719,"271":-0.062479835003614426,"272":0.26135385036468506,"273":2.8203036785125732,"274":0.34233275055885315,"275":1.3586039543151855,"276":-0.5342565774917603,"277":-0.03727748245000839,"278":0.004329826217144728,"279":1.1178511381149292,"280":-0.11706475913524628,"281":-0.2416798621416092,"282":0.4012010991573334,"283":-0.006281435955315828,"284":-0.24520136415958405,"285":0.535144567489624,"286":-0.0408494733273983,"287":1.3056727647781372,"288":0.7866399884223938,"289":-1.127829909324646,"290":-1.358967900276184,"291":0.06838442385196686,"292":-0.48605698347091675,"293":0.02209492214024067,"294":-1.2398149967193604,"295":-0.8839510679244995,"296":-0.1900457739830017,"297":-0.2645259499549866,"298":0.5010333061218262,"299":0.3257180154323578,"300":0.2119162678718567,"301":-0.00023500302631873637,"302":-0.9765216708183289,"303":1.8307665586471558,"304":0.5358762741088867,"305":0.376630038022995,"306":-0.19032388925552368,"307":-0.4280906021595001,"308":0.5282908082008362,"309":-0.2647266089916229,"310":0.7800852656364441,"311":-0.3923364579677582,"312":0.01281779445707798,"313":-0.5392373204231262,"314":-0.7142397165298462,"315":0.6175850629806519,"316":-0.4204097390174866,"317":0.4289129376411438,"318":-0.28830793499946594,"319":-0.3972209692001343,"320":-0.5585460066795349,"321":0.5817968845367432,"322":-1.0518958568572998,"323":0.35663822293281555,"324":-0.7168418169021606,"325":-0.5224133133888245,"326":1.0065668821334839,"327":0.5053924918174744,"328":1.3618438243865967,"329":0.49143290519714355,"330":-1.2803927659988403,"331":0.7366025447845459,"332":-0.9461590647697449,"333":0.278648316860199,"334":0.6777240037918091,"335":-1.1066551208496094,"336":0.7100008726119995,"337":-0.7970758676528931,"338":0.6095112562179565,"339":1.2807488441467285,"340":0.7473791837692261,"341":-0.25325971841812134,"342":-0.7352600693702698,"343":-0.6763801574707031,"344":1.0811877250671387,"345":0.7673071026802063,"346":-0.5633563995361328,"347":0.42566147446632385,"348":-0.5212565064430237,"349":-0.6731001138687134,"350":-0.40133243799209595,"351":0.5373758673667908,"352":1.0533047914505005,"353":-0.4175051748752594,"354":0.11486209183931351,"355":1.3358831405639648,"356":0.20088975131511688,"357":-0.29662036895751953,"358":0.1852925717830658,"359":0.6304154992103577,"360":-0.26613476872444153,"361":0.4097573757171631,"362":-0.5109582543373108,"363":1.0955235958099365,"364":0.8095586895942688,"365":-0.5038121342658997,"366":0.4385409355163574,"367":-0.8789486289024353,"368":0.49887800216674805,"369":0.6380671858787537,"370":0.564440131187439,"371":-0.12626907229423523,"372":0.24651633203029633,"373":-0.6013386249542236,"374":0.2141009271144867,"375":-0.009554761461913586,"376":-0.44541996717453003,"377":0.5848894715309143,"378":-0.34439998865127563,"379":-0.8001787662506104,"380":-0.6113536357879639,"381":0.33039391040802,"382":0.11731687188148499,"383":-0.1773933619260788,"384":-0.20958857238292694,"385":0.4290248453617096,"386":0.5397281050682068,"387":-0.3426325023174286,"388":0.5375656485557556,"389":0.6611700057983398,"390":-1.4486513137817383,"391":-0.062298815697431564,"392":0.007195355836302042,"393":-0.2657703161239624,"394":0.7995989322662354,"395":-0.978906512260437,"396":0.864360511302948,"397":-1.0294395685195923,"398":-0.29205358028411865,"399":1.5047730207443237,"400":-0.1088155210018158,"401":0.6609474420547485,"402":1.0095316171646118,"403":-0.8958438038825989,"404":0.695065975189209,"405":-1.2318220138549805,"406":-0.03734332695603371,"407":0.2735706865787506,"408":-1.2755601406097412,"409":-0.09086374193429947,"410":-0.4478223919868469,"411":-0.11072401702404022,"412":0.27734431624412537,"413":-1.380489468574524,"414":-0.544639527797699,"415":0.5417510867118835,"416":0.08612527698278427,"417":-1.718631625175476,"418":-1.4804776906967163,"419":0.6231619119644165,"420":0.3026529550552368,"421":0.2148285061120987,"422":-0.6659684181213379,"423":1.5585994720458984,"424":0.8549739718437195,"425":0.21473881602287292,"426":-0.1792362630367279,"427":-1.0520111322402954,"428":0.6228280663490295,"429":0.3855552673339844,"430":0.7394999265670776,"431":-0.3588780164718628,"432":0.743665874004364,"433":-0.41502058506011963,"434":-0.2358849048614502,"435":0.016782037913799286,"436":-0.584827184677124,"437":0.5743685960769653,"438":-0.026069357991218567,"439":-0.4820743203163147,"440":-0.4893190562725067,"441":0.41788291931152344,"442":-0.010028908029198647,"443":0.2728440761566162,"444":-1.74491286277771,"445":-0.3961370587348938,"446":1.0226353406906128,"447":-0.2575295567512512,"448":0.7864558100700378,"449":0.6324545741081238,"450":-1.1070218086242676,"451":1.0485280752182007,"452":-0.3655899465084076,"453":0.48340535163879395,"454":0.38957342505455017,"455":-1.178483247756958,"456":1.0462675094604492,"457":-1.0396071672439575,"458":0.5231571793556213,"459":0.9741306900978088,"460":0.5285189747810364,"461":0.4067898690700531,"462":1.0755268335342407,"463":-0.8222262263298035,"464":1.0489494800567627,"465":-0.6678285598754883,"466":-0.7814242243766785,"467":1.2518349885940552,"468":-1.107332706451416,"469":-1.672122597694397,"470":-0.8423194885253906,"471":0.6618075370788574,"472":0.6195995211601257,"473":-0.9330754280090332,"474":0.0510835126042366,"475":0.9712505340576172,"476":0.32531723380088806,"477":-0.8795310854911804,"478":0.12178324908018112,"479":0.5394837856292725,"480":0.3175228536128998,"481":-0.9208376407623291,"482":0.5100480914115906,"483":2.418578863143921,"484":-0.33807578682899475,"485":0.5310520529747009,"486":-0.5573742389678955,"487":0.3081074059009552,"488":-0.5644654035568237,"489":0.19630080461502075,"490":-0.40963783860206604,"491":0.13337109982967377,"492":1.50330650806427,"493":0.39438506960868835,"494":-0.3527844250202179,"495":0.25001248717308044,"496":0.6309938430786133,"497":-0.28329989314079285,"498":0.5621632933616638,"499":0.33979883790016174,"500":0.008598396554589272,"501":-0.7105176448822021,"502":0.0033169931266456842,"503":0.3603128492832184,"504":-0.7386613488197327,"505":-0.786005437374115,"506":-0.44641169905662537,"507":-0.22523342072963715,"508":0.7074295282363892,"509":-0.6237303614616394,"510":0.14919660985469818,"511":0.029883887618780136,"512":-0.4503932595252991,"513":1.394413709640503,"514":0.5027995705604553,"515":-0.4602102041244507,"516":0.3156287372112274,"517":-0.5592398047447205,"518":0.5814237594604492,"519":0.9868007302284241,"520":0.43427011370658875,"521":-0.12574085593223572,"522":0.35210803151130676,"523":0.2558455169200897,"524":0.32640570402145386,"525":0.013019030913710594,"526":-0.08334289491176605,"527":0.4108285903930664,"528":-0.25406739115715027,"529":-0.38868725299835205,"530":-1.0258407592773438,"531":-0.15649762749671936,"532":0.3853900134563446,"533":-0.16559727489948273,"534":-1.0131266117095947,"535":0.4981994330883026,"536":0.5550425052642822,"537":-0.3176060914993286,"538":0.5623649954795837,"539":0.20279917120933533,"540":-0.21984663605690002,"541":1.5787737369537354,"542":-1.4158822298049927,"543":-0.17227040231227875,"544":1.320698857307434,"545":-0.14787808060646057,"546":0.0031452015973627567,"547":-1.4013409614562988,"548":1.3294599056243896,"549":0.4246087372303009,"550":1.0497934818267822,"551":-0.755935788154602,"552":-1.4008601903915405,"553":-1.907199501991272,"554":0.2993743419647217,"555":1.4043086767196655,"556":-1.5860933065414429,"557":-0.18990738689899445,"558":0.21718688309192657,"559":0.23486922681331635,"560":0.3139631450176239,"561":1.7295746803283691,"562":0.6188167333602905,"563":0.0051230438984930515,"564":0.9206316471099854,"565":0.3717256784439087,"566":0.8699265718460083,"567":0.3166024088859558,"568":0.1699020266532898,"569":1.669126033782959,"570":-1.0608088970184326,"571":-0.08942994475364685,"572":0.035974856466054916,"573":-0.3010101020336151,"574":0.27827030420303345,"575":-0.7151219248771667,"576":0.4854592978954315,"577":-0.516808271408081,"578":-0.13175389170646667,"579":1.3006924390792847,"580":0.13866326212882996,"581":0.7176432609558105,"582":0.50250643491745,"583":-0.4708687365055084,"584":1.2771488428115845,"585":-0.0365152508020401,"586":-0.09062021970748901,"587":0.8761649131774902,"588":-0.8063573837280273,"589":-0.7898656129837036,"590":-0.5753161907196045,"591":0.17245349287986755,"592":1.5173747539520264,"593":-1.1300181150436401,"594":0.0020338702015578747,"595":1.0271776914596558,"596":-0.02672148309648037,"597":-1.289929986000061,"598":-0.5609267354011536,"599":0.3346676826477051}},"inputHidden":{"rows":20,"columns":20,"weights":{"0":2.004671573638916,"1":-0.5045069456100464,"2":-0.2622140944004059,"3":-0.6489344239234924,"4":-1.4095878601074219,"5":-0.9827587008476257,"6":1.1430290937423706,"7":0.9158045649528503,"8":-1.7613525390625,"9":1.6973074674606323,"10":1.1728302240371704,"11":0.1654200404882431,"12":-0.9580016732215881,"13":-1.7387337684631348,"14":1.9129197597503662,"15":0.9287149310112,"16":-1.7549612522125244,"17":1.013364553451538,"18":-1.1182574033737183,"19":-1.18340003490448,"20":0.4411933422088623,"21":-0.0900799036026001,"22":-0.4947424829006195,"23":-0.06280234456062317,"24":0.6436095237731934,"25":-0.8528645038604736,"26":0.7816566824913025,"27":0.17113199830055237,"28":-0.26089125871658325,"29":0.9614746570587158,"30":0.38880619406700134,"31":-0.19273120164871216,"32":-0.14716090261936188,"33":-0.2533082067966461,"34":0.44300326704978943,"35":0.524600625038147,"36":1.2635421752929688,"37":0.3511613607406616,"38":-0.498887300491333,"39":-0.19466501474380493,"40":0.12704192101955414,"41":-0.6505354046821594,"42":-0.47192317247390747,"43":-0.5839346051216125,"44":0.10808484256267548,"45":1.2939317226409912,"46":-1.0023919343948364,"47":0.6428415775299072,"48":-0.15828201174736023,"49":0.10895556956529617,"50":-0.08005817234516144,"51":0.3137737512588501,"52":-0.5193914771080017,"53":-0.3575267195701599,"54":-0.5043261051177979,"55":0.6514828205108643,"56":0.9643957018852234,"57":0.8321179747581482,"58":0.4552612602710724,"59":-0.05377693474292755,"60":-0.5138585567474365,"61":-0.559443473815918,"62":-0.3650038540363312,"63":-0.6961589455604553,"64":-0.35569360852241516,"65":0.5130490660667419,"66":-0.990014374256134,"67":1.0901659727096558,"68":-0.8282309770584106,"69":0.4878070652484894,"70":0.30657702684402466,"71":-0.6369712352752686,"72":-0.9374099969863892,"73":-0.8718973398208618,"74":0.6964048147201538,"75":0.6736773252487183,"76":2.3157591819763184,"77":0.8089011311531067,"78":0.35810112953186035,"79":-0.5702641010284424,"80":-0.07011787593364716,"81":-0.35180050134658813,"82":0.47791293263435364,"83":0.3902459144592285,"84":0.27121037244796753,"85":-1.4895724058151245,"86":0.28512242436408997,"87":0.36672529578208923,"88":-0.4227682948112488,"89":1.3122090101242065,"90":1.042357325553894,"91":-0.23156391084194183,"92":-0.6475709676742554,"93":-0.9861207604408264,"94":0.8475940823554993,"95":0.9423227906227112,"96":-0.41539084911346436,"97":2.6646056175231934,"98":0.29742756485939026,"99":-0.5755758285522461,"100":-0.8816545009613037,"101":0.734577476978302,"102":1.275632381439209,"103":-0.41424229741096497,"104":0.3120238184928894,"105":0.5743972659111023,"106":-1.1885875463485718,"107":-1.4125903844833374,"108":1.2613646984100342,"109":-2.2269105911254883,"110":-1.0522472858428955,"111":1.3001312017440796,"112":1.283486008644104,"113":0.8633782863616943,"114":-1.3312214612960815,"115":-1.0931024551391602,"116":0.37106794118881226,"117":-0.8974204063415527,"118":0.9574682116508484,"119":0.5620284080505371,"120":-0.038272056728601456,"121":1.0046207904815674,"122":0.7853123545646667,"123":0.5297127962112427,"124":-0.3123735785484314,"125":1.0224401950836182,"126":0.1036824956536293,"127":-1.096242070198059,"128":1.0279737710952759,"129":-1.158300518989563,"130":-1.742247462272644,"131":0.5290915369987488,"132":1.2944800853729248,"133":1.803719162940979,"134":-1.1402463912963867,"135":-1.4001449346542358,"136":-0.6930056214332581,"137":-1.2381718158721924,"138":0.8201690316200256,"139":1.1672101020812988,"140":-0.47994759678840637,"141":-0.44053810834884644,"142":0.2388179749250412,"143":0.4399034082889557,"144":-0.4206143021583557,"145":-0.596642017364502,"146":-0.9171987175941467,"147":0.026428326964378357,"148":0.023387983441352844,"149":0.4035419821739197,"150":0.2271476536989212,"151":-0.46094587445259094,"152":-0.17270956933498383,"153":-0.3845341205596924,"154":0.38552600145339966,"155":0.3949148952960968,"156":0.3325949013233185,"157":0.24236290156841278,"158":-0.3343886435031891,"159":-0.505943775177002,"160":0.1836794763803482,"161":-0.8655108213424683,"162":-0.5612872242927551,"163":-0.8486287593841553,"164":0.08236552774906158,"165":0.034420277923345566,"166":0.38293012976646423,"167":0.8639822602272034,"168":-0.36932697892189026,"169":0.9263400435447693,"170":0.06383954733610153,"171":-0.31390348076820374,"172":-0.7568294405937195,"173":-0.7659076452255249,"174":0.4467671513557434,"175":0.665147066116333,"176":0.9024061560630798,"177":0.48888546228408813,"178":0.017383065074682236,"179":-0.2725997567176819,"180":-0.9797458052635193,"181":-0.3232129216194153,"182":1.046327829360962,"183":-0.9104211330413818,"184":1.8660062551498413,"185":0.6962603330612183,"186":1.0473194122314453,"187":-1.0573744773864746,"188":1.0612473487854004,"189":-0.6659597158432007,"190":0.7216696739196777,"191":1.236937403678894,"192":0.9587711691856384,"193":1.78309965133667,"194":0.1852242797613144,"195":-0.2826946973800659,"196":0.3503606617450714,"197":-0.7514064311981201,"198":0.9146161675453186,"199":1.0531258583068848,"200":-0.566771924495697,"201":-0.012758094817399979,"202":1.6748980283737183,"203":1.1742807626724243,"204":-0.16710220277309418,"205":1.7716920375823975,"206":-1.5436115264892578,"207":-0.051210615783929825,"208":0.4277538061141968,"209":-0.3110784590244293,"210":-1.6238802671432495,"211":-1.2602789402008057,"212":0.308249294757843,"213":0.19473280012607574,"214":-0.33548814058303833,"215":-0.3109228312969208,"216":2.485607624053955,"217":-0.5489088892936707,"218":0.7375288009643555,"219":-0.057804472744464874,"220":0.8794771432876587,"221":0.36074280738830566,"222":0.40198463201522827,"223":0.6865400075912476,"224":0.10870373249053955,"225":0.6389063000679016,"226":0.6306794881820679,"227":-0.1249004453420639,"228":-0.15618790686130524,"229":0.17005404829978943,"230":-0.8863353133201599,"231":0.007475549355149269,"232":0.5469675660133362,"233":0.5226763486862183,"234":-0.8153867721557617,"235":-0.7790079116821289,"236":0.17804770171642303,"237":-0.810333788394928,"238":0.9037275314331055,"239":0.21463105082511902,"240":-0.20369304716587067,"241":-0.8584592342376709,"242":-0.7066460847854614,"243":-0.34008726477622986,"244":0.5454738736152649,"245":-0.22586435079574585,"246":-0.6027296781539917,"247":0.5734739899635315,"248":-0.2862752377986908,"249":0.3940297067165375,"250":0.8531745076179504,"251":-0.8013355135917664,"252":-0.8848206400871277,"253":-0.8748834729194641,"254":0.5073707103729248,"255":0.7885239720344543,"256":0.8967075347900391,"257":0.5981258153915405,"258":0.43422845005989075,"259":-0.15247689187526703,"260":0.5120899677276611,"261":-1.2092660665512085,"262":0.001178894774056971,"263":-1.2403086423873901,"264":-1.476064920425415,"265":0.4079093337059021,"266":-1.0466911792755127,"267":0.7658432722091675,"268":-0.5659069418907166,"269":1.413224458694458,"270":1.3534170389175415,"271":-0.9158445596694946,"272":-0.7728329300880432,"273":0.8581648468971252,"274":1.0937786102294922,"275":1.188246488571167,"276":-0.13495291769504547,"277":0.9339145421981812,"278":-1.2559447288513184,"279":-0.1364196240901947,"280":-0.2357245534658432,"281":-0.372473806142807,"282":-0.7495124936103821,"283":0.6051018238067627,"284":0.21578845381736755,"285":-0.3738654851913452,"286":-0.018566684797406197,"287":0.19070680439472198,"288":-0.16864199936389923,"289":0.17977018654346466,"290":0.36733531951904297,"291":-0.09161485731601715,"292":-0.4777994751930237,"293":-0.9755493998527527,"294":0.30622240900993347,"295":0.38730165362358093,"296":1.0679781436920166,"297":0.4238278865814209,"298":0.15786094963550568,"299":0.1894731968641281,"300":-0.014889353886246681,"301":-0.38002750277519226,"302":-0.31724104285240173,"303":-0.6306697726249695,"304":-0.5181235671043396,"305":0.2400926798582077,"306":-0.0856049507856369,"307":-0.12434136122465134,"308":0.3043075501918793,"309":0.35350847244262695,"310":0.7814043164253235,"311":0.14434106647968292,"312":-0.16441220045089722,"313":-0.38438546657562256,"314":0.4092468023300171,"315":0.1734188050031662,"316":0.1687593013048172,"317":0.4906800091266632,"318":0.21994543075561523,"319":0.062185246497392654,"320":-0.9606056809425354,"321":1.6578363180160522,"322":1.2303653955459595,"323":1.4542702436447144,"324":-0.5235697627067566,"325":-0.014559308998286724,"326":-0.16066935658454895,"327":-1.7410906553268433,"328":1.699735403060913,"329":-2.375471830368042,"330":-1.9692423343658447,"331":0.32239389419555664,"332":1.8176356554031372,"333":2.2671663761138916,"334":-1.9036386013031006,"335":-1.8024864196777344,"336":0.5776204466819763,"337":-1.6951470375061035,"338":-0.16041229665279388,"339":1.8534635305404663,"340":-0.6240203380584717,"341":0.2861790657043457,"342":-0.06401589512825012,"343":0.25716736912727356,"344":0.20704223215579987,"345":0.23023822903633118,"346":-1.155493974685669,"347":0.7754428386688232,"348":0.38927727937698364,"349":-1.1701005697250366,"350":0.14160332083702087,"351":-0.00898338109254837,"352":0.540066659450531,"353":0.4001699984073639,"354":-0.2605302929878235,"355":0.5749326944351196,"356":0.6426405310630798,"357":0.5790459513664246,"358":1.1902252435684204,"359":0.463051438331604,"360":0.3376087248325348,"361":0.16679586470127106,"362":-0.24210427701473236,"363":-0.5649530291557312,"364":0.19986367225646973,"365":0.3454388678073883,"366":0.9417285919189453,"367":0.30683526396751404,"368":-0.0922936350107193,"369":0.5582427382469177,"370":0.8300860524177551,"371":0.5818520784378052,"372":-0.24586550891399384,"373":-1.0177578926086426,"374":0.2708532214164734,"375":0.2967359721660614,"376":-1.2841925621032715,"377":0.2706643342971802,"378":1.323770523071289,"379":-0.0970907136797905,"380":-1.116162657737732,"381":-0.205081045627594,"382":-0.0938696414232254,"383":-1.3528141975402832,"384":-0.3382618725299835,"385":0.6747816801071167,"386":-0.293332576751709,"387":0.3315228223800659,"388":-0.3315029442310333,"389":0.7615309953689575,"390":0.6559368968009949,"391":0.602484941482544,"392":-0.675275444984436,"393":-1.1823700666427612,"394":0.2758362293243408,"395":0.8610996603965759,"396":0.15823301672935486,"397":0.6887706518173218,"398":0.1818704456090927,"399":-1.0129531621932983}},"inputBias":{"rows":20,"columns":1,"weights":{"0":-0.8648048043251038,"1":-0.20968084037303925,"2":0.29895034432411194,"3":-0.07338858395814896,"4":-0.4154345393180847,"5":-0.4210328161716461,"6":-0.6814684271812439,"7":0.12420832365751266,"8":0.34180378913879395,"9":0.0962495505809784,"10":0.28807497024536133,"11":-0.2959049940109253,"12":-0.25206300616264343,"13":-0.31820064783096313,"14":-0.1626114845275879,"15":-0.2863849997520447,"16":-0.8606652021408081,"17":0.020272783935070038,"18":-0.01819036714732647,"19":0.04277826100587845}},"forgetMatrix":{"rows":20,"columns":30,"weights":{"0":-0.9173604249954224,"1":-0.3855874836444855,"2":0.004486435558646917,"3":-0.8022556304931641,"4":-0.32631582021713257,"5":-0.32127124071121216,"6":0.18586188554763794,"7":0.24451908469200134,"8":-0.3709549903869629,"9":0.30204370617866516,"10":-0.35086148977279663,"11":0.5338013172149658,"12":1.109547734260559,"13":0.4040347933769226,"14":0.658017635345459,"15":-0.6936315894126892,"16":0.4870191812515259,"17":0.5397202968597412,"18":-0.24421969056129456,"19":-0.32398587465286255,"20":-0.554568350315094,"21":-0.6444000601768494,"22":1.0288974046707153,"23":-0.4508844017982483,"24":-0.4156186282634735,"25":0.1565815508365631,"26":-0.724834680557251,"27":-0.5691112875938416,"28":-1.2424252033233643,"29":-0.5117833018302917,"30":-0.19020190834999084,"31":0.8382630944252014,"32":-0.30332186818122864,"33":0.3062565326690674,"34":0.6957524418830872,"35":-0.17236825823783875,"36":-0.04300835356116295,"37":-0.8581709265708923,"38":0.6198713183403015,"39":-0.3329866826534271,"40":0.053098224103450775,"41":0.19330258667469025,"42":-0.026483366265892982,"43":-0.5805457830429077,"44":-0.03407049924135208,"45":-0.4528273046016693,"46":-0.8045459389686584,"47":-0.010081596672534943,"48":0.38867080211639404,"49":0.1495586335659027,"50":0.3156726062297821,"51":0.5122571587562561,"52":-0.3870680630207062,"53":-0.3023402690887451,"54":0.10099691152572632,"55":0.07465894520282745,"56":0.3622581362724304,"57":-0.3890876770019531,"58":0.09179989248514175,"59":0.8385682702064514,"60":-0.48763740062713623,"61":0.5457950830459595,"62":-0.4802634119987488,"63":-0.018052928149700165,"64":0.5136684775352478,"65":-0.49532201886177063,"66":0.4173057973384857,"67":-0.4529668688774109,"68":0.5482134819030762,"69":0.02161918766796589,"70":0.3807525932788849,"71":-0.0618024505674839,"72":-0.43286120891571045,"73":-0.326750785112381,"74":0.4411165416240692,"75":-0.3503839373588562,"76":-0.631824254989624,"77":0.0922563299536705,"78":-0.10362504422664642,"79":-0.19730748236179352,"80":0.24131770431995392,"81":0.555138111114502,"82":-0.06438866257667542,"83":-0.39955759048461914,"84":0.4222191274166107,"85":0.6557350754737854,"86":0.696522057056427,"87":-0.46179109811782837,"88":0.03091583587229252,"89":0.5140380859375,"90":-0.2887594699859619,"91":0.5095557570457458,"92":-1.1797648668289185,"93":0.6956929564476013,"94":0.8347753882408142,"95":-0.3332524001598358,"96":0.3246384263038635,"97":-0.8472680449485779,"98":0.9918774962425232,"99":0.01508097443729639,"100":0.9661120176315308,"101":0.3687645196914673,"102":0.11257942020893097,"103":-0.5591170191764832,"104":0.13415928184986115,"105":0.5186079144477844,"106":-0.7885327935218811,"107":0.633623480796814,"108":-0.2526892423629761,"109":-0.5567653775215149,"110":-0.32809266448020935,"111":0.761923611164093,"112":0.12478803843259811,"113":-0.3716133236885071,"114":-0.4353052079677582,"115":0.4655156433582306,"116":1.1782041788101196,"117":-0.08011296391487122,"118":0.7901743650436401,"119":0.6552340388298035,"120":-0.7910563349723816,"121":0.7021312117576599,"122":-0.5311582088470459,"123":0.2606383264064789,"124":0.6635202169418335,"125":-0.6330780386924744,"126":0.5804460048675537,"127":-0.40731799602508545,"128":0.4821992814540863,"129":0.5961876511573792,"130":0.4969741106033325,"131":-0.4764304459095001,"132":-0.2580198645591736,"133":-0.8137930035591125,"134":0.4219891428947449,"135":0.3609103858470917,"136":-0.5285781025886536,"137":0.407570481300354,"138":-0.766944408416748,"139":-0.4653739035129547,"140":-0.45511534810066223,"141":0.595622718334198,"142":0.1377181112766266,"143":-0.45572376251220703,"144":-0.51155024766922,"145":0.24984990060329437,"146":0.46755459904670715,"147":-0.5246869325637817,"148":0.2869758903980255,"149":0.8103635311126709,"150":0.02693774737417698,"151":0.45355573296546936,"152":-0.2671242356300354,"153":-1.100536584854126,"154":-0.3134266436100006,"155":-0.7042382955551147,"156":0.5575842261314392,"157":-0.08351018279790878,"158":0.16134104132652283,"159":0.3445809483528137,"160":-0.24352005124092102,"161":0.1983005404472351,"162":0.2905431389808655,"163":0.3379563093185425,"164":0.16834793984889984,"165":-0.49108070135116577,"166":-0.3135685920715332,"167":0.10866677761077881,"168":-0.17004917562007904,"169":-0.21552826464176178,"170":-0.6167266964912415,"171":-0.048809513449668884,"172":0.15961627662181854,"173":-0.050418149679899216,"174":-0.08313388377428055,"175":0.7417808771133423,"176":-0.5440160036087036,"177":0.06056182458996773,"178":-0.6370687484741211,"179":-0.30141595005989075,"180":0.9385205507278442,"181":0.5973811149597168,"182":0.08708086609840393,"183":1.868055820465088,"184":0.9362089037895203,"185":0.8438464403152466,"186":-0.7798413634300232,"187":-0.6096928715705872,"188":0.6164494156837463,"189":1.1882433891296387,"190":0.9002838730812073,"191":-0.8296305537223816,"192":-0.010419867001473904,"193":-0.9792777895927429,"194":-0.7440429925918579,"195":1.3472423553466797,"196":-0.8480575084686279,"197":-0.9275357127189636,"198":0.6131576299667358,"199":1.135688304901123,"200":0.3229621946811676,"201":1.203397512435913,"202":-0.016585083678364754,"203":0.7742814421653748,"204":2.0959694385528564,"205":-0.34353500604629517,"206":0.01744438149034977,"207":0.26751866936683655,"208":0.2313968986272812,"209":0.8080834150314331,"210":-0.5755626559257507,"211":0.11052397638559341,"212":0.11392834037542343,"213":-0.3686819076538086,"214":-0.09750296920537949,"215":-0.7184903025627136,"216":0.5372584462165833,"217":0.31461817026138306,"218":-0.20095518231391907,"219":0.47657617926597595,"220":-0.40887728333473206,"221":0.5779260396957397,"222":0.3555813133716583,"223":0.2618747651576996,"224":0.8909900784492493,"225":-0.5725561380386353,"226":0.029129628092050552,"227":0.26707133650779724,"228":-0.5746196508407593,"229":0.03621474653482437,"230":-0.04155583679676056,"231":-0.1714899092912674,"232":1.076988935470581,"233":-0.7792921662330627,"234":0.22741183638572693,"235":0.725594162940979,"236":-0.06328984349966049,"237":-0.7646005749702454,"238":-0.2449484020471573,"239":-0.1148701012134552,"240":-0.4552782475948334,"241":0.33723777532577515,"242":-0.48255226016044617,"243":0.04992308095097542,"244":0.7433773279190063,"245":-0.3208727240562439,"246":0.46307897567749023,"247":-0.4927692115306854,"248":0.40157148241996765,"249":0.4356655776500702,"250":0.4295324683189392,"251":-0.5077664852142334,"252":-0.5583176612854004,"253":-0.49160119891166687,"254":0.315853476524353,"255":0.5041335821151733,"256":-0.4704403579235077,"257":-0.1696176826953888,"258":-0.4461910128593445,"259":0.11699255555868149,"260":0.14060290157794952,"261":0.35288316011428833,"262":0.3701641261577606,"263":-0.37309348583221436,"264":0.3718935251235962,"265":0.14882993698120117,"266":0.45527562499046326,"267":-0.28403201699256897,"268":-0.045889467000961304,"269":0.49055516719818115,"270":-0.03240477666258812,"271":1.461777925491333,"272":-0.6605536341667175,"273":-0.1787474900484085,"274":0.7345725297927856,"275":-0.765983521938324,"276":0.23372356593608856,"277":-0.7487470507621765,"278":0.87627774477005,"279":-0.4645940363407135,"280":0.8399730324745178,"281":-0.4140411615371704,"282":0.2668476104736328,"283":-0.5560529828071594,"284":0.48789817094802856,"285":0.618705153465271,"286":-0.9385484457015991,"287":-0.3354763984680176,"288":0.36936765909194946,"289":0.2939280867576599,"290":0.668844997882843,"291":1.1684374809265137,"292":0.07164078950881958,"293":-0.17902375757694244,"294":0.07975857704877853,"295":0.8117705583572388,"296":0.8459481000900269,"297":-0.14413774013519287,"298":0.8201393485069275,"299":0.6891272664070129,"300":-1.0636743307113647,"301":0.3581866919994354,"302":0.07166800647974014,"303":-0.34504199028015137,"304":0.1253788024187088,"305":-1.3937417268753052,"306":1.0788440704345703,"307":-0.1424916386604309,"308":0.20069876313209534,"309":1.5683842897415161,"310":0.0764303058385849,"311":0.5240392684936523,"312":0.8475200533866882,"313":-0.2715214192867279,"314":1.4106543064117432,"315":-0.19962318241596222,"316":-0.182789146900177,"317":0.4823269844055176,"318":-1.1671802997589111,"319":-0.25833141803741455,"320":0.11557969450950623,"321":0.3031964600086212,"322":1.1725205183029175,"323":-1.800367832183838,"324":0.14524337649345398,"325":1.261168360710144,"326":0.04864588379859924,"327":-1.5474897623062134,"328":-0.6028372049331665,"329":0.09058716893196106,"330":-1.3469257354736328,"331":-1.1416784524917603,"332":1.201970100402832,"333":-1.4456754922866821,"334":-0.11033175140619278,"335":-0.21280351281166077,"336":0.4229535460472107,"337":0.06346621364355087,"338":-1.7413206100463867,"339":1.3771120309829712,"340":-1.5808281898498535,"341":0.8780249357223511,"342":0.9147464036941528,"343":-0.36791476607322693,"344":0.061326175928115845,"345":-0.9305657148361206,"346":0.2611982226371765,"347":0.4042832851409912,"348":-0.37645694613456726,"349":-0.20758578181266785,"350":-0.54891437292099,"351":-0.6524032354354858,"352":0.2905378043651581,"353":-0.6128044128417969,"354":-0.9310832619667053,"355":-0.7725926041603088,"356":-1.5308775901794434,"357":-1.1300415992736816,"358":-2.1076085567474365,"359":-0.12598933279514313,"360":-0.19132868945598602,"361":0.2164253443479538,"362":0.12855887413024902,"363":-0.7472611665725708,"364":-0.08387727290391922,"365":-0.6360698938369751,"366":0.34704482555389404,"367":0.1055905669927597,"368":0.2707867920398712,"369":-0.15475112199783325,"370":-0.16444453597068787,"371":0.519575834274292,"372":0.35318246483802795,"373":0.10417824238538742,"374":0.6262975335121155,"375":-0.9053201675415039,"376":-0.24383190274238586,"377":-0.11485130339860916,"378":-0.2233050912618637,"379":0.42171841859817505,"380":0.8201014995574951,"381":0.09045363962650299,"382":0.5513452887535095,"383":-0.8109952211380005,"384":0.7418686151504517,"385":0.8497916460037231,"386":0.14155983924865723,"387":-0.8210061192512512,"388":-0.5619299411773682,"389":-0.04317731782793999,"390":-0.30090954899787903,"391":1.0997893810272217,"392":-0.39620381593704224,"393":-0.5234888195991516,"394":0.43322890996932983,"395":-0.7441944479942322,"396":0.8991380333900452,"397":-0.33718106150627136,"398":0.4479558765888214,"399":-0.11386610567569733,"400":0.20053404569625854,"401":0.39219948649406433,"402":-0.19700263440608978,"403":-0.561433732509613,"404":0.4304899275302887,"405":0.2667974829673767,"406":-0.844429075717926,"407":0.23628659546375275,"408":-0.3775290846824646,"409":-0.2859523892402649,"410":0.3057195842266083,"411":0.8342196345329285,"412":0.36610010266304016,"413":-0.1781672090291977,"414":0.650222897529602,"415":0.5705446004867554,"416":0.08766527473926544,"417":0.01836559735238552,"418":-0.3878052532672882,"419":0.5118590593338013,"420":0.007134757936000824,"421":0.32840338349342346,"422":-0.7418556809425354,"423":0.31940770149230957,"424":0.7822482585906982,"425":-0.05498410761356354,"426":-0.09485230594873428,"427":-0.7639166116714478,"428":0.8324773907661438,"429":-0.05810161679983139,"430":0.7262946963310242,"431":-0.6135366559028625,"432":-0.6337847709655762,"433":-0.6805852055549622,"434":0.0001866901875473559,"435":0.48189300298690796,"436":-0.8328243494033813,"437":-0.5805193185806274,"438":0.1964806318283081,"439":0.5961511135101318,"440":1.2359577417373657,"441":0.5943250060081482,"442":-0.2918280065059662,"443":-0.046696651726961136,"444":0.3345116078853607,"445":0.5355495810508728,"446":0.8374689817428589,"447":0.02602752484381199,"448":0.5369402766227722,"449":0.9922982454299927,"450":-0.5154961943626404,"451":0.1148698553442955,"452":-0.1657145619392395,"453":-0.1461055725812912,"454":0.131507009267807,"455":-0.3370974659919739,"456":0.37530240416526794,"457":0.03851420804858208,"458":0.17432168126106262,"459":-0.4613363742828369,"460":-0.031937871128320694,"461":0.8203989267349243,"462":0.3623415231704712,"463":0.08413390070199966,"464":0.6137600541114807,"465":-0.48441046476364136,"466":-0.046022024005651474,"467":0.44497495889663696,"468":-0.17537350952625275,"469":-0.26583728194236755,"470":-0.26824986934661865,"471":0.1421593576669693,"472":0.9728425741195679,"473":-0.7163840532302856,"474":-0.22789721190929413,"475":0.2178811877965927,"476":0.30895721912384033,"477":-0.5517370104789734,"478":0.03804520145058632,"479":-0.05371551960706711,"480":-0.011157714761793613,"481":1.1220344305038452,"482":-0.8876267671585083,"483":0.33499300479888916,"484":0.7429748177528381,"485":-0.33020076155662537,"486":0.33117008209228516,"487":-0.9102981090545654,"488":1.5048540830612183,"489":0.7384889125823975,"490":1.5174901485443115,"491":-0.36247557401657104,"492":-0.9777336120605469,"493":-0.773030698299408,"494":0.38449826836586,"495":1.5800986289978027,"496":-1.061320424079895,"497":0.15264753997325897,"498":-0.0435168519616127,"499":-0.21351926028728485,"500":0.039324548095464706,"501":1.3653931617736816,"502":0.46791592240333557,"503":-0.035899627953767776,"504":1.1378788948059082,"505":0.4996183514595032,"506":0.9697461128234863,"507":0.22632703185081482,"508":0.6728352904319763,"509":1.153666615486145,"510":-0.5403696298599243,"511":0.6741951704025269,"512":-0.15358930826187134,"513":-0.6863584518432617,"514":0.1102314442396164,"515":-0.7892770171165466,"516":0.6257561445236206,"517":-0.02303263545036316,"518":0.2202722728252411,"519":0.41906070709228516,"520":-0.0948062464594841,"521":0.3348677456378937,"522":0.4228380024433136,"523":-0.3605339527130127,"524":0.6141408681869507,"525":-0.29957422614097595,"526":-0.5645179152488708,"527":0.34450089931488037,"528":-0.5625004172325134,"529":0.21482309699058533,"530":1.0470985174179077,"531":0.49840864539146423,"532":0.5049564838409424,"533":-0.8965853452682495,"534":0.8020389676094055,"535":1.138645887374878,"536":0.268878698348999,"537":-1.0239120721817017,"538":-0.17207451164722443,"539":0.06086914613842964,"540":-1.3290902376174927,"541":0.5780766606330872,"542":-0.8220556974411011,"543":-0.22926022112369537,"544":0.6255525350570679,"545":-1.2195594310760498,"546":0.8215502500534058,"547":-0.5528450608253479,"548":0.7643603086471558,"549":0.41319575905799866,"550":0.6478973031044006,"551":0.3877147138118744,"552":0.7437756061553955,"553":-0.24567723274230957,"554":0.7910308837890625,"555":0.04138960316777229,"556":-0.5160506367683411,"557":0.46662017703056335,"558":-0.5044631958007812,"559":-0.5000381469726562,"560":-0.46647462248802185,"561":0.4083004295825958,"562":0.4813236594200134,"563":-1.0328106880187988,"564":-0.47829341888427734,"565":0.7583395838737488,"566":0.6357108354568481,"567":-1.133265495300293,"568":-0.1806308627128601,"569":0.4623229205608368,"570":-0.3293900787830353,"571":-0.07967472076416016,"572":0.6180863380432129,"573":0.056962184607982635,"574":-0.29510560631752014,"575":-0.37060797214508057,"576":0.45394691824913025,"577":0.5045244693756104,"578":-0.3627437651157379,"579":-0.05867303907871246,"580":-0.4039384722709656,"581":0.7359748482704163,"582":-0.13165679574012756,"583":0.19989968836307526,"584":0.4670927822589874,"585":-0.2546502649784088,"586":0.3135431110858917,"587":0.5381072759628296,"588":-0.4285736680030823,"589":-0.5088022947311401,"590":-0.5851823091506958,"591":-0.2718362808227539,"592":0.41475576162338257,"593":-0.5185011625289917,"594":0.14379213750362396,"595":-0.4303433299064636,"596":-0.7623778581619263,"597":-0.537372350692749,"598":-1.1175990104675293,"599":0.02350032329559326}},"forgetHidden":{"rows":20,"columns":20,"weights":{"0":0.9257805347442627,"1":-0.3772498071193695,"2":-0.38245728611946106,"3":-0.8200759887695312,"4":-1.4231261014938354,"5":0.9957513809204102,"6":-0.2603265345096588,"7":0.6418474912643433,"8":0.08385603129863739,"9":0.05303554609417915,"10":-0.2721392810344696,"11":-1.0528392791748047,"12":-0.531160295009613,"13":0.36667850613594055,"14":0.4347890019416809,"15":0.19141384959220886,"16":0.07312607765197754,"17":0.2395707368850708,"18":-1.279969334602356,"19":-1.8438124656677246,"20":-0.003083042800426483,"21":-0.7901703715324402,"22":-0.653710663318634,"23":-0.6952295899391174,"24":-0.3344893753528595,"25":0.07776396721601486,"26":-0.2358386516571045,"27":0.40294167399406433,"28":-0.2131676822900772,"29":0.48303261399269104,"30":0.6336237788200378,"31":-0.706193208694458,"32":-0.5552628040313721,"33":-0.3450680375099182,"34":0.6565555334091187,"35":0.6088192462921143,"36":0.4783231317996979,"37":0.5921148061752319,"38":-0.3744176924228668,"39":-0.8579967021942139,"40":-0.2550223767757416,"41":-0.29608815908432007,"42":-0.03326726704835892,"43":0.005727078299969435,"44":0.7990895509719849,"45":0.36039116978645325,"46":0.18747319281101227,"47":-0.14038455486297607,"48":-0.09117341041564941,"49":0.046721458435058594,"50":0.07893668860197067,"51":-0.3194257616996765,"52":-0.1666455864906311,"53":-0.12101814895868301,"54":0.12512876093387604,"55":0.06351634860038757,"56":0.9073354601860046,"57":0.07936006784439087,"58":0.0893213152885437,"59":-0.8224475979804993,"60":-0.05583825707435608,"61":-0.26766684651374817,"62":0.1621362566947937,"63":-0.0976237803697586,"64":0.7863811254501343,"65":0.3394894301891327,"66":-0.4855208396911621,"67":-0.16696034371852875,"68":-0.13125097751617432,"69":-0.1320807784795761,"70":-0.037417780607938766,"71":-0.08578083664178848,"72":-0.0332796648144722,"73":-0.14768049120903015,"74":0.023652033880352974,"75":0.18220490217208862,"76":1.026297688484192,"77":-0.02033945918083191,"78":0.4593488276004791,"79":-0.9905648827552795,"80":0.3583326041698456,"81":-0.9886937737464905,"82":-0.9389740228652954,"83":-0.4752395451068878,"84":0.15002498030662537,"85":-0.28571271896362305,"86":0.013525178655982018,"87":1.0316091775894165,"88":-0.9554789662361145,"89":1.218562126159668,"90":0.7511468529701233,"91":-0.968538224697113,"92":-1.182450771331787,"93":-0.7930757403373718,"94":1.2850626707077026,"95":1.1819387674331665,"96":-0.8832619786262512,"97":1.3024314641952515,"98":0.2964816689491272,"99":-0.8687325119972229,"100":-0.7035097479820251,"101":1.534376621246338,"102":1.0828434228897095,"103":0.9421508312225342,"104":0.43402862548828125,"105":0.6060286164283752,"106":0.07895747572183609,"107":-1.3929426670074463,"108":-0.4046933352947235,"109":-1.7258219718933105,"110":-1.6461849212646484,"111":-0.03826208412647247,"112":1.6239041090011597,"113":1.0548449754714966,"114":-1.604569911956787,"115":-1.5682563781738281,"116":1.7172465324401855,"117":-0.9900590181350708,"118":1.2348276376724243,"119":-0.2598680853843689,"120":0.26549670100212097,"121":0.09453544020652771,"122":-0.3495040535926819,"123":0.5280126333236694,"124":-0.6316060423851013,"125":-0.40264979004859924,"126":-0.04302441328763962,"127":0.3729974329471588,"128":1.6629616022109985,"129":-0.09145437180995941,"130":-0.2071373462677002,"131":0.6942061185836792,"132":0.12948864698410034,"133":0.8151612281799316,"134":-1.8023601770401,"135":0.3234725594520569,"136":0.5124530792236328,"137":-0.009348916821181774,"138":1.968415379524231,"139":0.5703574419021606,"140":-0.17505326867103577,"141":0.8951823115348816,"142":0.06051133573055267,"143":0.10521750152111053,"144":0.6140581369400024,"145":-0.5575272440910339,"146":-0.46346938610076904,"147":0.07369889318943024,"148":-0.01722784712910652,"149":-0.2283521294593811,"150":-0.08339254558086395,"151":0.9291017651557922,"152":0.4145115613937378,"153":0.6510553956031799,"154":-0.5051460862159729,"155":-0.4052063822746277,"156":0.017809709534049034,"157":-0.5681464672088623,"158":0.9493219256401062,"159":0.07937147468328476,"160":-0.45117515325546265,"161":-0.5323938131332397,"162":-0.3633902370929718,"163":-0.5716122984886169,"164":0.21539637446403503,"165":0.16583351790905,"166":-0.07705645263195038,"167":0.6015346646308899,"168":-0.7282325625419617,"169":0.621991753578186,"170":0.4753919541835785,"171":-0.694868803024292,"172":-0.5245484113693237,"173":-0.5596883893013,"174":0.5945873260498047,"175":0.5993555188179016,"176":0.4356909394264221,"177":0.5618734955787659,"178":0.7485381364822388,"179":-0.2575686275959015,"180":0.6423657536506653,"181":-0.41667690873146057,"182":-0.7417954206466675,"183":-0.25372952222824097,"184":-1.2780219316482544,"185":-1.466732144355774,"186":0.23999908566474915,"187":0.3472733497619629,"188":-0.27384862303733826,"189":0.7413579821586609,"190":0.5943865776062012,"191":-0.18753714859485626,"192":-0.6936488151550293,"193":-0.5562560558319092,"194":0.526800811290741,"195":0.6647501587867737,"196":0.4037582278251648,"197":0.6822949647903442,"198":-0.802873432636261,"199":-0.16738371551036835,"200":-0.49639859795570374,"201":-0.47555169463157654,"202":-1.685073971748352,"203":-0.3115292489528656,"204":0.23118913173675537,"205":-0.6528694033622742,"206":-0.3184272348880768,"207":0.9960007071495056,"208":-1.1569597721099854,"209":0.20023208856582642,"210":0.8318698406219482,"211":0.4415784776210785,"212":-1.3825544118881226,"213":0.45112037658691406,"214":0.2160121351480484,"215":1.0500179529190063,"216":-0.5887506604194641,"217":1.1658806800842285,"218":1.325897216796875,"219":-2.0978376865386963,"220":0.12214910984039307,"221":0.03609437867999077,"222":-0.17103220522403717,"223":-0.15519559383392334,"224":0.20691639184951782,"225":0.8368977308273315,"226":1.623014211654663,"227":0.025300970301032066,"228":-0.4473234713077545,"229":-0.21253789961338043,"230":-0.19992750883102417,"231":0.17739276587963104,"232":-0.08657954633235931,"233":0.4252943694591522,"234":-0.2143506407737732,"235":0.3749571740627289,"236":0.7447772026062012,"237":0.2978462278842926,"238":0.22600415349006653,"239":1.1872774362564087,"240":-0.2868277132511139,"241":-0.18920786678791046,"242":-0.3448389768600464,"243":-0.11124511063098907,"244":0.895454466342926,"245":-0.7320399880409241,"246":-0.39643073081970215,"247":-0.2815149426460266,"248":0.09635008126497269,"249":-0.3325679898262024,"250":0.31901299953460693,"251":0.1866357922554016,"252":-0.07593471556901932,"253":-0.06557440757751465,"254":0.14848344027996063,"255":0.06961915642023087,"256":0.40865039825439453,"257":0.11195321381092072,"258":0.27216836810112,"259":-0.5701169967651367,"260":0.36715617775917053,"261":0.8678200840950012,"262":0.5784879326820374,"263":0.6944563388824463,"264":0.8237350583076477,"265":-0.3120473325252533,"266":-0.441552072763443,"267":-0.7489240169525146,"268":0.18553201854228973,"269":-1.093449354171753,"270":-0.5446808338165283,"271":0.8899324536323547,"272":0.587693989276886,"273":0.502666711807251,"274":-1.1778231859207153,"275":-1.0200810432434082,"276":0.561610221862793,"277":-0.9720578193664551,"278":1.0614073276519775,"279":0.1981196105480194,"280":-0.16959485411643982,"281":-0.5697131752967834,"282":-0.7438296675682068,"283":-0.730516254901886,"284":-0.08884872496128082,"285":-0.6938015818595886,"286":-0.7557249069213867,"287":1.4319051504135132,"288":-1.0438164472579956,"289":-0.06799526512622833,"290":0.5789278149604797,"291":0.2622840702533722,"292":-0.624545693397522,"293":-0.5928991436958313,"294":0.49543118476867676,"295":0.6030678749084473,"296":1.2409414052963257,"297":0.6390458345413208,"298":0.3775967061519623,"299":-1.4398266077041626,"300":-0.5674417614936829,"301":0.5646331310272217,"302":0.25509873032569885,"303":0.6041584014892578,"304":0.6168530583381653,"305":-0.5499175786972046,"306":-0.31945833563804626,"307":-0.8339456915855408,"308":0.5012819170951843,"309":-0.8036361336708069,"310":-0.48085683584213257,"311":0.8167029023170471,"312":0.7977311015129089,"313":0.7300358414649963,"314":-0.5636740326881409,"315":-0.6875823140144348,"316":-0.32323959469795227,"317":-0.5998443365097046,"318":0.8585676550865173,"319":0.5187341570854187,"320":0.2138257622718811,"321":1.1452138423919678,"322":0.0806427001953125,"323":0.476602166891098,"324":0.46625739336013794,"325":-0.6348050236701965,"326":0.23773521184921265,"327":0.6869303584098816,"328":0.29700353741645813,"329":0.9396111369132996,"330":0.07915852963924408,"331":1.3095836639404297,"332":-0.006811062805354595,"333":0.3111681342124939,"334":-0.2739410400390625,"335":-0.09137462079524994,"336":-0.9318874478340149,"337":0.03994905576109886,"338":0.9971322417259216,"339":0.41189056634902954,"340":0.17298009991645813,"341":0.9067664742469788,"342":0.30510327219963074,"343":-0.043581534177064896,"344":1.1119667291641235,"345":-0.9535412788391113,"346":-0.7292519211769104,"347":-0.9756379723548889,"348":0.2976253926753998,"349":-0.7929532527923584,"350":-0.33237960934638977,"351":0.4323521852493286,"352":0.7387857437133789,"353":0.37935706973075867,"354":-0.3269481360912323,"355":-0.7311117053031921,"356":0.2983468770980835,"357":-0.7954879403114319,"358":0.29489409923553467,"359":-0.13595375418663025,"360":-0.0168264452368021,"361":-0.18353714048862457,"362":0.35389113426208496,"363":0.3451763987541199,"364":0.4833637475967407,"365":0.44433170557022095,"366":-0.5795783400535583,"367":-0.22669155895709991,"368":0.03734259307384491,"369":0.3136546015739441,"370":0.3755715489387512,"371":0.8225618004798889,"372":0.12696987390518188,"373":0.009572847746312618,"374":0.6814662218093872,"375":-0.3492896854877472,"376":-0.8511866927146912,"377":-0.172028049826622,"378":-0.6348580121994019,"379":-0.677895188331604,"380":-0.34517648816108704,"381":-0.04124653711915016,"382":0.28989866375923157,"383":0.334540992975235,"384":1.6446943283081055,"385":-0.09653757512569427,"386":0.748285174369812,"387":-0.08553184568881989,"388":-0.5316397547721863,"389":-0.09892166405916214,"390":-0.10522687435150146,"391":0.006123838480561972,"392":0.318145215511322,"393":0.5064548254013062,"394":-0.30974799394607544,"395":-0.396680623292923,"396":0.11293306946754456,"397":-0.3445919156074524,"398":1.4565989971160889,"399":0.8651040196418762}},"forgetBias":{"rows":20,"columns":1,"weights":{"0":0,"1":0,"2":0,"3":0,"4":0,"5":0,"6":0,"7":0,"8":0,"9":0,"10":0,"11":0,"12":0,"13":0,"14":0,"15":0,"16":0,"17":0,"18":0,"19":0}},"outputMatrix":{"rows":20,"columns":30,"weights":{"0":0.5487356185913086,"1":0.42297303676605225,"2":-0.8076490759849548,"3":-1.1889028549194336,"4":0.2852272093296051,"5":0.5766755938529968,"6":-0.589682936668396,"7":-0.5260159373283386,"8":0.6479851603507996,"9":-1.1411186456680298,"10":0.37808364629745483,"11":-0.37942633032798767,"12":0.5975234508514404,"13":-0.57108074426651,"14":-0.8053479194641113,"15":0.4409935772418976,"16":-0.4614483416080475,"17":-0.6035979390144348,"18":0.26348555088043213,"19":0.5563200116157532,"20":1.402969241142273,"21":0.5884659290313721,"22":-0.7348527312278748,"23":0.43770018219947815,"24":0.805695652961731,"25":-0.8007457256317139,"26":0.5977948307991028,"27":0.6373379826545715,"28":0.11749918758869171,"29":0.5266823172569275,"30":-0.318342000246048,"31":0.13998574018478394,"32":0.382944256067276,"33":-0.39402103424072266,"34":-0.12140540033578873,"35":-0.6341412663459778,"36":0.6347593665122986,"37":-0.22023232281208038,"38":-0.0735216736793518,"39":0.26323723793029785,"40":-0.35090044140815735,"41":0.3949682116508484,"42":1.996216893196106,"43":0.2567042112350464,"44":0.5891065001487732,"45":-1.3674453496932983,"46":0.15476632118225098,"47":0.8856700658798218,"48":-0.6215026378631592,"49":-0.8731124401092529,"50":-1.2731205224990845,"51":-0.4302869737148285,"52":0.039611831307411194,"53":-0.6595778465270996,"54":-0.8075372576713562,"55":0.8655551671981812,"56":0.06999172270298004,"57":-0.9650217294692993,"58":-0.37723881006240845,"59":-0.1068694069981575,"60":-0.6585862636566162,"61":-0.0934508815407753,"62":0.4602493941783905,"63":0.7044121623039246,"64":0.7430723309516907,"65":0.5557594895362854,"66":-0.4582948386669159,"67":-0.913845419883728,"68":-0.7229778170585632,"69":-0.05072733759880066,"70":-0.18523423373699188,"71":-1.2916169166564941,"72":-0.12489406019449234,"73":-0.5830144882202148,"74":-0.3650206923484802,"75":-0.20796465873718262,"76":0.2756931483745575,"77":-0.16092923283576965,"78":0.2576018273830414,"79":-0.003699654946103692,"80":-0.1918051689863205,"81":-0.649170994758606,"82":-0.5892907381057739,"83":-0.35843414068222046,"84":-1.107778549194336,"85":-0.5010148882865906,"86":0.4991573393344879,"87":-0.2252723127603531,"88":0.1500156968832016,"89":0.7171164751052856,"90":-0.1679249107837677,"91":-0.936226487159729,"92":0.7963666319847107,"93":-0.9011590480804443,"94":-0.5134952068328857,"95":0.1789691150188446,"96":-0.1541137844324112,"97":-0.1637120395898819,"98":-0.5841221809387207,"99":0.12743453681468964,"100":-0.7466552257537842,"101":0.22945863008499146,"102":2.0397167205810547,"103":-0.22340092062950134,"104":-0.12613341212272644,"105":-1.2165086269378662,"106":0.662969708442688,"107":-0.0034013802651315928,"108":-0.05660858750343323,"109":0.12194330990314484,"110":0.15546724200248718,"111":-0.6173821091651917,"112":0.3723553419113159,"113":0.0440458282828331,"114":0.4761292636394501,"115":0.22583810985088348,"116":-0.3122967481613159,"117":-0.8115209937095642,"118":-1.394821047782898,"119":-0.45407965779304504,"120":-0.7974306344985962,"121":-0.17974625527858734,"122":0.5089375972747803,"123":-0.8136178851127625,"124":-1.2619102001190186,"125":-0.7732247710227966,"126":0.9800001382827759,"127":1.0573933124542236,"128":-0.06710673123598099,"129":-0.32638925313949585,"130":-0.40943077206611633,"131":1.2425237894058228,"132":1.089717149734497,"133":0.6008326411247253,"134":1.1730940341949463,"135":-0.48152586817741394,"136":0.5294305086135864,"137":0.9636206030845642,"138":-0.8135648369789124,"139":-0.5611732602119446,"140":-0.5303768515586853,"141":-0.14111781120300293,"142":1.3800642490386963,"143":-1.1723579168319702,"144":0.26169705390930176,"145":0.6460368037223816,"146":-0.753028154373169,"147":-0.6593404412269592,"148":-0.8318328857421875,"149":-0.9491270184516907,"150":-0.7295618057250977,"151":-0.04867342859506607,"152":-0.4207727611064911,"153":0.034814149141311646,"154":0.015019483864307404,"155":-1.0714740753173828,"156":0.6723587512969971,"157":-0.33688971400260925,"158":0.13324226438999176,"159":2.23248028755188,"160":0.15759240090847015,"161":-0.07987809181213379,"162":0.33127349615097046,"163":-0.007330012042075396,"164":0.8245008587837219,"165":0.01680712215602398,"166":-0.1627083122730255,"167":0.3693734407424927,"168":-0.47582805156707764,"169":-0.3285011947154999,"170":-0.9757473468780518,"171":-0.020748311653733253,"172":1.7680338621139526,"173":-0.4389975666999817,"174":-0.40834251046180725,"175":1.304734230041504,"176":0.14709113538265228,"177":-0.8769820332527161,"178":-0.3411462604999542,"179":-0.007056716363877058,"180":0.46599188446998596,"181":-0.6792811751365662,"182":1.5898405313491821,"183":-0.6478759050369263,"184":-1.4959675073623657,"185":1.0570875406265259,"186":-0.940498411655426,"187":1.4165986776351929,"188":-1.1293342113494873,"189":-0.4228382110595703,"190":-0.7609890103340149,"191":0.28777381777763367,"192":-0.45584923028945923,"193":-0.2408663034439087,"194":-0.7978798151016235,"195":-0.1352502554655075,"196":0.8340570330619812,"197":-0.457274466753006,"198":0.4306712746620178,"199":0.6244106888771057,"200":0.690701961517334,"201":-0.356948584318161,"202":-0.021406542509794235,"203":0.323652982711792,"204":0.8232392072677612,"205":-1.418492317199707,"206":-2.153035879135132,"207":0.08774267137050629,"208":-1.5469721555709839,"209":-0.9028214812278748,"210":-0.33632057905197144,"211":-0.791281521320343,"212":0.4862935543060303,"213":0.1684204339981079,"214":-0.947235107421875,"215":-0.5415025353431702,"216":0.7512026429176331,"217":1.0193922519683838,"218":-0.4622642397880554,"219":0.0033398924861103296,"220":-0.7680568695068359,"221":2.2795708179473877,"222":1.2344732284545898,"223":0.7333722114562988,"224":0.6944089531898499,"225":-1.0250006914138794,"226":0.7025595903396606,"227":1.482366681098938,"228":-0.8409237861633301,"229":-1.0242583751678467,"230":-1.27463698387146,"231":-0.716902494430542,"232":1.3981859683990479,"233":-0.533811628818512,"234":-1.10844087600708,"235":-0.19850951433181763,"236":-0.881906270980835,"237":-0.5614308714866638,"238":-0.8308573961257935,"239":-1.2173011302947998,"240":-0.5181592702865601,"241":-0.497928649187088,"242":0.5357381105422974,"243":-0.29539158940315247,"244":-0.7530888915061951,"245":0.43818071484565735,"246":-0.34953004121780396,"247":0.5897037386894226,"248":-0.6701973080635071,"249":-0.5254921317100525,"250":-0.4860917627811432,"251":1.681450366973877,"252":0.4320133626461029,"253":-0.5915583372116089,"254":-0.10158836096525192,"255":0.019993208348751068,"256":0.8009033799171448,"257":0.8957536220550537,"258":0.29522204399108887,"259":-0.5710937976837158,"260":-1.1386009454727173,"261":-0.3820909559726715,"262":0.7000935673713684,"263":-0.6008820533752441,"264":-0.7376269698143005,"265":-0.5911298394203186,"266":-1.076429843902588,"267":-0.34703782200813293,"268":-0.7382402420043945,"269":-0.4037817418575287,"270":0.6407151222229004,"271":1.0066865682601929,"272":-0.5655757188796997,"273":0.5689327120780945,"274":1.3074923753738403,"275":-0.21146689355373383,"276":-0.22538630664348602,"277":-0.968762993812561,"278":1.3688455820083618,"279":1.272005558013916,"280":0.8886688351631165,"281":-0.6342342495918274,"282":-0.9088979363441467,"283":-1.1735039949417114,"284":-0.2207382619380951,"285":-0.059967707842588425,"286":-1.1945632696151733,"287":0.1941571831703186,"288":0.034367285668849945,"289":-0.008657237514853477,"290":-0.22041353583335876,"291":1.149631381034851,"292":-0.42561161518096924,"293":0.25891733169555664,"294":0.18160291016101837,"295":0.5740913152694702,"296":1.2561111450195312,"297":-0.1811293214559555,"298":0.34293806552886963,"299":1.0866825580596924,"300":-0.6586187481880188,"301":0.5103774666786194,"302":-0.632344126701355,"303":-0.8989934325218201,"304":0.45448121428489685,"305":-2.0081121921539307,"306":1.0504745244979858,"307":-0.8712174892425537,"308":0.6766475439071655,"309":0.8453323841094971,"310":0.5141194462776184,"311":0.7816329002380371,"312":0.7924766540527344,"313":-0.8904169797897339,"314":0.7708410024642944,"315":-1.3553714752197266,"316":-0.6877869367599487,"317":0.5132416486740112,"318":-1.261371374130249,"319":-0.40630611777305603,"320":-0.2322487235069275,"321":0.49775269627571106,"322":0.44413918256759644,"323":-1.009753704071045,"324":0.055200982838869095,"325":1.5828030109405518,"326":0.8695946931838989,"327":-1.031328797340393,"328":-1.2164653539657593,"329":0.6213591694831848,"330":-1.2109696865081787,"331":0.10377100855112076,"332":-0.8221950531005859,"333":-1.069663405418396,"334":0.5926863551139832,"335":-1.3179242610931396,"336":0.6690598726272583,"337":-0.6933276057243347,"338":0.43040770292282104,"339":2.0170185565948486,"340":0.42298296093940735,"341":0.4371890425682068,"342":-0.0012672956800088286,"343":-0.5200117230415344,"344":1.2463449239730835,"345":0.029976319521665573,"346":-0.4719543159008026,"347":0.3672783672809601,"348":-0.7799292802810669,"349":-0.35516005754470825,"350":0.07549121975898743,"351":0.079745352268219,"352":1.9168169498443604,"353":-0.7145702838897705,"354":-0.25238922238349915,"355":1.7967395782470703,"356":0.3063931465148926,"357":-1.0341583490371704,"358":-1.215463399887085,"359":0.3369080126285553,"360":-0.03765331208705902,"361":-0.6180029511451721,"362":0.396258145570755,"363":0.4677940011024475,"364":0.1417086124420166,"365":-0.30549684166908264,"366":0.3492635488510132,"367":-0.1934126317501068,"368":-0.12566114962100983,"369":0.28130850195884705,"370":-0.5028957724571228,"371":0.7283080816268921,"372":1.0799654722213745,"373":0.4827140271663666,"374":0.5121250748634338,"375":-1.104627013206482,"376":0.39639562368392944,"377":1.203665018081665,"378":-0.701403796672821,"379":-0.9039403200149536,"380":-1.183173418045044,"381":-0.7203277349472046,"382":0.9014295339584351,"383":-0.44792062044143677,"384":-2.158219814300537,"385":0.27826234698295593,"386":0.38207557797431946,"387":-0.9332180023193359,"388":-0.014444897882640362,"389":-0.27479708194732666,"390":-1.7793703079223633,"391":1.1432969570159912,"392":-1.0408012866973877,"393":0.032113753259181976,"394":1.9560887813568115,"395":-0.7637220025062561,"396":0.8132560849189758,"397":-1.9164921045303345,"398":0.33498477935791016,"399":1.728816270828247,"400":0.4588008224964142,"401":0.1006745994091034,"402":0.6164376735687256,"403":-2.0500648021698,"404":0.4070661962032318,"405":-0.07012724876403809,"406":-1.392289638519287,"407":0.5295200943946838,"408":-0.6226010322570801,"409":-0.5610303282737732,"410":-0.14978691935539246,"411":1.109281301498413,"412":0.09521295875310898,"413":-0.5356611609458923,"414":0.31011825799942017,"415":0.5394044518470764,"416":0.16109351813793182,"417":-1.1654757261276245,"418":-0.7162072658538818,"419":1.7159538269042969,"420":-1.4518603086471558,"421":0.4455234408378601,"422":-0.5629804134368896,"423":0.7851578593254089,"424":0.8025627732276917,"425":-1.1054273843765259,"426":0.6830036044120789,"427":-0.8383516073226929,"428":0.609129011631012,"429":1.4762659072875977,"430":0.5291120409965515,"431":0.44692137837409973,"432":1.1083368062973022,"433":-0.9148973226547241,"434":1.2048745155334473,"435":-0.00031802852754481137,"436":-0.6293166875839233,"437":0.6845744848251343,"438":-0.872708797454834,"439":-0.5054249167442322,"440":-0.6012133359909058,"441":0.5452828407287598,"442":1.1864306926727295,"443":-1.1914700269699097,"444":-0.9577733874320984,"445":0.8210225701332092,"446":0.7705231308937073,"447":-1.7018210887908936,"448":0.2565319836139679,"449":0.6995731592178345,"450":-0.15142355859279633,"451":-0.12547755241394043,"452":-0.19799605011940002,"453":1.318336844444275,"454":0.07160482555627823,"455":-0.4686926007270813,"456":0.45316293835639954,"457":-0.20249693095684052,"458":0.2816567122936249,"459":0.7374650239944458,"460":0.20213498175144196,"461":0.1343783587217331,"462":1.8552534580230713,"463":0.29357975721359253,"464":0.7851808667182922,"465":-0.2698166072368622,"466":-0.0432702861726284,"467":1.951560139656067,"468":-0.46196526288986206,"469":-1.7323065996170044,"470":-1.2655961513519287,"471":-0.04820873588323593,"472":0.9980642199516296,"473":-0.5901789665222168,"474":-1.6683238744735718,"475":0.5784305930137634,"476":0.5028737783432007,"477":-0.696182370185852,"478":0.762761652469635,"479":-0.04285302013158798,"480":0.509229838848114,"481":-0.08788714557886124,"482":0.37170812487602234,"483":-0.6569324135780334,"484":0.15399187803268433,"485":0.5890514254570007,"486":-0.7039516568183899,"487":-0.005319292191416025,"488":-0.31418466567993164,"489":0.24022935330867767,"490":-0.25190240144729614,"491":-0.5122169852256775,"492":-0.7609411478042603,"493":-0.4813351333141327,"494":-0.7598764896392822,"495":0.23507089912891388,"496":0.020168766379356384,"497":-1.733216643333435,"498":0.7951978445053101,"499":1.5376923084259033,"500":1.2712454795837402,"501":0.1259327381849289,"502":-0.4949268698692322,"503":0.18348301947116852,"504":1.480238437652588,"505":-0.7618284821510315,"506":-0.2079022079706192,"507":0.41419950127601624,"508":-0.5752062797546387,"509":0.3638046085834503,"510":0.011161582544445992,"511":-0.34665584564208984,"512":-0.07471836358308792,"513":1.349822759628296,"514":0.2688397765159607,"515":-0.5579809546470642,"516":0.24319809675216675,"517":-0.18669015169143677,"518":0.03375730291008949,"519":1.24396812915802,"520":0.13674476742744446,"521":0.18607495725154877,"522":1.0716259479522705,"523":0.3314947783946991,"524":0.9170306324958801,"525":-0.025855517014861107,"526":0.16476158797740936,"527":1.291778802871704,"528":-0.33838021755218506,"529":-0.8942053914070129,"530":-0.7497782111167908,"531":-0.2902003526687622,"532":1.396460771560669,"533":-0.40695956349372864,"534":-1.603236198425293,"535":0.5355769395828247,"536":0.3392913341522217,"537":-0.6675854921340942,"538":0.8048397898674011,"539":-0.08849954605102539,"540":-0.32068008184432983,"541":1.4688336849212646,"542":-0.8677484393119812,"543":-0.13673678040504456,"544":0.27420011162757874,"545":-0.28130388259887695,"546":0.33838367462158203,"547":-0.8589248061180115,"548":1.6625056266784668,"549":0.26111236214637756,"550":1.193364143371582,"551":-0.3801029920578003,"552":-0.9504822492599487,"553":-1.0169388055801392,"554":0.1787077933549881,"555":1.0402024984359741,"556":-1.3993823528289795,"557":0.10227875411510468,"558":-0.11010798811912537,"559":-0.3675685524940491,"560":0.14141902327537537,"561":1.8177608251571655,"562":0.2907143235206604,"563":-0.2596679925918579,"564":1.309244155883789,"565":0.7770058512687683,"566":0.4324284791946411,"567":0.60139399766922,"568":-0.4338901937007904,"569":0.9807820916175842,"570":-1.3087615966796875,"571":0.011813342571258545,"572":0.7878397703170776,"573":-0.4909811019897461,"574":-0.21376416087150574,"575":-0.6378079652786255,"576":0.6812945008277893,"577":-0.07861699908971786,"578":-0.4956514239311218,"579":0.4995104968547821,"580":-0.6338669657707214,"581":0.3286571502685547,"582":0.1731102168560028,"583":-0.22700819373130798,"584":1.2715131044387817,"585":-0.2891952395439148,"586":0.24411332607269287,"587":0.8850090503692627,"588":-0.530942976474762,"589":-0.6962653398513794,"590":-1.0386584997177124,"591":-0.20823198556900024,"592":1.093318223953247,"593":-1.144103765487671,"594":-0.30937710404396057,"595":0.4782806932926178,"596":-0.44820451736450195,"597":-1.3756335973739624,"598":-0.9070989489555359,"599":0.11171700060367584}},"outputHidden":{"rows":20,"columns":20,"weights":{"0":2.6637699604034424,"1":-0.4639464020729065,"2":-1.1702922582626343,"3":-0.6763666868209839,"4":-1.263121247291565,"5":-0.7172061204910278,"6":0.5358051657676697,"7":0.7968708276748657,"8":-1.0611516237258911,"9":0.822693407535553,"10":0.374919593334198,"11":0.40544888377189636,"12":-0.6411276459693909,"13":-1.697435975074768,"14":0.5174329280853271,"15":0.7134830355644226,"16":-1.4285552501678467,"17":0.43352553248405457,"18":-1.0846612453460693,"19":-0.41446453332901,"20":0.06476545333862305,"21":-0.5413784980773926,"22":-0.32424572110176086,"23":-1.0582178831100464,"24":-0.019461803138256073,"25":0.34873777627944946,"26":-1.6393768787384033,"27":0.422773540019989,"28":-0.5471219420433044,"29":0.6914728283882141,"30":0.46611565351486206,"31":-1.0645732879638672,"32":-0.46477195620536804,"33":-0.5603143572807312,"34":0.5252006649971008,"35":0.452836811542511,"36":1.6129403114318848,"37":0.47450706362724304,"38":-0.5064937472343445,"39":0.019951028749346733,"40":-0.01729818433523178,"41":-0.9283217191696167,"42":-0.9422326683998108,"43":-0.6133594512939453,"44":-0.34858036041259766,"45":0.8127204775810242,"46":-2.1084628105163574,"47":0.7613904476165771,"48":-0.512645959854126,"49":1.5953564643859863,"50":0.16309349238872528,"51":-0.9683016538619995,"52":-1.0041193962097168,"53":-0.5027925372123718,"54":0.38005197048187256,"55":1.0234161615371704,"56":3.2076354026794434,"57":0.3630782961845398,"58":-0.5716404914855957,"59":-0.8284738659858704,"60":1.249862790107727,"61":0.2276911437511444,"62":-0.2338556945323944,"63":-0.1912589818239212,"64":-0.4188595116138458,"65":1.3705922365188599,"66":-0.05622728914022446,"67":0.4109913408756256,"68":-0.04018907621502876,"69":0.09786644577980042,"70":-1.0200443267822266,"71":-0.6740739941596985,"72":-0.27863648533821106,"73":-0.36017733812332153,"74":-0.41244348883628845,"75":0.7298588752746582,"76":2.2599380016326904,"77":0.04945925250649452,"78":-0.13436579704284668,"79":-0.8401423096656799,"80":-0.22592294216156006,"81":0.19140784442424774,"82":-0.5922926068305969,"83":-0.20709462463855743,"84":0.5257707238197327,"85":-0.5533198118209839,"86":-0.03018026426434517,"87":0.4730759561061859,"88":-0.4966926574707031,"89":0.7307214736938477,"90":0.5344138741493225,"91":0.33246228098869324,"92":-0.44531527161598206,"93":-1.227445125579834,"94":0.46981629729270935,"95":0.5927736759185791,"96":-0.6604682803153992,"97":0.6465374827384949,"98":1.0940061807632446,"99":-0.12173385173082352,"100":-0.30477192997932434,"101":0.34166693687438965,"102":0.8086733222007751,"103":-0.5815740823745728,"104":0.030374588444828987,"105":0.5062917470932007,"106":-1.3603549003601074,"107":-0.8888258934020996,"108":1.4844410419464111,"109":-2.0419788360595703,"110":-1.4229387044906616,"111":0.7844191193580627,"112":1.118370532989502,"113":0.9087707996368408,"114":-1.166276216506958,"115":-0.8568812608718872,"116":0.8688267469406128,"117":-0.7580301761627197,"118":1.1342616081237793,"119":0.37470194697380066,"120":0.2566837966442108,"121":1.170689582824707,"122":1.189995288848877,"123":1.2852413654327393,"124":0.6514313220977783,"125":0.46677905321121216,"126":1.4620379209518433,"127":-1.1329375505447388,"128":1.1898740530014038,"129":-1.3732632398605347,"130":-1.724064588546753,"131":0.6213482022285461,"132":1.35396409034729,"133":1.5767115354537964,"134":-1.3235398530960083,"135":-1.3593941926956177,"136":-1.1401230096817017,"137":-1.3311007022857666,"138":0.813450038433075,"139":1.552158236503601,"140":-0.6306359171867371,"141":0.3851552903652191,"142":-0.12933224439620972,"143":-0.567432701587677,"144":1.2005375623703003,"145":-0.06379004567861557,"146":-0.006813323590904474,"147":0.08782639354467392,"148":0.023359009996056557,"149":-0.2367902398109436,"150":0.45472434163093567,"151":-0.13469615578651428,"152":0.16304989159107208,"153":-0.5556505918502808,"154":-0.0888688787817955,"155":-0.19705931842327118,"156":0.9181584715843201,"157":-0.17337024211883545,"158":0.8419374823570251,"159":-0.16031146049499512,"160":-0.6267987489700317,"161":-1.301504373550415,"162":-1.9493088722229004,"163":-1.3354014158248901,"164":0.8186891674995422,"165":1.9597680568695068,"166":-0.526320219039917,"167":1.2082397937774658,"168":-1.167829990386963,"169":0.47935229539871216,"170":0.7716428637504578,"171":-0.47320985794067383,"172":-1.0596174001693726,"173":-1.0567556619644165,"174":1.204766035079956,"175":0.8775586485862732,"176":-0.05127982050180435,"177":-1.068015217781067,"178":0.5997436046600342,"179":-0.6628738045692444,"180":-0.8011539578437805,"181":-0.5864580869674683,"182":-0.617729902267456,"183":-0.8443055152893066,"184":1.3040342330932617,"185":0.9928106665611267,"186":1.9549473524093628,"187":-0.8407161235809326,"188":0.9159278869628906,"189":-0.19955170154571533,"190":0.4145399034023285,"191":0.5647541880607605,"192":-0.04254418611526489,"193":0.42572298645973206,"194":-0.12893298268318176,"195":0.18698854744434357,"196":0.17730240523815155,"197":-0.021949298679828644,"198":0.4563004672527313,"199":0.8831644058227539,"200":0.05287051573395729,"201":0.42729678750038147,"202":0.9228276610374451,"203":1.349143147468567,"204":-0.004585125017911196,"205":1.1788321733474731,"206":-0.3680586814880371,"207":0.14659492671489716,"208":0.10270791500806808,"209":0.2596217691898346,"210":-0.8778792023658752,"211":1.1592330932617188,"212":-0.04590822011232376,"213":-0.06064750999212265,"214":-0.27048277854919434,"215":-0.2374139428138733,"216":0.19059494137763977,"217":-0.24561554193496704,"218":0.778266429901123,"219":-1.0589202642440796,"220":-0.1820528507232666,"221":0.596004843711853,"222":0.9205049276351929,"223":1.1469918489456177,"224":0.10545776784420013,"225":0.7095361351966858,"226":0.45211732387542725,"227":-0.4754216969013214,"228":-0.4458967447280884,"229":-0.5263406038284302,"230":-1.1310291290283203,"231":-0.10410600155591965,"232":0.7514873743057251,"233":0.6306280493736267,"234":-1.1636725664138794,"235":-1.144487738609314,"236":-0.26413771510124207,"237":-0.9316158890724182,"238":0.07929278910160065,"239":0.27902862429618835,"240":0.16969315707683563,"241":-0.6386873126029968,"242":-1.036875605583191,"243":-0.7545592188835144,"244":0.7729759216308594,"245":-0.3388025164604187,"246":-0.5916693806648254,"247":0.6395304203033447,"248":-0.8883152008056641,"249":0.567793607711792,"250":0.670583188533783,"251":-0.54062819480896,"252":-1.0363043546676636,"253":-1.1214262247085571,"254":1.0501035451889038,"255":0.870522141456604,"256":1.5739518404006958,"257":0.9623708724975586,"258":0.14758643507957458,"259":-0.9232258200645447,"260":1.1092586517333984,"261":0.3200896680355072,"262":0.22446507215499878,"263":-0.2944558560848236,"264":0.0811382532119751,"265":-0.42904144525527954,"266":-0.7533712983131409,"267":0.0813891738653183,"268":-0.17757733166217804,"269":0.2422202229499817,"270":0.3368322253227234,"271":0.7109876275062561,"272":-0.12588822841644287,"273":-0.012467327527701855,"274":-0.2125038057565689,"275":0.13729336857795715,"276":-0.29194825887680054,"277":0.12306451052427292,"278":0.297159343957901,"279":-0.8502477407455444,"280":0.310362309217453,"281":0.21732854843139648,"282":-0.255656361579895,"283":0.13578741252422333,"284":-0.7952792048454285,"285":-0.5807067155838013,"286":-0.605730414390564,"287":-0.1809578835964203,"288":0.46684542298316956,"289":-0.2624986469745636,"290":-0.07171235978603363,"291":0.794940173625946,"292":0.07809558510780334,"293":0.17377206683158875,"294":-0.5381212830543518,"295":-0.09420569986104965,"296":1.4505356550216675,"297":-0.04407355189323425,"298":0.47271350026130676,"299":-0.13170930743217468,"300":0.37181925773620605,"301":1.6423399448394775,"302":-2.0303444862365723,"303":0.6881240010261536,"304":0.2797503173351288,"305":-3.2948896884918213,"306":-0.8745250701904297,"307":-0.7216044068336487,"308":0.5838210582733154,